{"learner":{"attributes":{"scikit_learn":"{\"_estimator_type\": \"regressor\"}"},"feature_names":["balls","entry_score","entry_wkts","entry_balls_remaining","entry_required_rr","balls_pp","balls_middle","balls_death","pressure_proxy","fours","sixes","innings"],"feature_types":["int","int","int","int","int","int","int","int","int","int","int","int"],"gradient_booster":{"model":{"cats":{"enc":[],"feature_segments":[],"sorted_idx":[]},"gbtree_model_param":{"num_parallel_tree":"1","num_trees":"800"},"iteration_indptr":[0,1,2,3,4,5,6,7,8,9,10,11,12,13,14,15,16,17,18,19,20,21,22,23,24,25,26,27,28,29,30,31,32,33,34,35,36,37,38,39,40,41,42,43,44,45,46,47,48,49,50,51,52,53,54,55,56,57,58,59,60,61,62,63,64,65,66,67,68,69,70,71,72,73,74,75,76,77,78,79,80,81,82,83,84,85,86,87,88,89,90,91,92,93,94,95,96,97,98,99,100,101,102,103,104,105,106,107,108,109,110,111,112,113,114,115,116,117,118,119,120,121,122,123,124,125,126,127,128,129,130,131,132,133,134,135,136,137,138,139,140,141,142,143,144,145,146,147,148,149,150,151,152,153,154,155,156,157,158,159,160,161,162,163,164,165,166,167,168,169,170,171,172,173,174,175,176,177,178,179,180,181,182,183,184,185,186,187,188,189,190,191,192,193,194,195,196,197,198,199,200,201,202,203,204,205,206,207,208,209,210,211,212,213,214,215,216,217,218,219,220,221,222,223,224,225,226,227,228,229,230,231,232,233,234,235,236,237,238,239,240,241,242,243,244,245,246,247,248,249,250,251,252,253,254,255,256,257,258,259,260,261,262,263,264,265,266,267,268,269,270,271,272,273,274,275,276,277,278,279,280,281,282,283,284,285,286,287,288,289,290,291,292,293,294,295,296,297,298,299,300,301,302,303,304,305,306,307,308,309,310,311,312,313,314,315,316,317,318,319,320,321,322,323,324,325,326,327,328,329,330,331,332,333,334,335,336,337,338,339,340,341,342,343,344,345,346,347,348,349,350,351,352,353,354,355,356,357,358,359,360,361,362,363,364,365,366,367,368,369,370,371,372,373,374,375,376,377,378,379,380,381,382,383,384,385,386,387,388,389,390,391,392,393,394,395,396,397,398,399,400,401,402,403,404,405,406,407,408,409,410,411,412,413,414,415,416,417,418,419,420,421,422,423,424,425,426,427,428,429,430,431,432,433,434,435,436,437,438,439,440,441,442,443,444,445,446,447,448,449,450,451,452,453,454,455,456,457,458,459,460,461,462,463,464,465,466,467,468,469,470,471,472,473,474,475,476,477,478,479,480,481,482,483,484,485,486,487,488,489,490,491,492,493,494,495,496,497,498,499,500,501,502,503,504,505,506,507,508,509,510,511,512,513,514,515,516,517,518,519,520,521,522,523,524,525,526,527,528,529,530,531,532,533,534,535,536,537,538,539,540,541,542,543,544,545,546,547,548,549,550,551,552,553,554,555,556,557,558,559,560,561,562,563,564,565,566,567,568,569,570,571,572,573,574,575,576,577,578,579,580,581,582,583,584,585,586,587,588,589,590,591,592,593,594,595,596,597,598,599,600,601,602,603,604,605,606,607,608,609,610,611,612,613,614,615,616,617,618,619,620,621,622,623,624,625,626,627,628,629,630,631,632,633,634,635,636,637,638,639,640,641,642,643,644,645,646,647,648,649,650,651,652,653,654,655,656,657,658,659,660,661,662,663,664,665,666,667,668,669,670,671,672,673,674,675,676,677,678,679,680,681,682,683,684,685,686,687,688,689,690,691,692,693,694,695,696,697,698,699,700,701,702,703,704,705,706,707,708,709,710,711,712,713,714,715,716,717,718,719,720,721,722,723,724,725,726,727,728,729,730,731,732,733,734,735,736,737,738,739,740,741,742,743,744,745,746,747,748,749,750,751,752,753,754,755,756,757,758,759,760,761,762,763,764,765,766,767,768,769,770,771,772,773,774,775,776,777,778,779,780,781,782,783,784,785,786,787,788,789,790,791,792,793,794,795,796,797,798,799,800],"tree_info":[0,0,0,0,0,0,0,0,0,0,0,0,0,0,0,0,0,0,0,0,0,0,0,0,0,0,0,0,0,0,0,0,0,0,0,0,0,0,0,0,0,0,0,0,0,0,0,0,0,0,0,0,0,0,0,0,0,0,0,0,0,0,0,0,0,0,0,0,0,0,0,0,0,0,0,0,0,0,0,0,0,0,0,0,0,0,0,0,0,0,0,0,0,0,0,0,0,0,0,0,0,0,0,0,0,0,0,0,0,0,0,0,0,0,0,0,0,0,0,0,0,0,0,0,0,0,0,0,0,0,0,0,0,0,0,0,0,0,0,0,0,0,0,0,0,0,0,0,0,0,0,0,0,0,0,0,0,0,0,0,0,0,0,0,0,0,0,0,0,0,0,0,0,0,0,0,0,0,0,0,0,0,0,0,0,0,0,0,0,0,0,0,0,0,0,0,0,0,0,0,0,0,0,0,0,0,0,0,0,0,0,0,0,0,0,0,0,0,0,0,0,0,0,0,0,0,0,0,0,0,0,0,0,0,0,0,0,0,0,0,0,0,0,0,0,0,0,0,0,0,0,0,0,0,0,0,0,0,0,0,0,0,0,0,0,0,0,0,0,0,0,0,0,0,0,0,0,0,0,0,0,0,0,0,0,0,0,0,0,0,0,0,0,0,0,0,0,0,0,0,0,0,0,0,0,0,0,0,0,0,0,0,0,0,0,0,0,0,0,0,0,0,0,0,0,0,0,0,0,0,0,0,0,0,0,0,0,0,0,0,0,0,0,0,0,0,0,0,0,0,0,0,0,0,0,0,0,0,0,0,0,0,0,0,0,0,0,0,0,0,0,0,0,0,0,0,0,0,0,0,0,0,0,0,0,0,0,0,0,0,0,0,0,0,0,0,0,0,0,0,0,0,0,0,0,0,0,0,0,0,0,0,0,0,0,0,0,0,0,0,0,0,0,0,0,0,0,0,0,0,0,0,0,0,0,0,0,0,0,0,0,0,0,0,0,0,0,0,0,0,0,0,0,0,0,0,0,0,0,0,0,0,0,0,0,0,0,0,0,0,0,0,0,0,0,0,0,0,0,0,0,0,0,0,0,0,0,0,0,0,0,0,0,0,0,0,0,0,0,0,0,0,0,0,0,0,0,0,0,0,0,0,0,0,0,0,0,0,0,0,0,0,0,0,0,0,0,0,0,0,0,0,0,0,0,0,0,0,0,0,0,0,0,0,0,0,0,0,0,0,0,0,0,0,0,0,0,0,0,0,0,0,0,0,0,0,0,0,0,0,0,0,0,0,0,0,0,0,0,0,0,0,0,0,0,0,0,0,0,0,0,0,0,0,0,0,0,0,0,0,0,0,0,0,0,0,0,0,0,0,0,0,0,0,0,0,0,0,0,0,0,0,0,0,0,0,0,0,0,0,0,0,0,0,0,0,0,0,0,0,0,0,0,0,0,0,0,0,0,0,0,0,0,0,0,0,0,0,0,0,0,0,0,0,0,0,0,0,0,0,0,0,0,0,0,0,0,0,0,0,0,0,0,0,0,0,0,0,0,0,0,0,0,0,0,0,0,0,0,0,0,0,0,0,0,0,0,0,0,0,0,0,0,0,0,0,0,0,0,0,0,0,0,0,0,0,0,0,0,0,0,0,0,0,0,0,0,0,0,0,0,0,0,0,0,0,0,0,0,0,0,0,0,0,0,0,0,0,0,0,0,0,0,0,0,0,0,0,0,0,0,0,0,0,0,0,0,0,0,0,0,0,0,0,0,0,0,0,0,0,0,0,0,0,0,0,0,0,0,0],"trees":[{"base_weights":[1.0857124E-1,-9.3580885E0,2.980402E1,-1.53583765E1,-5.687804E-1,2.111284E1,4.993664E1,-1.756347E1,-1.1607005E1,-4.591052E0,4.684129E0,1.6584913E1,2.8988228E1,4.3768948E1,6.959888E1,-1.9012571E1,-1.6288837E1,-1.2474858E1,-8.241715E0,-6.430375E0,-2.3037224E0,2.7602885E0,7.8415303E0,1.2745531E1,1.8755335E1,2.6044762E1,3.280318E1,3.8659084E1,2.5313106E0,3.177059E0,3.9401371E0,-9.671184E-1,-9.038631E-1,-1.6900719E1,-7.241259E-1,-1.3316483E1,-1.132064E1,-4.8634383E-1,-7.187919E0,-7.8630543E0,-3.366185E0,-3.2521253E0,2.520994E0,1.7259458E0,8.241855E0,7.152892E0,1.1516317E1,1.1087784E1,1.0217036E0,1.7994995E1,1.3044194E0,2.4245003E1,3.310348E1,1.5713867E0,4.0654194E1,1.8619226E0,2.0737185E0,-8.614154E-1,-7.9018795E-1,-6.9698185E-1,-5.487265E-1,-5.925347E-1,-5.382616E-1,-3.3749726E-1,-3.890236E-1,-4.2892152E-1,-2.9749718E-1,-2.4201739E-1,-1.0938404E-1,-2.0071141E-1,-7.587458E-2,5.4246575E-2,2.209653E-1,2.4163108E-2,1.4987046E-1,2.992365E-1,5.8201146E-1,2.581291E-1,4.1251612E-1,5.1778626E-1,6.6299206E-1,5.4024595E-1,7.305283E-1,8.1918794E-1,1.0037874E0,1.0894578E0,1.2595831E0,1.4695462E0,1.8567008E0,1.7549305E0,2.40914E0],"categories":[],"categories_nodes":[],"categories_segments":[],"categories_sizes":[],"default_left":[0,0,0,0,0,0,0,0,0,0,0,0,0,0,0,0,0,0,0,0,0,0,0,0,0,0,0,0,0,0,0,0,0,0,0,0,0,0,0,0,0,0,0,0,0,0,0,0,0,0,0,0,0,0,0,0,0,0,0,0,0,0,0,0,0,0,0,0,0,0,0,0,0,0,0,0,0,0,0,0,0,0,0,0,0,0,0,0,0,0,0],"id":0,"left_children":[1,3,5,7,9,11,13,15,17,19,21,23,25,27,29,31,33,35,37,39,41,43,45,47,49,51,53,55,-1,-1,-1,-1,-1,57,-1,59,61,-1,63,65,67,69,71,73,75,77,79,81,-1,83,-1,85,87,-1,89,-1,-1,-1,-1,-1,-1,-1,-1,-1,-1,-1,-1,-1,-1,-1,-1,-1,-1,-1,-1,-1,-1,-1,-1,-1,-1,-1,-1,-1,-1,-1,-1,-1,-1,-1,-1],"loss_changes":[3.3736795E6,4.7991056E5,5.0655175E5,4.4531875E4,7.804954E4,7.1836E4,1.0294425E5,5.97775E3,5.7529375E3,8.786523E3,9.709441E3,1.0510594E4,7.4439375E3,2.144925E4,6.534E3,1.398125E2,1.7645938E3,1.39575E3,5.780156E2,5.061539E3,4.281972E3,5.6385825E3,1.4511719E3,5.7511484E3,4.1136875E3,4.5585E3,2.1563125E3,3.375E0,0E0,0E0,0E0,0E0,0E0,2.1359375E2,0E0,1.1823594E3,7.203125E1,0E0,1.1325195E1,1.0287812E3,6.3395215E2,1.0263662E3,4.1502393E2,1.3257742E3,1.1422842E3,1.0779141E3,5.2896484E1,2.2876562E2,0E0,2.1788281E3,0E0,2.4154688E2,1.5057812E2,0E0,1.491875E2,0E0,0E0,0E0,0E0,0E0,0E0,0E0,0E0,0E0,0E0,0E0,0E0,0E0,0E0,0E0,0E0,0E0,0E0,0E0,0E0,0E0,0E0,0E0,0E0,0E0,0E0,0E0,0E0,0E0,0E0,0E0,0E0,0E0,0E0,0E0,0E0],"parents":[2147483647,0,0,1,1,2,2,3,3,4,4,5,5,6,6,7,7,8,8,9,9,10,10,11,11,12,12,13,13,14,14,15,15,16,16,17,17,18,18,19,19,20,20,21,21,22,22,23,23,24,24,25,25,26,26,27,27,33,33,35,35,36,36,38,38,39,39,40,40,41,41,42,42,43,43,44,44,45,45,46,46,47,47,49,49,51,51,52,52,54,54],"right_children":[2,4,6,8,10,12,14,16,18,20,22,24,26,28,30,32,34,36,38,40,42,44,46,48,50,52,54,56,-1,-1,-1,-1,-1,58,-1,60,62,-1,64,66,68,70,72,74,76,78,80,82,-1,84,-1,86,88,-1,90,-1,-1,-1,-1,-1,-1,-1,-1,-1,-1,-1,-1,-1,-1,-1,-1,-1,-1,-1,-1,-1,-1,-1,-1,-1,-1,-1,-1,-1,-1,-1,-1,-1,-1,-1,-1],"split_conditions":[2.3E1,1E1,4E1,6E0,1.6E1,3.2E1,5.3E1,3E0,7E0,1.3E1,2E1,2.6E1,3.6E1,4.6E1,5.9E1,2E0,4E0,8E0,8E0,4E0,1E1,1E1,9E0,1E1,1.2E1,9E0,1E1,4.4E1,2.5313106E0,3.177059E0,3.9401371E0,-9.671184E-1,-9.038631E-1,5E0,-7.241259E-1,6E0,2E0,-4.8634383E-1,2E0,1.2E1,1E1,1.5E1,1.3E1,1.8E1,1.3E1,2.1E1,1.3E1,8E0,1.0217036E0,2.9E1,1.3044194E0,3.3E1,1.3E1,1.5713867E0,3.8E1,1.8619226E0,2.0737185E0,-8.614154E-1,-7.9018795E-1,-6.9698185E-1,-5.487265E-1,-5.925347E-1,-5.382616E-1,-3.3749726E-1,-3.890236E-1,-4.2892152E-1,-2.9749718E-1,-2.4201739E-1,-1.0938404E-1,-2.0071141E-1,-7.587458E-2,5.4246575E-2,2.209653E-1,2.4163108E-2,1.4987046E-1,2.992365E-1,5.8201146E-1,2.581291E-1,4.1251612E-1,5.1778626E-1,6.6299206E-1,5.4024595E-1,7.305283E-1,8.1918794E-1,1.0037874E0,1.0894578E0,1.2595831E0,1.4695462E0,1.8567008E0,1.7549305E0,2.40914E0],"split_indices":[0,0,0,0,0,0,0,0,7,0,0,0,0,0,0,7,7,0,0,7,7,7,7,7,7,7,7,0,0,0,0,0,0,0,0,7,11,0,11,0,7,0,7,0,7,0,7,7,0,0,0,0,7,0,0,0,0,0,0,0,0,0,0,0,0,0,0,0,0,0,0,0,0,0,0,0,0,0,0,0,0,0,0,0,0,0,0,0,0,0,0],"split_type":[0,0,0,0,0,0,0,0,0,0,0,0,0,0,0,0,0,0,0,0,0,0,0,0,0,0,0,0,0,0,0,0,0,0,0,0,0,0,0,0,0,0,0,0,0,0,0,0,0,0,0,0,0,0,0,0,0,0,0,0,0,0,0,0,0,0,0,0,0,0,0,0,0,0,0,0,0,0,0,0,0,0,0,0,0,0,0,0,0,0,0],"sum_hessian":[1.1999E4,9.099E3,2.9E3,5.407E3,3.692E3,2.027E3,8.73E2,3.403E3,2.004E3,2.091E3,1.601E3,1.289E3,7.38E2,6.67E2,2.06E2,1.586E3,1.817E3,1.591E3,4.13E2,1.158E3,9.33E2,9.96E2,6.05E2,4.68E2,8.21E2,4.21E2,3.17E2,3.86E2,2.81E2,1.29E2,7.7E1,1.158E3,4.28E2,1.351E3,4.66E2,9.14E2,6.77E2,1.68E2,2.45E2,7.88E2,3.7E2,7.8E2,1.53E2,8.39E2,1.57E2,5.12E2,9.3E1,3.87E2,8.1E1,7.47E2,7.4E1,3.39E2,8.2E1,2.74E2,4.3E1,2.66E2,1.2E2,1.029E3,3.22E2,7.18E2,1.96E2,3.36E2,3.41E2,1.48E2,9.7E1,5.71E2,2.17E2,1.63E2,2.07E2,5.41E2,2.39E2,8.8E1,6.5E1,4.25E2,4.14E2,9.6E1,6.1E1,1.84E2,3.28E2,6E1,3.3E1,3.62E2,2.5E1,4.26E2,3.21E2,1.01E2,2.38E2,4.7E1,3.5E1,2.8E1,1.5E1],"tree_param":{"num_deleted":"0","num_feature":"12","num_nodes":"91","size_leaf_vector":"1"}},{"base_weights":[2.3395177E-2,-8.875288E0,2.826784E1,-1.4549919E1,-4.906433E-1,1.8403856E1,4.493295E1,-1.6640984E1,-1.1070627E1,-4.29068E0,4.3149695E0,1.4423051E1,2.391812E1,3.8719967E1,6.3153908E1,-1.7615168E1,-1.4790626E1,-1.1886054E1,-7.8908925E0,-5.180791E0,-3.2019358E-2,2.552097E0,7.146696E0,1.2943525E1,2.0501749E1,2.2559103E1,2.9714668E1,3.5101246E1,2.287983E0,2.8983662E0,3.784943E0,-1.7930853E1,-7.8348964E-1,-1.5556008E1,-6.811366E-1,-1.2705517E1,-1.0768547E1,-9.509575E0,-6.8041315E0,-6.9778385E0,-3.0083735E0,-1.0204096E0,4.4390383E0,1.4795911E0,7.8677955E0,6.410961E0,1.0616137E1,9.902426E0,1.5302246E1,9.398419E-1,2.1830873E1,2.1558805E1,1.4468445E0,2.6560781E1,3.416328E1,2.11846E0,3.4074368E1,-9.257819E-1,-8.731169E-1,-7.8174466E-1,-4.5717463E-1,-6.6852254E-1,-5.2468807E-1,-5.4766685E-1,-4.5449907E-1,-4.3397865E-1,-5.1726764E-1,-3.167088E-1,-3.7098235E-1,-3.7862268E-1,-2.1007697E-1,-1.7967257E-1,-8.485335E-2,-8.7223195E-2,4.0524684E-2,1.3896392E-1,3.6745328E-1,-2.7588472E-2,1.0984266E-1,2.7157184E-1,5.660017E-1,2.4268794E-1,3.678179E-1,6.035541E-1,4.1127545E-1,4.5648932E-1,5.888526E-1,1.1151881E0,7.42508E-1,9.0752697E-1,1.1595047E0,1.0023954E0,1.165837E0,1.352507E0,4.8220405E-1,1.7410475E0,8.5363674E-1,1.5400589E0,1.7896341E0],"categories":[],"categories_nodes":[],"categories_segments":[],"categories_sizes":[],"default_left":[0,0,0,0,0,0,0,0,0,0,0,0,0,0,0,0,0,0,0,0,0,0,0,0,0,0,0,0,0,0,0,0,0,0,0,0,0,0,0,0,0,0,0,0,0,0,0,0,0,0,0,0,0,0,0,0,0,0,0,0,0,0,0,0,0,0,0,0,0,0,0,0,0,0,0,0,0,0,0,0,0,0,0,0,0,0,0,0,0,0,0,0,0,0,0,0,0,0,0],"id":1,"left_children":[1,3,5,7,9,11,13,15,17,19,21,23,25,27,29,31,33,35,37,39,41,43,45,47,49,51,53,55,-1,-1,-1,57,-1,59,-1,61,63,65,67,69,71,73,75,77,79,81,83,85,87,-1,89,91,-1,93,95,-1,97,-1,-1,-1,-1,-1,-1,-1,-1,-1,-1,-1,-1,-1,-1,-1,-1,-1,-1,-1,-1,-1,-1,-1,-1,-1,-1,-1,-1,-1,-1,-1,-1,-1,-1,-1,-1,-1,-1,-1,-1,-1,-1],"loss_changes":[3.0266165E6,4.3568075E5,4.7342175E5,3.954675E4,6.75313E4,3.94745E4,1.1891225E5,5.8845E3,5.2293125E3,7.8275938E3,8.1336523E3,9.231891E3,5.3087188E3,1.88245E4,1.3244625E4,1.0873125E3,8.4465625E2,1.3576875E3,6.7764453E2,6.6469297E3,1.5865851E3,5.735086E3,1.5298613E3,5.959953E3,5.4179688E1,3.3251875E3,1.0708906E3,2.54175E3,0E0,0E0,0E0,1.999375E2,0E0,2.146875E2,0E0,1.23625E3,1.16625E2,2.605371E1,2.7054688E1,1.5100547E3,5.8849414E2,3.911619E2,2.9352136E2,1.2251073E3,1.359956E3,7.2835156E2,2.763584E2,4.356289E2,1.1817969E3,0E0,1.2434375E2,9.641719E2,0E0,4.5933984E2,2.3703125E1,0E0,1.5578125E3,0E0,0E0,0E0,0E0,0E0,0E0,0E0,0E0,0E0,0E0,0E0,0E0,0E0,0E0,0E0,0E0,0E0,0E0,0E0,0E0,0E0,0E0,0E0,0E0,0E0,0E0,0E0,0E0,0E0,0E0,0E0,0E0,0E0,0E0,0E0,0E0,0E0,0E0,0E0,0E0,0E0,0E0],"parents":[2147483647,0,0,1,1,2,2,3,3,4,4,5,5,6,6,7,7,8,8,9,9,10,10,11,11,12,12,13,13,14,14,15,15,16,16,17,17,18,18,19,19,20,20,21,21,22,22,23,23,24,24,25,25,26,26,27,27,31,31,33,33,35,35,36,36,37,37,38,38,39,39,40,40,41,41,42,42,43,43,44,44,45,45,46,46,47,47,48,48,50,50,51,51,53,53,54,54,56,56],"right_children":[2,4,6,8,10,12,14,16,18,20,22,24,26,28,30,32,34,36,38,40,42,44,46,48,50,52,54,56,-1,-1,-1,58,-1,60,-1,62,64,66,68,70,72,74,76,78,80,82,84,86,88,-1,90,92,-1,94,96,-1,98,-1,-1,-1,-1,-1,-1,-1,-1,-1,-1,-1,-1,-1,-1,-1,-1,-1,-1,-1,-1,-1,-1,-1,-1,-1,-1,-1,-1,-1,-1,-1,-1,-1,-1,-1,-1,-1,-1,-1,-1,-1,-1],"split_conditions":[2.3E1,1E1,3.7E1,6E0,1.6E1,3E1,5.1E1,4E0,7E0,1E1,2E1,9E0,9E0,4.5E1,5.9E1,3E0,4E0,8E0,8E0,1.3E1,1.3E1,1E1,9E0,2.6E1,1.2E1,3.6E1,3.4E1,1E0,2.287983E0,2.8983662E0,3.784943E0,2E0,-7.8348964E-1,3E0,-6.811366E-1,5E0,4E0,2E0,2E0,4E0,1.5E1,1.3E1,1E0,1.7E1,1.3E1,2.1E1,2E0,2.5E1,6E0,9.398419E-1,2.5E1,3.3E1,1.4468445E0,2E0,1E0,2.11846E0,4E1,-9.257819E-1,-8.731169E-1,-7.8174466E-1,-4.5717463E-1,-6.6852254E-1,-5.2468807E-1,-5.4766685E-1,-4.5449907E-1,-4.3397865E-1,-5.1726764E-1,-3.167088E-1,-3.7098235E-1,-3.7862268E-1,-2.1007697E-1,-1.7967257E-1,-8.485335E-2,-8.7223195E-2,4.0524684E-2,1.3896392E-1,3.6745328E-1,-2.7588472E-2,1.0984266E-1,2.7157184E-1,5.660017E-1,2.4268794E-1,3.678179E-1,6.035541E-1,4.1127545E-1,4.5648932E-1,5.888526E-1,1.1151881E0,7.42508E-1,9.0752697E-1,1.1595047E0,1.0023954E0,1.165837E0,1.352507E0,4.8220405E-1,1.7410475E0,8.5363674E-1,1.5400589E0,1.7896341E0],"split_indices":[0,0,0,0,0,0,0,0,7,7,0,7,7,0,0,7,7,0,0,0,7,7,7,0,7,0,0,5,0,0,0,0,0,11,0,7,7,11,11,7,0,0,6,0,7,0,11,0,6,0,0,0,0,5,5,0,0,0,0,0,0,0,0,0,0,0,0,0,0,0,0,0,0,0,0,0,0,0,0,0,0,0,0,0,0,0,0,0,0,0,0,0,0,0,0,0,0,0,0],"split_type":[0,0,0,0,0,0,0,0,0,0,0,0,0,0,0,0,0,0,0,0,0,0,0,0,0,0,0,0,0,0,0,0,0,0,0,0,0,0,0,0,0,0,0,0,0,0,0,0,0,0,0,0,0,0,0,0,0,0,0,0,0,0,0,0,0,0,0,0,0,0,0,0,0,0,0,0,0,0,0,0,0,0,0,0,0,0,0,0,0,0,0,0,0,0,0,0,0,0,0],"sum_hessian":[1.204E4,9.156E3,2.884E3,5.46E3,3.696E3,1.813E3,1.071E3,3.408E3,2.052E3,2.064E3,1.632E3,1.055E3,7.58E2,8.01E2,2.7E2,2.227E3,1.181E3,1.631E3,4.21E2,1.707E3,3.57E2,1.007E3,6.25E2,8.51E2,2.04E2,6.18E2,1.4E2,5.33E2,2.68E2,1.95E2,7.5E1,1.909E3,3.18E2,7.06E2,4.75E2,9.35E2,6.96E2,1.66E2,2.55E2,9.33E2,7.74E2,2.93E2,6.4E1,8.39E2,1.68E2,5.18E2,1.07E2,3.74E2,4.77E2,9.6E1,1.08E2,5.38E2,8E1,8.6E1,5.4E1,6.1E1,4.72E2,8.32E2,1.077E3,6.96E2,1E1,7.15E2,2.2E2,6.22E2,7.4E1,8.9E1,7.7E1,1.51E2,1.04E2,7.67E2,1.66E2,5.34E2,2.4E2,2.1E2,8.3E1,4.2E1,2.2E1,2.19E2,6.2E2,1E2,6.8E1,1.98E2,3.2E2,6.4E1,4.3E1,2.69E2,1.05E2,2.6E1,4.51E2,3.3E1,7.5E1,2.96E2,2.42E2,8.3E1,3E0,5.1E1,3E0,1.69E2,3.03E2],"tree_param":{"num_deleted":"0","num_feature":"12","num_nodes":"99","size_leaf_vector":"1"}},{"base_weights":[3.792494E-2,-8.460894E0,2.6566116E1,-1.3872211E1,-4.2579016E-1,2.0377842E1,5.0170616E1,-1.5816958E1,-1.052031E1,-3.6603928E0,4.9993916E0,1.5305215E1,2.8645317E1,4.4576294E1,6.3882595E1,-1.6721237E1,-1.4082047E1,-1.15407915E1,-8.318651E0,-5.693659E0,-1.5971887E0,3.1409037E0,7.1363893E0,1.3095563E1,1.957966E1,2.4634054E1,3.2059223E1,2.018364E0,2.4161623E0,2.9212599E0,3.5449955E0,-1.7014456E1,-7.4198616E-1,-7.424576E-1,-1.2944269E1,-6.2670594E-1,-1.0390807E1,-4.6663842E-1,-3.2165495E-1,-7.130768E0,-2.7745569E0,-2.493813E0,3.1721659E0,2.2937107E0,7.0963926E0,6.6833677E0,1.2312134E1,1.1948832E1,1.809911E1,1.8143618E1,1.1522201E0,2.3730759E1,1.6791296E0,3.8337852E1,3.0867596E1,-8.793238E-1,-8.280924E-1,-6.757577E-1,-6.1235285E-1,-5.427516E-1,-4.96651E-1,-3.8881725E-1,-2.7654892E-1,-1.8350343E-1,-1.039963E-1,-1.8623875E-1,-5.409185E-2,5.5434074E-2,2.852995E-1,9.3272544E-2,1.8091202E-1,2.691527E-1,5.258642E-1,2.5750706E-1,3.7942177E-1,4.7467518E-1,6.6796637E-1,4.846649E-1,7.152147E-1,8.169276E-1,9.865548E-1,7.926449E-1,9.433388E-1,1.1491264E0,1.3020166E0,1.968648E0,1.1624663E0,1.2913258E0,1.5805501E0],"categories":[],"categories_nodes":[],"categories_segments":[],"categories_sizes":[],"default_left":[0,0,0,0,0,0,0,0,0,0,0,0,0,0,0,0,0,0,0,0,0,0,0,0,0,0,0,0,0,0,0,0,0,0,0,0,0,0,0,0,0,0,0,0,0,0,0,0,0,0,0,0,0,0,0,0,0,0,0,0,0,0,0,0,0,0,0,0,0,0,0,0,0,0,0,0,0,0,0,0,0,0,0,0,0,0,0,0,0],"id":2,"left_children":[1,3,5,7,9,11,13,15,17,19,21,23,25,27,29,31,33,35,37,39,41,43,45,47,49,51,53,-1,-1,-1,-1,55,-1,-1,57,-1,59,-1,-1,61,63,65,67,69,71,73,75,77,79,81,-1,83,-1,85,87,-1,-1,-1,-1,-1,-1,-1,-1,-1,-1,-1,-1,-1,-1,-1,-1,-1,-1,-1,-1,-1,-1,-1,-1,-1,-1,-1,-1,-1,-1,-1,-1,-1,-1],"loss_changes":[2.7095568E6,3.9575356E5,4.2492112E5,3.5288312E4,6.4315297E4,9.652175E4,4.35615E4,5.161375E3,4.3975E3,9.622723E3,5.4146875E3,1.3297219E4,1.1233625E4,4.8781875E3,2.4829375E3,9.92125E2,8.4203125E2,1.4278594E3,1.1580156E3,4.829715E3,4.8871914E3,2.4434023E3,1.408957E3,5.228828E3,2.0049531E3,2.501E3,2.3405312E3,0E0,0E0,0E0,0E0,2.123125E2,0E0,0E0,2.7523438E1,0E0,2.7765625E1,0E0,0E0,7.563711E2,2.3061182E2,1.6662744E3,9.400337E2,3.3699976E2,6.9947314E2,7.7548047E2,2.075586E1,3.9787812E3,1.804336E2,2.7904688E2,0E0,4.7828125E1,0E0,1.935E2,6.8634375E2,0E0,0E0,0E0,0E0,0E0,0E0,0E0,0E0,0E0,0E0,0E0,0E0,0E0,0E0,0E0,0E0,0E0,0E0,0E0,0E0,0E0,0E0,0E0,0E0,0E0,0E0,0E0,0E0,0E0,0E0,0E0,0E0,0E0,0E0],"parents":[2147483647,0,0,1,1,2,2,3,3,4,4,5,5,6,6,7,7,8,8,9,9,10,10,11,11,12,12,13,13,14,14,15,15,16,16,17,17,18,18,19,19,20,20,21,21,22,22,23,23,24,24,25,25,26,26,31,31,34,34,36,36,39,39,40,40,41,41,42,42,43,43,44,44,45,45,46,46,47,47,48,48,49,49,51,51,53,53,54,54],"right_children":[2,4,6,8,10,12,14,16,18,20,22,24,26,28,30,32,34,36,38,40,42,44,46,48,50,52,54,-1,-1,-1,-1,56,-1,-1,58,-1,60,-1,-1,62,64,66,68,70,72,74,76,78,80,82,-1,84,-1,86,88,-1,-1,-1,-1,-1,-1,-1,-1,-1,-1,-1,-1,-1,-1,-1,-1,-1,-1,-1,-1,-1,-1,-1,-1,-1,-1,-1,-1,-1,-1,-1,-1,-1,-1],"split_conditions":[2.3E1,1E1,4.4E1,6E0,1.7E1,3.3E1,5.4E1,4E0,6E0,1.3E1,2E1,2.9E1,3.7E1,4.8E1,5.9E1,3E0,3E0,8E0,8E0,4E0,1E1,1E1,1.2E1,9E0,5E0,1.3E1,2E0,2.018364E0,2.4161623E0,2.9212599E0,3.5449955E0,2E0,-7.4198616E-1,-7.424576E-1,5E0,-6.2670594E-1,9E0,-4.6663842E-1,-3.2165495E-1,1.2E1,1E1,1.5E1,1.3E1,1E0,1.4E1,2.1E1,2.1E1,2.6E1,1.2E1,3E1,1.1522201E0,3.6E1,1.6791296E0,4.3E1,3.8E1,-8.793238E-1,-8.280924E-1,-6.757577E-1,-6.1235285E-1,-5.427516E-1,-4.96651E-1,-3.8881725E-1,-2.7654892E-1,-1.8350343E-1,-1.039963E-1,-1.8623875E-1,-5.409185E-2,5.5434074E-2,2.852995E-1,9.3272544E-2,1.8091202E-1,2.691527E-1,5.258642E-1,2.5750706E-1,3.7942177E-1,4.7467518E-1,6.6796637E-1,4.846649E-1,7.152147E-1,8.169276E-1,9.865548E-1,7.926449E-1,9.433388E-1,1.1491264E0,1.3020166E0,1.968648E0,1.1624663E0,1.2913258E0,1.5805501E0],"split_indices":[0,0,0,0,0,0,0,0,7,0,0,0,0,0,0,7,7,0,7,7,7,7,7,7,7,7,5,0,0,0,0,0,0,0,0,0,0,0,0,0,7,0,7,7,7,0,0,0,7,0,0,0,0,0,0,0,0,0,0,0,0,0,0,0,0,0,0,0,0,0,0,0,0,0,0,0,0,0,0,0,0,0,0,0,0,0,0,0,0],"split_type":[0,0,0,0,0,0,0,0,0,0,0,0,0,0,0,0,0,0,0,0,0,0,0,0,0,0,0,0,0,0,0,0,0,0,0,0,0,0,0,0,0,0,0,0,0,0,0,0,0,0,0,0,0,0,0,0,0,0,0,0,0,0,0,0,0,0,0,0,0,0,0,0,0,0,0,0,0,0,0,0,0,0,0,0,0,0,0,0,0],"sum_hessian":[1.2016E4,9.101E3,2.915E3,5.438E3,3.663E3,2.311E3,6.04E2,3.439E3,1.999E3,2.295E3,1.368E3,1.434E3,8.77E2,4.32E2,1.72E2,2.255E3,1.184E3,1.363E3,6.36E2,1.155E3,1.14E3,7.33E2,6.35E2,9.48E2,4.86E2,4.07E2,4.7E2,2.09E2,2.23E2,1.02E2,7E1,1.944E3,3.11E2,7E2,4.84E2,7.26E2,6.37E2,4.11E2,2.25E2,7.73E2,3.82E2,9.6E2,1.8E2,6.05E2,1.28E2,5.86E2,4.9E1,7.74E2,1.74E2,3.48E2,1.38E2,3.73E2,3.4E1,7E1,4E2,8.42E2,1.102E3,2.56E2,2.28E2,3.05E2,3.32E2,5.48E2,2.25E2,1.65E2,2.17E2,5.12E2,4.48E2,1E2,8E1,4.59E2,1.46E2,8.7E1,4.1E1,2.2E2,3.66E2,1.6E1,3.3E1,3.98E2,3.76E2,8.9E1,8.5E1,8.9E1,2.59E2,2.9E2,8.3E1,6.4E1,6E0,5.6E1,3.44E2],"tree_param":{"num_deleted":"0","num_feature":"12","num_nodes":"89","size_leaf_vector":"1"}},{"base_weights":[1.4776112E-1,-8.021434E0,2.5517414E1,-1.316854E1,-4.2607796E-1,1.7962736E1,4.3280186E1,-1.5035047E1,-1.0007007E1,-3.8289254E0,3.9629068E0,1.418386E1,2.4593504E1,3.8047337E1,5.982729E1,-1.5882948E1,-1.3368806E1,-1.0778139E1,-7.0705357E0,-4.659775E0,1.0842246E-3,2.349804E0,6.6042123E0,1.0833222E1,1.6053703E1,2.2024715E1,2.8351545E1,3.363069E1,4.3762592E1,2.734863E0,3.4097621E0,-1.6158415E1,-7.0846575E-1,-1.4102347E1,-6.126986E-1,-1.1480637E1,-9.814566E0,-4.1817746E-1,-6.0259323E0,-6.9399843E0,-3.211024E0,-1.5859551E0,2.23736E0,1.3837105E0,7.1145287E0,6.0945964E0,1.1935977E1,9.215408E0,1.5965503E1,1.5099673E1,2.0076162E1,1.0174791E0,2.679591E1,3.3120728E1,2.6635813E1,1.6138407E0,1.8181612E0,1.9950312E0,2.2762115E0,-8.360259E-1,-7.8587747E-1,-7.08589E-1,-3.9819068E-1,-5.979945E-1,-4.8468885E-1,-4.9832758E-1,-4.1387635E-1,-2.6972333E-1,-3.4728405E-1,-3.738447E-1,-2.1788041E-1,-2.0409079E-1,-1.1202548E-1,-8.677875E-2,2.0105844E-2,3.2726128E-2,1.56758E-1,4.2712804E-2,1.6075645E-1,2.4986804E-1,5.1553994E-1,2.835175E-1,4.294889E-1,4.8368403E-1,6.523805E-1,4.2672047E-1,6.25043E-1,6.411025E-1,8.905471E-1,6.8701404E-1,8.410081E-1,9.0206957E-1,1.0893859E0,1.2764913E0,1.7662324E0,1.3469418E0,1.821619E0,1.2887702E0,1.5995411E0],"categories":[],"categories_nodes":[],"categories_segments":[],"categories_sizes":[],"default_left":[0,0,0,0,0,0,0,0,0,0,0,0,0,0,0,0,0,0,0,0,0,0,0,0,0,0,0,0,0,0,0,0,0,0,0,0,0,0,0,0,0,0,0,0,0,0,0,0,0,0,0,0,0,0,0,0,0,0,0,0,0,0,0,0,0,0,0,0,0,0,0,0,0,0,0,0,0,0,0,0,0,0,0,0,0,0,0,0,0,0,0,0,0,0,0,0,0,0,0],"id":3,"left_children":[1,3,5,7,9,11,13,15,17,19,21,23,25,27,29,31,33,35,37,39,41,43,45,47,49,51,53,55,57,-1,-1,59,-1,61,-1,63,65,-1,67,69,71,73,75,77,79,81,83,85,87,89,91,-1,93,95,97,-1,-1,-1,-1,-1,-1,-1,-1,-1,-1,-1,-1,-1,-1,-1,-1,-1,-1,-1,-1,-1,-1,-1,-1,-1,-1,-1,-1,-1,-1,-1,-1,-1,-1,-1,-1,-1,-1,-1,-1,-1,-1,-1,-1],"loss_changes":[2.4913452E6,3.5547706E5,3.9213675E5,3.1833125E4,5.4886527E4,5.1168062E4,7.33155E4,4.59975E3,4.486578E3,6.587078E3,6.8229004E3,8.0459688E3,6.5675E3,1.53395625E4,5.1989375E3,8.340625E2,7.7171875E2,9.663125E2,5.195918E2,5.5968945E3,1.3166997E3,4.584119E3,1.5792812E3,3.7802266E3,2.9204219E3,3.0273281E3,1.5644219E3,2.32125E2,1.36125E2,0E0,0E0,2.161875E2,0E0,1.8121875E2,0E0,6.684922E2,7.611719E1,0E0,1.0017969E2,8.8250977E2,8.714658E2,6.5245605E1,2.1679279E2,8.0303503E2,1.085335E3,5.4091797E2,4.553711E0,7.032461E2,4.2134375E2,1.3662812E3,1.5717188E2,0E0,3.1835938E2,5.5397656E2,2.1210938E2,0E0,0E0,0E0,0E0,0E0,0E0,0E0,0E0,0E0,0E0,0E0,0E0,0E0,0E0,0E0,0E0,0E0,0E0,0E0,0E0,0E0,0E0,0E0,0E0,0E0,0E0,0E0,0E0,0E0,0E0,0E0,0E0,0E0,0E0,0E0,0E0,0E0,0E0,0E0,0E0,0E0,0E0,0E0,0E0],"parents":[2147483647,0,0,1,1,2,2,3,3,4,4,5,5,6,6,7,7,8,8,9,9,10,10,11,11,12,12,13,13,14,14,15,15,16,16,17,17,18,18,19,19,20,20,21,21,22,22,23,23,24,24,25,25,26,26,27,27,28,28,31,31,33,33,35,35,36,36,38,38,39,39,40,40,41,41,42,42,43,43,44,44,45,45,46,46,47,47,48,48,49,49,50,50,52,52,53,53,54,54],"right_children":[2,4,6,8,10,12,14,16,18,20,22,24,26,28,30,32,34,36,38,40,42,44,46,48,50,52,54,56,58,-1,-1,60,-1,62,-1,64,66,-1,68,70,72,74,76,78,80,82,84,86,88,90,92,-1,94,96,98,-1,-1,-1,-1,-1,-1,-1,-1,-1,-1,-1,-1,-1,-1,-1,-1,-1,-1,-1,-1,-1,-1,-1,-1,-1,-1,-1,-1,-1,-1,-1,-1,-1,-1,-1,-1,-1,-1,-1,-1,-1,-1,-1,-1],"split_conditions":[2.3E1,1E1,4E1,6E0,1.6E1,3.2E1,5.3E1,4E0,7E0,1E1,2E1,2.6E1,3.6E1,4.6E1,5.9E1,3E0,4E0,8E0,8E0,1.2E1,1.3E1,1E1,1.2E1,8E0,9E0,6E0,4E0,4.4E1,4.8E1,2.734863E0,3.4097621E0,2E0,-7.0846575E-1,3E0,-6.126986E-1,6E0,4E0,-4.1817746E-1,2E0,4E0,1.4E1,2E0,1.2E1,1E0,1.3E1,1.9E1,2.1E1,1.9E1,1.1E1,2.9E1,1.2E1,1.0174791E0,1.6E1,3.7E1,2.1E1,1.6138407E0,1.8181612E0,1.9950312E0,2.2762115E0,-8.360259E-1,-7.8587747E-1,-7.08589E-1,-3.9819068E-1,-5.979945E-1,-4.8468885E-1,-4.9832758E-1,-4.1387635E-1,-2.6972333E-1,-3.4728405E-1,-3.738447E-1,-2.1788041E-1,-2.0409079E-1,-1.1202548E-1,-8.677875E-2,2.0105844E-2,3.2726128E-2,1.56758E-1,4.2712804E-2,1.6075645E-1,2.4986804E-1,5.1553994E-1,2.835175E-1,4.294889E-1,4.8368403E-1,6.523805E-1,4.2672047E-1,6.25043E-1,6.411025E-1,8.905471E-1,6.8701404E-1,8.410081E-1,9.0206957E-1,1.0893859E0,1.2764913E0,1.7662324E0,1.3469418E0,1.821619E0,1.2887702E0,1.5995411E0],"split_indices":[0,0,0,0,0,0,0,0,7,7,0,0,0,0,0,7,7,0,7,0,0,7,7,7,7,7,5,0,0,0,0,0,0,11,0,7,7,0,11,7,0,6,7,7,7,5,0,5,7,0,7,0,7,0,5,0,0,0,0,0,0,0,0,0,0,0,0,0,0,0,0,0,0,0,0,0,0,0,0,0,0,0,0,0,0,0,0,0,0,0,0,0,0,0,0,0,0,0,0],"split_type":[0,0,0,0,0,0,0,0,0,0,0,0,0,0,0,0,0,0,0,0,0,0,0,0,0,0,0,0,0,0,0,0,0,0,0,0,0,0,0,0,0,0,0,0,0,0,0,0,0,0,0,0,0,0,0,0,0,0,0,0,0,0,0,0,0,0,0,0,0,0,0,0,0,0,0,0,0,0,0,0,0,0,0,0,0,0,0,0,0,0,0,0,0,0,0,0,0,0,0],"sum_hessian":[1.2019E4,9.092E3,2.927E3,5.419E3,3.673E3,2.055E3,8.72E2,3.405E3,2.014E3,2.069E3,1.604E3,1.311E3,7.44E2,6.65E2,2.07E2,2.251E3,1.154E3,1.593E3,4.21E2,1.7E3,3.69E2,9.97E2,6.07E2,4.72E2,8.39E2,4.46E2,2.98E2,3.79E2,2.86E2,1.33E2,7.4E1,1.932E3,3.19E2,6.89E2,4.65E2,9.15E2,6.78E2,1.85E2,2.36E2,6.59E2,1.041E3,2.16E2,1.53E2,8.3E2,1.67E2,5.56E2,5.1E1,3.61E2,1.11E2,6.82E2,1.57E2,3.34E2,1.12E2,7.4E1,2.24E2,2.62E2,1.17E2,9.7E1,1.89E2,8.33E2,1.099E3,6.8E2,9E0,7.17E2,1.98E2,6.12E2,6.6E1,1.44E2,9.2E1,5.44E2,1.15E2,5.47E2,4.94E2,2.01E2,1.5E1,5.6E1,9.7E1,6.45E2,1.85E2,1.02E2,6.5E1,4.78E2,7.8E1,2E1,3.1E1,3.02E2,5.9E1,4.4E1,6.7E1,3.86E2,2.96E2,7.7E1,8E1,1.01E2,1.1E1,2.9E1,4.5E1,1.98E2,2.6E1],"tree_param":{"num_deleted":"0","num_feature":"12","num_nodes":"99","size_leaf_vector":"1"}},{"base_weights":[-4.1153957E-3,-7.6632195E0,2.4164555E1,-1.2495443E1,-4.8840454E-1,1.6224653E1,3.9340374E1,-1.46994915E1,-1.0042708E1,-3.3588474E0,4.515956E0,1.2541043E1,2.0872389E1,3.376539E1,5.391996E1,-1.5502499E1,-1.3666316E1,-1.1027248E1,-8.325278E0,-5.3707495E0,-1.4497712E0,2.8233762E0,6.4888024E0,1.0209648E1,1.4392807E1,1.8837893E1,2.3425135E1,3.0459133E1,1.9653157E0,2.4881737E0,3.231295E0,-7.9405564E-1,-7.525754E-1,-1.3717917E1,-4.9793705E-1,-1.2024742E1,-1.0491799E1,-7.6832676E0,-4.6886095E-1,-4.72008E0,-6.717611E0,-4.354126E-1,-2.744321E0,3.7240222E0,1.0833324E0,5.235833E0,7.2180476E0,1.201651E1,8.500441E0,1.6626451E1,1.3706371E1,2.0766333E1,1.7772795E1,1.4444946E0,2.1362509E1,3.611108E1,2.9593876E1,-6.706775E-1,-7.242288E-1,-5.7624394E-1,-6.5121573E-1,-4.9586684E-1,-5.762412E-1,-3.0063757E-1,-4.6257892E-1,-1.4416523E-1,-3.158725E-1,-3.714256E-1,-2.5932556E-1,8.977685E-2,-7.7868536E-2,-1.06657825E-1,-2.4698703E-1,2.9748365E-1,1.1752429E-1,7.908483E-2,-4.1276705E-2,3.274696E-1,1.709133E-1,4.020753E-1,3.095489E-1,8.780503E-1,4.5364434E-1,4.1490218E-1,6.7549145E-1,7.223078E-1,9.3927157E-1,7.587997E-1,5.701202E-1,1.5507199E0,9.869863E-1,8.129944E-1,9.604797E-1,9.853776E-1,1.1582752E0,2.1021998E0,1.535098E0,1.4133333E0,1.5758961E0],"categories":[],"categories_nodes":[],"categories_segments":[],"categories_sizes":[],"default_left":[0,0,0,0,0,0,0,0,0,0,0,0,0,0,0,0,0,0,0,0,0,0,0,0,0,0,0,0,0,0,0,0,0,0,0,0,0,0,0,0,0,0,0,0,0,0,0,0,0,0,0,0,0,0,0,0,0,0,0,0,0,0,0,0,0,0,0,0,0,0,0,0,0,0,0,0,0,0,0,0,0,0,0,0,0,0,0,0,0,0,0,0,0,0,0,0,0,0,0],"id":4,"left_children":[1,3,5,7,9,11,13,15,17,19,21,23,25,27,29,31,33,35,37,39,41,43,45,47,49,51,53,55,-1,-1,-1,-1,-1,57,-1,59,61,63,-1,65,67,69,71,73,75,77,79,81,83,85,87,89,91,-1,93,95,97,-1,-1,-1,-1,-1,-1,-1,-1,-1,-1,-1,-1,-1,-1,-1,-1,-1,-1,-1,-1,-1,-1,-1,-1,-1,-1,-1,-1,-1,-1,-1,-1,-1,-1,-1,-1,-1,-1,-1,-1,-1,-1],"loss_changes":[2.2253968E6,3.1649912E5,3.479525E5,2.9341875E4,5.280555E4,3.2284188E4,7.8891375E4,2.1700625E3,4.2791094E3,8.964496E3,4.456209E3,4.4422344E3,3.916125E3,1.20113125E4,8.93225E3,3.553125E1,1.05203125E2,7.4978125E2,5.6683594E2,9.6471484E2,1.5745703E3,1.1290249E3,5.268867E2,1.361707E3,6.767344E2,6.0040625E2,3.5308281E3,1.1613438E3,0E0,0E0,0E0,0E0,0E0,9.6E1,0E0,1.3270312E2,5.236406E2,1.4979648E3,0E0,2.2409707E3,3.620254E2,1.6898398E3,6.9657153E2,1.4411533E3,2.3723074E2,5.291206E2,2.7836523E2,3.5618398E3,1.3832617E2,3.5939062E2,1.3743438E3,1.0921328E3,3.636797E2,0E0,3.5209375E2,5.063125E2,1.3309375E2,0E0,0E0,0E0,0E0,0E0,0E0,0E0,0E0,0E0,0E0,0E0,0E0,0E0,0E0,0E0,0E0,0E0,0E0,0E0,0E0,0E0,0E0,0E0,0E0,0E0,0E0,0E0,0E0,0E0,0E0,0E0,0E0,0E0,0E0,0E0,0E0,0E0,0E0,0E0,0E0,0E0,0E0],"parents":[2147483647,0,0,1,1,2,2,3,3,4,4,5,5,6,6,7,7,8,8,9,9,10,10,11,11,12,12,13,13,14,14,15,15,16,16,17,17,18,18,19,19,20,20,21,21,22,22,23,23,24,24,25,25,26,26,27,27,33,33,35,35,36,36,37,37,39,39,40,40,41,41,42,42,43,43,44,44,45,45,46,46,47,47,48,48,49,49,50,50,51,51,52,52,54,54,55,55,56,56],"right_children":[2,4,6,8,10,12,14,16,18,20,22,24,26,28,30,32,34,36,38,40,42,44,46,48,50,52,54,56,-1,-1,-1,-1,-1,58,-1,60,62,64,-1,66,68,70,72,74,76,78,80,82,84,86,88,90,92,-1,94,96,98,-1,-1,-1,-1,-1,-1,-1,-1,-1,-1,-1,-1,-1,-1,-1,-1,-1,-1,-1,-1,-1,-1,-1,-1,-1,-1,-1,-1,-1,-1,-1,-1,-1,-1,-1,-1,-1,-1,-1,-1,-1,-1],"split_conditions":[2.3E1,1E1,3.8E1,5E0,1.7E1,3E1,5.1E1,3E0,8E0,1.3E1,2E1,2.6E1,3.4E1,4.5E1,5.9E1,2E0,3E0,6E0,4E0,7E0,7E0,1.2E1,2.1E1,1E0,1.2E1,1E0,2E0,2E0,1.9653157E0,2.4881737E0,3.231295E0,-7.9405564E-1,-7.525754E-1,1E0,-4.9793705E-1,1E0,1E0,1E0,-4.6886095E-1,1E0,1.2E1,1E0,1E0,1E0,2E0,1.2E1,5E0,1.5E1,2.3E1,2E0,4E0,1.7E1,3.2E1,1.4444946E0,3.6E1,2.9E1,4.2E1,-6.706775E-1,-7.242288E-1,-5.7624394E-1,-6.5121573E-1,-4.9586684E-1,-5.762412E-1,-3.0063757E-1,-4.6257892E-1,-1.4416523E-1,-3.158725E-1,-3.714256E-1,-2.5932556E-1,8.977685E-2,-7.7868536E-2,-1.06657825E-1,-2.4698703E-1,2.9748365E-1,1.1752429E-1,7.908483E-2,-4.1276705E-2,3.274696E-1,1.709133E-1,4.020753E-1,3.095489E-1,8.780503E-1,4.5364434E-1,4.1490218E-1,6.7549145E-1,7.223078E-1,9.3927157E-1,7.587997E-1,5.701202E-1,1.5507199E0,9.869863E-1,8.129944E-1,9.604797E-1,9.853776E-1,1.1582752E0,2.1021998E0,1.535098E0,1.4133333E0,1.5758961E0],"split_indices":[0,0,0,0,0,0,0,0,0,0,0,0,0,0,0,0,11,0,6,6,6,6,0,5,6,5,5,5,0,0,0,0,0,5,0,5,5,5,0,5,0,5,5,5,5,6,5,6,6,11,5,6,0,0,0,6,0,0,0,0,0,0,0,0,0,0,0,0,0,0,0,0,0,0,0,0,0,0,0,0,0,0,0,0,0,0,0,0,0,0,0,0,0,0,0,0,0,0,0],"split_type":[0,0,0,0,0,0,0,0,0,0,0,0,0,0,0,0,0,0,0,0,0,0,0,0,0,0,0,0,0,0,0,0,0,0,0,0,0,0,0,0,0,0,0,0,0,0,0,0,0,0,0,0,0,0,0,0,0,0,0,0,0,0,0,0,0,0,0,0,0,0,0,0,0,0,0,0,0,0,0,0,0,0,0,0,0,0,0,0,0,0,0,0,0,0,0,0,0,0,0],"sum_hessian":[1.202E4,9.128E3,2.892E3,5.454E3,3.674E3,1.9E3,9.92E2,2.87E3,2.584E3,2.335E3,1.339E3,1.062E3,8.38E2,7.2E2,2.72E2,1.607E3,1.263E3,1.639E3,9.45E2,1.136E3,1.199E3,7.22E2,6.17E2,4.73E2,5.89E2,4.71E2,3.67E2,4.55E2,2.65E2,2E2,7.2E1,8.55E2,7.52E2,1.243E3,2E1,5.65E2,1.074E3,5.92E2,3.53E2,7.69E2,3.67E2,6.73E2,5.26E2,4.75E2,2.47E2,2.3E2,3.87E2,2.27E2,2.46E2,1.33E2,4.56E2,1.61E2,3.1E2,9.7E1,2.7E2,5.5E1,4E2,9.03E2,3.4E2,3.85E2,1.8E2,6.97E2,3.77E2,2.89E2,3.03E2,3.59E2,4.1E2,2.48E2,1.19E2,2.25E2,4.48E2,4.13E2,1.13E2,1.8E2,2.95E2,1.96E2,5.1E1,1.32E2,9.8E1,2.11E2,1.76E2,7.7E1,1.5E2,2.39E2,7E0,7E1,6.3E1,2.75E2,1.81E2,1.2E1,1.49E2,1.57E2,1.53E2,1.47E2,1.23E2,2.3E1,3.2E1,2.46E2,1.54E2],"tree_param":{"num_deleted":"0","num_feature":"12","num_nodes":"99","size_leaf_vector":"1"}},{"base_weights":[-3.6659066E-2,-7.272699E0,2.2967367E1,-1.147728E1,1.4488108E-1,1.7163393E1,4.0630928E1,-1.3573722E1,-8.522289E0,-2.5421324E0,3.9372928E0,1.2986576E1,2.3344946E1,3.567783E1,5.3144196E1,-1.4341766E1,-1.208996E1,-9.939074E0,-7.3331103E0,-3.9305313E0,-7.709441E-1,2.940378E0,6.4233975E0,9.608878E0,1.4901642E1,2.0271074E1,2.6230322E1,3.1820213E1,2.0059917E0,4.899392E1,3.0105612E0,-7.5491935E-1,-1.3889514E1,-1.2594756E1,-1.1520994E1,-9.382317E0,-5.478925E-1,-7.871956E0,-6.0579195E0,-3.1288335E0,-5.319131E0,2.121617E-1,-1.987578E0,3.9368112E0,1.8840946E0,7.652301E0,5.3154807E0,1.1552241E1,7.641572E0,1.3637223E1,1.6388138E1,2.32568E1,1.8486294E1,3.164272E1,2.5028185E1,2.7735224E1,1.7142895E0,2.645693E0,2.2136126E0,-7.131295E-1,-6.725172E-1,-6.3101774E-1,-2.7679387E-1,-5.5397683E-1,-6.1993974E-1,-4.031763E-1,-5.3287286E-1,-3.6339366E-1,-4.4593692E-1,-2.632047E-1,-3.6729342E-1,-7.935754E-2,-2.1498084E-1,-3.296941E-1,-2.3284832E-1,1.19479135E-1,-3.839958E-2,-6.07434E-2,-2.3457034E-1,3.284572E-1,1.2729041E-1,-1.944069E-2,1.2400573E-1,5.7816327E-1,3.4405765E-1,2.3145814E-1,4.208959E-1,7.834545E-1,4.2684945E-1,3.466802E-1,4.8419785E-1,7.566553E-1,6.0272616E-1,9.436628E-1,7.385635E-1,1.0244558E0,1.3334389E0,8.765977E-1,1.0702144E0,1.2387666E0,1.7118044E0,1.2054408E0,1.567732E0,1.8167504E0,1.3262004E0],"categories":[],"categories_nodes":[],"categories_segments":[],"categories_sizes":[],"default_left":[0,0,0,0,0,0,0,0,0,0,0,0,0,0,0,0,0,0,0,0,0,0,0,0,0,0,0,0,0,0,0,0,0,0,0,0,0,0,0,0,0,0,0,0,0,0,0,0,0,0,0,0,0,0,0,0,0,0,0,0,0,0,0,0,0,0,0,0,0,0,0,0,0,0,0,0,0,0,0,0,0,0,0,0,0,0,0,0,0,0,0,0,0,0,0,0,0,0,0,0,0,0,0,0,0],"id":5,"left_children":[1,3,5,7,9,11,13,15,17,19,21,23,25,27,29,31,33,35,37,39,41,43,45,47,49,51,53,55,-1,57,-1,-1,59,61,63,65,-1,67,69,71,73,75,77,79,81,83,85,87,89,91,93,95,97,99,101,103,-1,-1,-1,-1,-1,-1,-1,-1,-1,-1,-1,-1,-1,-1,-1,-1,-1,-1,-1,-1,-1,-1,-1,-1,-1,-1,-1,-1,-1,-1,-1,-1,-1,-1,-1,-1,-1,-1,-1,-1,-1,-1,-1,-1,-1,-1,-1,-1,-1],"loss_changes":[2.015974E6,2.8733503E5,2.9640238E5,3.631075E4,3.398434E4,5.6060188E4,4.2481125E4,3.7445625E3,4.043125E3,4.797166E3,3.408789E3,8.298219E3,7.264375E3,7.565375E3,2.945375E3,5.63625E2,1.9351562E2,5.279297E2,8.675781E2,1.2012383E3,1.0278544E3,1.0335215E3,4.9712695E2,1.7277383E3,1.3384219E3,1.8614844E3,2.1359375E3,1.87925E3,0E0,1.0053125E2,0E0,0E0,4.196875E1,4.109375E1,8.196094E1,1.1349336E3,0E0,5.2515625E2,3.70292E2,1.2494395E3,3.0608594E2,1.01771747E3,7.965824E2,1.8433604E3,6.539292E2,4.7837793E2,4.1030518E2,2.8081953E3,2.7843555E2,8.948047E2,1.2360469E3,9.361797E2,3.8776562E2,5.409453E2,1.4135625E3,1.924375E2,0E0,0E0,0E0,0E0,0E0,0E0,0E0,0E0,0E0,0E0,0E0,0E0,0E0,0E0,0E0,0E0,0E0,0E0,0E0,0E0,0E0,0E0,0E0,0E0,0E0,0E0,0E0,0E0,0E0,0E0,0E0,0E0,0E0,0E0,0E0,0E0,0E0,0E0,0E0,0E0,0E0,0E0,0E0,0E0,0E0,0E0,0E0,0E0,0E0],"parents":[2147483647,0,0,1,1,2,2,3,3,4,4,5,5,6,6,7,7,8,8,9,9,10,10,11,11,12,12,13,13,14,14,15,15,16,16,17,17,18,18,19,19,20,20,21,21,22,22,23,23,24,24,25,25,26,26,27,27,29,29,32,32,33,33,34,34,35,35,37,37,38,38,39,39,40,40,41,41,42,42,43,43,44,44,45,45,46,46,47,47,48,48,49,49,50,50,51,51,52,52,53,53,54,54,55,55],"right_children":[2,4,6,8,10,12,14,16,18,20,22,24,26,28,30,32,34,36,38,40,42,44,46,48,50,52,54,56,-1,58,-1,-1,60,62,64,66,-1,68,70,72,74,76,78,80,82,84,86,88,90,92,94,96,98,100,102,104,-1,-1,-1,-1,-1,-1,-1,-1,-1,-1,-1,-1,-1,-1,-1,-1,-1,-1,-1,-1,-1,-1,-1,-1,-1,-1,-1,-1,-1,-1,-1,-1,-1,-1,-1,-1,-1,-1,-1,-1,-1,-1,-1,-1,-1,-1,-1,-1,-1],"split_conditions":[2.3E1,1.1E1,4.2E1,6E0,1.7E1,3.2E1,5.3E1,4E0,8E0,1.4E1,2.1E1,2.6E1,3.6E1,4.7E1,5.9E1,2E0,5E0,1E0,1E1,7E0,7E0,1E0,1E0,1E0,2.9E1,4E0,2E0,2.6E1,2.0059917E0,2E0,3.0105612E0,-7.5491935E-1,3E0,4E0,1E0,1E0,-5.478925E-1,1E0,4E0,1E0,1.2E1,9E0,1E0,1E1,8E0,1E1,2.1E1,1.6E1,1.9E1,1.7E1,1E0,3.4E1,2E1,3.7E1,2.1E1,9E0,1.7142895E0,2.645693E0,2.2136126E0,-7.131295E-1,-6.725172E-1,-6.3101774E-1,-2.7679387E-1,-5.5397683E-1,-6.1993974E-1,-4.031763E-1,-5.3287286E-1,-3.6339366E-1,-4.4593692E-1,-2.632047E-1,-3.6729342E-1,-7.935754E-2,-2.1498084E-1,-3.296941E-1,-2.3284832E-1,1.19479135E-1,-3.839958E-2,-6.07434E-2,-2.3457034E-1,3.284572E-1,1.2729041E-1,-1.944069E-2,1.2400573E-1,5.7816327E-1,3.4405765E-1,2.3145814E-1,4.208959E-1,7.834545E-1,4.2684945E-1,3.466802E-1,4.8419785E-1,7.566553E-1,6.0272616E-1,9.436628E-1,7.385635E-1,1.0244558E0,1.3334389E0,8.765977E-1,1.0702144E0,1.2387666E0,1.7118044E0,1.2054408E0,1.567732E0,1.8167504E0,1.3262004E0],"split_indices":[0,0,0,0,0,0,0,0,0,0,0,0,0,0,0,0,0,5,0,6,6,5,5,5,0,5,5,6,0,11,0,0,0,11,5,6,0,5,6,5,0,5,5,6,5,6,5,6,5,6,5,0,5,0,5,5,0,0,0,0,0,0,0,0,0,0,0,0,0,0,0,0,0,0,0,0,0,0,0,0,0,0,0,0,0,0,0,0,0,0,0,0,0,0,0,0,0,0,0,0,0,0,0,0,0],"split_type":[0,0,0,0,0,0,0,0,0,0,0,0,0,0,0,0,0,0,0,0,0,0,0,0,0,0,0,0,0,0,0,0,0,0,0,0,0,0,0,0,0,0,0,0,0,0,0,0,0,0,0,0,0,0,0,0,0,0,0,0,0,0,0,0,0,0,0,0,0,0,0,0,0,0,0,0,0,0,0,0,0,0,0,0,0,0,0,0,0,0,0,0,0,0,0,0,0,0,0,0,0,0,0,0,0],"sum_hessian":[1.2109E4,9.212E3,2.897E3,5.879E3,3.333E3,2.182E3,7.15E2,3.437E3,2.442E3,1.951E3,1.382E3,1.304E3,8.78E2,5.15E2,2E2,2.259E3,1.178E3,1.111E3,1.331E3,1.093E3,8.58E2,9.88E2,3.94E2,4.74E2,8.3E2,4.29E2,4.49E2,2.8E2,2.35E2,1.31E2,6.9E1,8.33E2,1.426E3,6.13E2,5.65E2,7.25E2,3.86E2,9.32E2,3.99E2,6.95E2,3.98E2,4.75E2,3.83E2,5.07E2,4.81E2,1.84E2,2.1E2,2.36E2,2.38E2,4.54E2,3.76E2,1.56E2,2.73E2,7.7E1,3.72E2,1.1E2,1.7E2,6.6E1,6.5E1,7.54E2,6.72E2,6.1E2,3E0,3.85E2,1.8E2,3.6E2,3.65E2,5.96E2,3.36E2,2.5E2,1.49E2,3.01E2,3.94E2,1.33E2,2.65E2,1.47E2,3.28E2,2.99E2,8.4E1,1.74E2,3.33E2,1E2,3.81E2,2.8E1,1.56E2,1.74E2,3.6E1,9.8E1,1.38E2,1.8E2,5.8E1,2.29E2,2.25E2,1.44E2,2.32E2,9E1,6.6E1,2.11E2,6.2E1,2.4E1,5.3E1,3.29E2,4.3E1,1E1,1E2],"tree_param":{"num_deleted":"0","num_feature":"12","num_nodes":"105","size_leaf_vector":"1"}},{"base_weights":[-1.1347824E-2,-6.9395847E0,2.1759354E1,-1.08865E1,1.23915866E-1,1.6683102E1,4.110751E1,-1.2879802E1,-8.039492E0,-2.9654264E0,3.4226596E0,1.2585501E1,2.3197262E1,3.5752247E1,5.120255E1,-1.3639697E1,-1.1424278E1,-8.618166E0,-4.26752E0,-3.9201586E0,-6.223183E-1,1.5522944E0,5.0598855E0,1.0727366E1,1.605614E1,2.0223963E1,2.5767796E1,3.3100815E1,3.8509674E1,4.7154037E1,2.9821777E0,-1.3886372E1,-6.043411E-1,-1.2113099E1,-5.2178186E-1,-9.237895E0,-7.28681E0,-4.9296236E0,-1.7218742E0,-4.5554576E0,-1.0137528E0,-1.243747E0,3.52379E0,2.6725742E-1,4.1212816E0,4.526723E0,9.055938E0,9.519216E0,1.4932921E1,1.7840868E1,1.4980748E1,1.9682833E1,1.7158791E0,1.5336063E0,2.5045656E1,1.8474458E0,1.5263761E0,1.9971205E0,3.2011738E1,2.5416772E0,2.120893E0,-7.1769613E-1,-6.7575115E-1,-6.0921264E-1,-3.5358313E-1,-4.981369E-1,-3.934479E-1,-3.9452195E-1,-3.2915395E-1,-2.2077301E-1,-2.7997681E-1,-5.8961403E-2,-1.1849592E-1,-3.1545156E-1,-1.9200025E-1,-8.412253E-2,1.8779712E-2,-1.05872944E-1,-8.394105E-3,9.750817E-2,3.1220803E-1,-2.603581E-2,5.9269395E-2,1.6597818E-1,3.679606E-1,2.0746127E-1,4.3061367E-1,3.9945754E-1,5.1720876E-1,3.3209383E-1,5.533561E-1,6.566624E-1,8.533292E-1,8.6784476E-1,1.1342845E0,6.923397E-1,8.557758E-1,9.435137E-1,1.1089859E0,1.2093538E0,1.5120654E0,1.2073286E0,1.84959E0],"categories":[],"categories_nodes":[],"categories_segments":[],"categories_sizes":[],"default_left":[0,0,0,0,0,0,0,0,0,0,0,0,0,0,0,0,0,0,0,0,0,0,0,0,0,0,0,0,0,0,0,0,0,0,0,0,0,0,0,0,0,0,0,0,0,0,0,0,0,0,0,0,0,0,0,0,0,0,0,0,0,0,0,0,0,0,0,0,0,0,0,0,0,0,0,0,0,0,0,0,0,0,0,0,0,0,0,0,0,0,0,0,0,0,0,0,0,0,0,0,0,0,0],"id":6,"left_children":[1,3,5,7,9,11,13,15,17,19,21,23,25,27,29,31,33,35,37,39,41,43,45,47,49,51,53,55,57,59,-1,61,-1,63,-1,65,67,69,71,73,75,77,79,81,83,85,87,89,91,93,95,97,-1,-1,99,-1,-1,-1,101,-1,-1,-1,-1,-1,-1,-1,-1,-1,-1,-1,-1,-1,-1,-1,-1,-1,-1,-1,-1,-1,-1,-1,-1,-1,-1,-1,-1,-1,-1,-1,-1,-1,-1,-1,-1,-1,-1,-1,-1,-1,-1,-1,-1],"loss_changes":[1.8087846E6,2.5361697E5,2.8365E5,3.3015438E4,3.3253023E4,6.0967188E4,3.0660438E4,3.639E3,5.2149062E3,3.7669756E3,4.8243145E3,8.9271875E3,6.2428438E3,1.6205E3,4.22725E3,6.9365625E2,6.792031E2,1.6529688E3,5.342368E2,2.2055664E3,1.2642963E3,2.4352168E3,1.7507969E3,4.5424844E3,6.731719E2,2.4895156E3,8.9990625E2,9.416406E2,4.7159375E2,3.5321875E2,0E0,1.4178125E2,0E0,1.6171094E2,0E0,1.3296328E3,2.3139453E2,6.3108887E1,2.1118118E1,1.2077871E3,2.0130745E2,4.0008276E2,2.6179712E2,3.5728424E2,6.141636E2,1.1117275E3,5.2037598E1,3.1288203E3,5.591992E2,2.5957031E1,5.1827344E2,3.970625E2,0E0,0E0,1.1242812E3,0E0,0E0,0E0,6.343672E2,0E0,0E0,0E0,0E0,0E0,0E0,0E0,0E0,0E0,0E0,0E0,0E0,0E0,0E0,0E0,0E0,0E0,0E0,0E0,0E0,0E0,0E0,0E0,0E0,0E0,0E0,0E0,0E0,0E0,0E0,0E0,0E0,0E0,0E0,0E0,0E0,0E0,0E0,0E0,0E0,0E0,0E0,0E0,0E0],"parents":[2147483647,0,0,1,1,2,2,3,3,4,4,5,5,6,6,7,7,8,8,9,9,10,10,11,11,12,12,13,13,14,14,15,15,16,16,17,17,18,18,19,19,20,20,21,21,22,22,23,23,24,24,25,25,26,26,27,27,28,28,29,29,31,31,33,33,35,35,36,36,37,37,38,38,39,39,40,40,41,41,42,42,43,43,44,44,45,45,46,46,47,47,48,48,49,49,50,50,51,51,54,54,58,58],"right_children":[2,4,6,8,10,12,14,16,18,20,22,24,26,28,30,32,34,36,38,40,42,44,46,48,50,52,54,56,58,60,-1,62,-1,64,-1,66,68,70,72,74,76,78,80,82,84,86,88,90,92,94,96,98,-1,-1,100,-1,-1,-1,102,-1,-1,-1,-1,-1,-1,-1,-1,-1,-1,-1,-1,-1,-1,-1,-1,-1,-1,-1,-1,-1,-1,-1,-1,-1,-1,-1,-1,-1,-1,-1,-1,-1,-1,-1,-1,-1,-1,-1,-1,-1,-1,-1,-1],"split_conditions":[2.3E1,1.1E1,4.4E1,6E0,1.6E1,3.3E1,5.3E1,4E0,8E0,5E0,1.9E1,2.9E1,3.7E1,4.8E1,6E1,3E0,3E0,9E0,1E1,1.5E1,1.3E1,2E0,1.1E1,8E0,1E0,1.6E1,1E0,1.2E1,2E1,2E0,2.9821777E0,2E0,-6.043411E-1,3E0,-5.2178186E-1,3E0,1E1,2E0,2E0,1.2E1,1.5E1,1.3E1,1E0,1.3E1,1.3E1,2E1,1.4E1,2.5E1,1.2E1,3E1,1.8E1,6E0,1.7158791E0,1.5336063E0,2.1E1,1.8474458E0,1.5263761E0,1.9971205E0,2.2E1,2.5416772E0,2.120893E0,-7.1769613E-1,-6.7575115E-1,-6.0921264E-1,-3.5358313E-1,-4.981369E-1,-3.934479E-1,-3.9452195E-1,-3.2915395E-1,-2.2077301E-1,-2.7997681E-1,-5.8961403E-2,-1.1849592E-1,-3.1545156E-1,-1.9200025E-1,-8.412253E-2,1.8779712E-2,-1.05872944E-1,-8.394105E-3,9.750817E-2,3.1220803E-1,-2.603581E-2,5.9269395E-2,1.6597818E-1,3.679606E-1,2.0746127E-1,4.3061367E-1,3.9945754E-1,5.1720876E-1,3.3209383E-1,5.533561E-1,6.566624E-1,8.533292E-1,8.6784476E-1,1.1342845E0,6.923397E-1,8.557758E-1,9.435137E-1,1.1089859E0,1.2093538E0,1.5120654E0,1.2073286E0,1.84959E0],"split_indices":[0,0,0,0,0,0,0,0,7,7,0,0,0,0,0,7,7,0,7,0,7,7,7,7,5,7,5,5,5,11,0,0,0,11,0,7,0,11,11,0,5,0,6,5,7,5,7,0,7,6,5,7,0,0,5,0,0,0,5,0,0,0,0,0,0,0,0,0,0,0,0,0,0,0,0,0,0,0,0,0,0,0,0,0,0,0,0,0,0,0,0,0,0,0,0,0,0,0,0,0,0,0,0],"split_type":[0,0,0,0,0,0,0,0,0,0,0,0,0,0,0,0,0,0,0,0,0,0,0,0,0,0,0,0,0,0,0,0,0,0,0,0,0,0,0,0,0,0,0,0,0,0,0,0,0,0,0,0,0,0,0,0,0,0,0,0,0,0,0,0,0,0,0,0,0,0,0,0,0,0,0,0,0,0,0,0,0,0,0,0,0,0,0,0,0,0,0,0,0,0,0,0,0,0,0,0,0,0,0],"sum_hessian":[1.199E4,9.096E3,2.894E3,5.835E3,3.261E3,2.294E3,6E2,3.43E3,2.405E3,1.684E3,1.577E3,1.41E3,8.84E2,3.95E2,2.05E2,2.248E3,1.182E3,2.084E3,3.21E2,1.196E3,4.88E2,7.37E2,8.4E2,9.21E2,4.89E2,4.14E2,4.7E2,2.08E2,1.87E2,1.43E2,6.2E1,1.933E3,3.15E2,6.9E2,4.92E2,1.418E3,6.66E2,2.54E2,6.7E1,9.81E2,2.15E2,4.25E2,6.3E1,4.92E2,2.45E2,7.43E2,9.7E1,7.18E2,2.03E2,1.78E2,3.11E2,4.01E2,1.3E1,5.5E1,4.15E2,7.8E1,1.3E2,1.49E2,3.8E1,7.5E1,6.8E1,8.39E2,1.094E3,6.79E2,1.1E1,9.23E2,4.95E2,3.53E2,3.13E2,1.48E2,1.06E2,3.8E1,2.9E1,2.82E2,6.99E2,1.45E2,7E1,2.34E2,1.91E2,4.1E1,2.2E1,2.65E2,2.27E2,1.98E2,4.7E1,6.82E2,6.1E1,5.7E1,4E1,2.53E2,4.65E2,1.14E2,8.9E1,1.66E2,1.2E1,2.08E2,1.03E2,3.09E2,9.2E1,3.61E2,5.4E1,1.7E1,2.1E1],"tree_param":{"num_deleted":"0","num_feature":"12","num_nodes":"103","size_leaf_vector":"1"}},{"base_weights":[-6.4823716E-3,-6.5452337E0,2.0691288E1,-1.0705787E1,-3.7529838E-1,1.3968826E1,3.3619614E1,-1.2607215E1,-8.595311E0,-3.1637065E0,3.2303064E0,1.0031848E1,1.7698296E1,2.869566E1,4.6127377E1,-1.2992689E1,-1.1030474E1,-9.31978E0,-6.3963017E0,-4.5102477E0,-1.5055895E0,1.9346917E0,5.3476224E0,9.245278E0,6.734523E-1,1.5977775E1,2.0340843E1,2.5921694E1,1.6729025E0,4.274306E1,2.7055686E0,-6.816172E-1,-1.2624687E1,-5.728956E-1,-5.2211136E-1,-1.0001778E1,-8.017663E0,-3.6282763E-1,-4.7616906E0,-5.551434E0,-2.3031232E0,-2.100564E0,1.67242E0,1.0988054E0,5.9854918E0,4.890117E0,5.0858814E-1,7.111289E0,1.0468297E1,1.4935584E1,1.9872595E1,2.4492313E1,1.852804E1,2.472377E1,3.2853943E1,2.2312508E0,1.826428E0,-6.344166E-1,-4.6223196E-1,-5.117299E-1,-4.66369E-1,-4.2145988E-1,-3.8131616E-1,-2.08257E-1,-2.8792486E-1,-2.933078E-1,-1.800875E-1,-1.6582365E-1,-7.489676E-2,-1.1651087E-1,9.035106E-3,1.8452823E-2,1.1872822E-1,3.587176E-2,1.2673418E-1,2.0816858E-1,4.187297E-1,1.8531992E-1,2.7738366E-1,3.438352E-1,7.6388645E-1,5.007904E-1,7.739899E-1,7.137332E-1,8.3554727E-1,9.586582E-1,1.2929417E0,1.1463048E0,1.5314461E0,8.3652973E-1,1.033412E0,1.2842708E0,1.1340283E0,1.767092E0,1.3441199E0],"categories":[],"categories_nodes":[],"categories_segments":[],"categories_sizes":[],"default_left":[0,0,0,0,0,0,0,0,0,0,0,0,0,0,0,0,0,0,0,0,0,0,0,0,0,0,0,0,0,0,0,0,0,0,0,0,0,0,0,0,0,0,0,0,0,0,0,0,0,0,0,0,0,0,0,0,0,0,0,0,0,0,0,0,0,0,0,0,0,0,0,0,0,0,0,0,0,0,0,0,0,0,0,0,0,0,0,0,0,0,0,0,0,0,0],"id":7,"left_children":[1,3,5,7,9,11,13,15,17,19,21,23,25,27,29,31,33,35,37,39,41,43,45,47,-1,49,51,53,-1,55,-1,-1,57,-1,-1,59,61,-1,63,65,67,69,71,73,75,77,-1,79,81,83,85,87,89,91,93,-1,-1,-1,-1,-1,-1,-1,-1,-1,-1,-1,-1,-1,-1,-1,-1,-1,-1,-1,-1,-1,-1,-1,-1,-1,-1,-1,-1,-1,-1,-1,-1,-1,-1,-1,-1,-1,-1,-1,-1],"loss_changes":[1.6325774E6,2.3531597E5,2.5122225E5,2.1862312E4,3.7139266E4,2.7822656E4,5.9648E4,1.6059375E3,4.0792969E3,4.6439688E3,4.40899E3,2.3898203E3,4.1215312E3,8.551875E3,5.1988125E3,3.7096875E2,2.4171875E1,1.6532656E3,8.752422E2,2.6276484E3,1.7714434E3,3.3828174E3,1.2987793E3,1.9090898E3,0E0,2.1265E3,2.4210625E3,2.9662188E3,0E0,7.09E2,0E0,0E0,2.0065625E2,0E0,0E0,1.0503906E2,4.4585938E1,0E0,1.1040527E2,4.5748633E2,2.9692896E2,4.1325464E2,1.345657E2,4.5323816E2,7.0953613E2,4.1531934E2,0E0,4.3134375E2,9.357031E2,3.188125E2,1.9199219E1,3.83875E2,6.928672E2,1.8765625E2,7.421875E-1,0E0,0E0,0E0,0E0,0E0,0E0,0E0,0E0,0E0,0E0,0E0,0E0,0E0,0E0,0E0,0E0,0E0,0E0,0E0,0E0,0E0,0E0,0E0,0E0,0E0,0E0,0E0,0E0,0E0,0E0,0E0,0E0,0E0,0E0,0E0,0E0,0E0,0E0,0E0,0E0],"parents":[2147483647,0,0,1,1,2,2,3,3,4,4,5,5,6,6,7,7,8,8,9,9,10,10,11,11,12,12,13,13,14,14,15,15,16,16,17,17,18,18,19,19,20,20,21,21,22,22,23,23,25,25,26,26,27,27,29,29,32,32,35,35,36,36,38,38,39,39,40,40,41,41,42,42,43,43,44,44,45,45,47,47,48,48,49,49,50,50,51,51,52,52,53,53,54,54],"right_children":[2,4,6,8,10,12,14,16,18,20,22,24,26,28,30,32,34,36,38,40,42,44,46,48,-1,50,52,54,-1,56,-1,-1,58,-1,-1,60,62,-1,64,66,68,70,72,74,76,78,-1,80,82,84,86,88,90,92,94,-1,-1,-1,-1,-1,-1,-1,-1,-1,-1,-1,-1,-1,-1,-1,-1,-1,-1,-1,-1,-1,-1,-1,-1,-1,-1,-1,-1,-1,-1,-1,-1,-1,-1,-1,-1,-1,-1,-1,-1],"split_conditions":[2.3E1,1E1,3.8E1,5E0,1.6E1,2.9E1,5.1E1,3E0,6E0,1.3E1,2E1,9E0,3.4E1,4.5E1,5.9E1,2E0,4E0,8E0,8E0,4E0,1E1,1E1,1.2E1,2.5E1,6.734523E-1,9E0,4E0,1E1,1.6729025E0,2E1,2.7055686E0,-6.816172E-1,3E0,-5.728956E-1,-5.2211136E-1,2E0,9E0,-3.6282763E-1,2E0,1.2E1,1E1,1.5E1,1.2E1,2E0,1.3E1,2.1E1,5.0858814E-1,2.4E1,2.2E1,1.8E1,1.7E1,3.7E1,3.6E1,1E0,2E0,2.2312508E0,1.826428E0,-6.344166E-1,-4.6223196E-1,-5.117299E-1,-4.66369E-1,-4.2145988E-1,-3.8131616E-1,-2.08257E-1,-2.8792486E-1,-2.933078E-1,-1.800875E-1,-1.6582365E-1,-7.489676E-2,-1.1651087E-1,9.035106E-3,1.8452823E-2,1.1872822E-1,3.587176E-2,1.2673418E-1,2.0816858E-1,4.187297E-1,1.8531992E-1,2.7738366E-1,3.438352E-1,7.6388645E-1,5.007904E-1,7.739899E-1,7.137332E-1,8.3554727E-1,9.586582E-1,1.2929417E0,1.1463048E0,1.5314461E0,8.3652973E-1,1.033412E0,1.2842708E0,1.1340283E0,1.767092E0,1.3441199E0],"split_indices":[0,0,0,0,0,0,0,7,7,0,0,7,0,0,0,0,7,0,7,7,7,7,7,0,0,7,5,7,0,5,0,0,11,0,0,7,0,0,11,5,7,5,7,7,7,0,0,5,5,5,7,0,0,7,11,0,0,0,0,0,0,0,0,0,0,0,0,0,0,0,0,0,0,0,0,0,0,0,0,0,0,0,0,0,0,0,0,0,0,0,0,0,0,0,0],"split_type":[0,0,0,0,0,0,0,0,0,0,0,0,0,0,0,0,0,0,0,0,0,0,0,0,0,0,0,0,0,0,0,0,0,0,0,0,0,0,0,0,0,0,0,0,0,0,0,0,0,0,0,0,0,0,0,0,0,0,0,0,0,0,0,0,0,0,0,0,0,0,0,0,0,0,0,0,0,0,0,0,0,0,0,0,0,0,0,0,0,0,0,0,0,0,0],"sum_hessian":[1.2061E4,9.166E3,2.895E3,5.474E3,3.692E3,1.906E3,9.89E2,2.877E3,2.597E3,2.082E3,1.61E3,9.29E2,9.77E2,7.12E2,2.77E2,2.306E3,5.71E2,1.951E3,6.46E2,1.148E3,9.34E2,1E3,6.1E2,7.59E2,1.7E2,5.96E2,3.81E2,4.54E2,2.58E2,1.99E2,7.8E1,8.29E2,1.477E3,3.2E2,2.51E2,1.276E3,6.75E2,4.21E2,2.25E2,7.79E2,3.69E2,7.87E2,1.47E2,8.3E2,1.7E2,5.59E2,5.1E1,2.79E2,4.8E2,4.74E2,1.22E2,1.12E2,2.69E2,3.91E2,6.3E1,1.48E2,5.1E1,1.447E3,3E1,9.38E2,3.38E2,3.19E2,3.56E2,1.44E2,8.1E1,6.69E2,1.1E2,1.62E2,2.07E2,7.15E2,7.2E1,5.2E1,9.5E1,6.57E2,1.73E2,9.8E1,7.2E1,2.02E2,3.57E2,2.73E2,6E0,4.43E2,3.7E1,3.52E2,1.22E2,1.13E2,9E0,9.3E1,1.9E1,1.51E2,1.18E2,2.58E2,1.33E2,4.1E1,2.2E1],"tree_param":{"num_deleted":"0","num_feature":"12","num_nodes":"95","size_leaf_vector":"1"}},{"base_weights":[5.0000213E-2,-6.216285E0,1.9755068E1,-1.0189058E1,-3.6039078E-1,1.5087165E1,3.7355335E1,-1.1967635E1,-8.2087755E0,-3.0338476E0,3.2575655E0,1.1325892E1,2.1314014E1,3.233027E1,4.7077766E1,-1.2339938E1,-1.0464804E1,-8.888592E0,-6.127887E0,-3.654401E0,2.4036137E-2,1.3643531E0,4.9085712E0,9.868285E0,1.4205513E1,1.8924723E1,2.4127207E1,2.8639948E1,1.7331513E0,2.1458807E0,2.7533982E0,-1.2545975E1,-5.6063604E-1,-5.418179E-1,-4.98098E-1,-9.538752E0,-7.6265507E0,-6.8752403E0,-4.81622E0,-5.3651457E0,-2.5759475E0,-1.42243E0,1.9339592E0,1.2202159E-1,3.8084488E0,4.0831885E0,8.483754E0,8.678633E0,1.3004538E1,1.3266652E1,1.9202658E1,1.8155445E1,2.5687675E1,2.3293663E1,1.4479756E0,1.6612234E0,1.2823393E0,-6.4600563E-1,-6.117294E-1,-4.8978505E-1,-4.3358278E-1,-3.8610086E-1,-2.989137E-1,-3.4775117E-1,-2.622145E-1,-2.612029E-1,-2.1146086E-1,-2.8571144E-1,-1.9297054E-1,-1.487654E-1,-6.1109778E-2,-9.664235E-2,-4.8408683E-2,1.0533683E-2,1.4221106E-1,7.902162E-2,-3.33594E-2,1.487283E-1,3.4856E-1,3.3177662E-1,1.7624182E-1,3.6895955E-1,5.5344546E-1,3.5670277E-1,5.1169205E-1,6.1374086E-1,9.119277E-1,6.3933396E-1,7.412906E-1,1.0219018E0,7.422615E-1,8.5727036E-1,9.988217E-1,1.1384639E0,1.5672218E0,1.4125972E0,1.1345352E0],"categories":[],"categories_nodes":[],"categories_segments":[],"categories_sizes":[],"default_left":[0,0,0,0,0,0,0,0,0,0,0,0,0,0,0,0,0,0,0,0,0,0,0,0,0,0,0,0,0,0,0,0,0,0,0,0,0,0,0,0,0,0,0,0,0,0,0,0,0,0,0,0,0,0,0,0,0,0,0,0,0,0,0,0,0,0,0,0,0,0,0,0,0,0,0,0,0,0,0,0,0,0,0,0,0,0,0,0,0,0,0,0,0,0,0,0,0],"id":8,"left_children":[1,3,5,7,9,11,13,15,17,19,21,23,25,27,29,31,33,35,37,39,41,43,45,47,49,51,53,55,-1,-1,-1,57,-1,-1,-1,59,61,63,65,67,69,71,73,75,77,79,81,83,85,87,89,91,93,95,-1,-1,-1,-1,-1,-1,-1,-1,-1,-1,-1,-1,-1,-1,-1,-1,-1,-1,-1,-1,-1,-1,-1,-1,-1,-1,-1,-1,-1,-1,-1,-1,-1,-1,-1,-1,-1,-1,-1,-1,-1,-1,-1],"loss_changes":[1.493337E6,2.134681E5,2.3916862E5,1.9157E4,3.589467E4,5.3814E4,2.8328875E4,1.481125E3,3.6093906E3,4.0495254E3,4.922537E3,5.908203E3,5.3776875E3,2.502375E3,4.4841562E3,3.9371875E2,3.90625E-2,1.5272969E3,5.952461E2,3.2591367E3,1.0000636E3,2.2343086E3,2.4500117E3,3.4689453E3,2.0066016E3,1.9996562E3,9.1646875E2,1.3846094E3,0E0,0E0,0E0,6.759375E1,0E0,0E0,0E0,2.0090625E2,5.8945312E1,1.6355469E1,3.4405273E1,3.38E2,5.8565576E2,4.5891846E1,2.4410895E2,5.638894E2,6.3332983E2,9.542344E2,3.666289E2,1.6060898E3,7.768008E2,1.1650781E2,9.494141E1,4.4654688E2,4.5708984E1,3.8140625E2,0E0,0E0,0E0,0E0,0E0,0E0,0E0,0E0,0E0,0E0,0E0,0E0,0E0,0E0,0E0,0E0,0E0,0E0,0E0,0E0,0E0,0E0,0E0,0E0,0E0,0E0,0E0,0E0,0E0,0E0,0E0,0E0,0E0,0E0,0E0,0E0,0E0,0E0,0E0,0E0,0E0,0E0,0E0],"parents":[2147483647,0,0,1,1,2,2,3,3,4,4,5,5,6,6,7,7,8,8,9,9,10,10,11,11,12,12,13,13,14,14,15,15,16,16,17,17,18,18,19,19,20,20,21,21,22,22,23,23,24,24,25,25,26,26,27,27,31,31,35,35,36,36,37,37,38,38,39,39,40,40,41,41,42,42,43,43,44,44,45,45,46,46,47,47,48,48,49,49,50,50,51,51,52,52,53,53],"right_children":[2,4,6,8,10,12,14,16,18,20,22,24,26,28,30,32,34,36,38,40,42,44,46,48,50,52,54,56,-1,-1,-1,58,-1,-1,-1,60,62,64,66,68,70,72,74,76,78,80,82,84,86,88,90,92,94,96,-1,-1,-1,-1,-1,-1,-1,-1,-1,-1,-1,-1,-1,-1,-1,-1,-1,-1,-1,-1,-1,-1,-1,-1,-1,-1,-1,-1,-1,-1,-1,-1,-1,-1,-1,-1,-1,-1,-1,-1,-1,-1,-1],"split_conditions":[2.3E1,1E1,4.4E1,5E0,1.6E1,3.3E1,5.3E1,3E0,6E0,1E1,1.9E1,2.9E1,3.8E1,4.7E1,5.9E1,4E0,4E0,8E0,8E0,1.2E1,1.3E1,2E0,9E0,6E0,1E1,1.3E1,1E1,1.2E1,1.7331513E0,2.1458807E0,2.7533982E0,2E0,-5.6063604E-1,-5.418179E-1,-4.98098E-1,3E0,4E0,9E0,9E0,3E0,1.5E1,1.1E1,1.2E1,2E0,1.3E1,3E0,1.4E1,2.6E1,1.5E1,1.8E1,2E1,3.6E1,1.6E1,1.9E1,1.4479756E0,1.6612234E0,1.2823393E0,-6.4600563E-1,-6.117294E-1,-4.8978505E-1,-4.3358278E-1,-3.8610086E-1,-2.989137E-1,-3.4775117E-1,-2.622145E-1,-2.612029E-1,-2.1146086E-1,-2.8571144E-1,-1.9297054E-1,-1.487654E-1,-6.1109778E-2,-9.664235E-2,-4.8408683E-2,1.0533683E-2,1.4221106E-1,7.902162E-2,-3.33594E-2,1.487283E-1,3.4856E-1,3.3177662E-1,1.7624182E-1,3.6895955E-1,5.5344546E-1,3.5670277E-1,5.1169205E-1,6.1374086E-1,9.119277E-1,6.3933396E-1,7.412906E-1,1.0219018E0,7.422615E-1,8.5727036E-1,9.988217E-1,1.1384639E0,1.5672218E0,1.4125972E0,1.1345352E0],"split_indices":[0,0,0,0,0,0,0,7,7,7,0,0,0,0,0,0,7,0,7,0,0,7,7,7,7,7,7,5,0,0,0,0,0,0,0,7,7,0,7,7,0,7,7,6,7,6,7,0,7,5,6,0,7,6,0,0,0,0,0,0,0,0,0,0,0,0,0,0,0,0,0,0,0,0,0,0,0,0,0,0,0,0,0,0,0,0,0,0,0,0,0,0,0,0,0,0,0],"split_type":[0,0,0,0,0,0,0,0,0,0,0,0,0,0,0,0,0,0,0,0,0,0,0,0,0,0,0,0,0,0,0,0,0,0,0,0,0,0,0,0,0,0,0,0,0,0,0,0,0,0,0,0,0,0,0,0,0,0,0,0,0,0,0,0,0,0,0,0,0,0,0,0,0,0,0,0,0,0,0,0,0,0,0,0,0,0,0,0,0,0,0,0,0,0,0,0,0],"sum_hessian":[1.2092E4,9.175E3,2.917E3,5.466E3,3.709E3,2.307E3,6.1E2,2.877E3,2.589E3,2.133E3,1.576E3,1.44E3,8.67E2,4.05E2,2.05E2,2.3E3,5.77E2,1.949E3,6.4E2,1.773E3,3.6E2,7.35E2,8.41E2,9.59E2,4.81E2,4.73E2,3.94E2,1.62E2,2.43E2,1.39E2,6.6E1,1.936E3,3.64E2,3.2E2,2.57E2,1.282E3,6.67E2,4.05E2,2.35E2,6.84E2,1.089E3,2.05E2,1.55E2,4.88E2,2.47E2,6.85E2,1.56E2,6.98E2,2.61E2,4.08E2,7.3E1,4.28E2,4.5E1,3.41E2,5.3E1,6E1,1.02E2,8.61E2,1.075E3,9.81E2,3.01E2,6.27E2,4E1,3.83E2,2.2E1,1.34E2,1.01E2,5.53E2,1.31E2,8.4E2,2.49E2,9.5E1,1.1E2,5.4E1,1.01E2,1.71E2,3.17E2,1.97E2,5E1,1.21E2,5.64E2,1.12E2,4.4E1,3.53E2,3.45E2,2.32E2,2.9E1,3.19E2,8.9E1,5.4E1,1.9E1,2.82E2,1.46E2,3.3E1,1.2E1,3.2E1,3.09E2],"tree_param":{"num_deleted":"0","num_feature":"12","num_nodes":"97","size_leaf_vector":"1"}},{"base_weights":[-9.639293E-2,-5.91635E0,1.8681856E1,-9.336138E0,2.4232607E-1,1.4315244E1,3.540362E1,-1.1032471E1,-6.925867E0,-2.4151995E0,3.000515E0,1.0844492E1,2.0021923E1,3.1108059E1,4.595736E1,-1.170511E1,-9.767219E0,-7.4192414E0,-3.7833292E0,-2.9803226E0,2.3794484E-1,2.271339E0,6.896808E0,7.8519173E0,1.225099E1,1.7527313E1,2.2180471E1,2.6954226E1,3.345162E1,5.0247936E1,1.9693931E0,-1.1921253E1,-5.16839E-1,-1.0362747E1,-8.856207E0,-7.9848022E0,-6.1889615E0,-4.365816E0,-1.6856289E0,-4.248964E0,-2.0083754E0,-7.018099E-1,3.3125336E0,1.1616607E0,4.0586977E0,5.608138E0,9.769507E0,6.969226E0,1.3502681E1,1.1375132E1,1.6340153E1,1.6732773E1,1.2794079E0,2.1228605E1,2.7347513E1,2.6137083E1,1.9453198E0,1.5793365E0,1.8177944E0,2.3713443E0,3.2522526E0,-6.152546E-1,-5.8094126E-1,-5.210701E-1,-2.5663373E-1,-4.6228462E-1,-4.1629463E-1,-4.2933843E-1,-3.4073338E-1,-3.408323E-1,-2.8030533E-1,-1.9686005E-1,-2.4662982E-1,-7.287469E-2,-9.775292E-2,-2.3147742E-1,-1.3422623E-1,-6.14659E-2,-1.3717845E-1,-7.362289E-2,2.6171928E-2,6.375577E-2,3.217312E-1,3.366618E-2,1.4468606E-1,3.5856858E-1,1.8064652E-1,1.7511855E-1,3.9230582E-1,3.3313987E-1,6.238322E-1,6.3262314E-1,3.3707517E-1,5.693354E-1,8.5826457E-1,5.162549E-1,6.5037805E-1,7.304179E-1,9.4698113E-1,8.029378E-1,9.635669E-1,1.0138382E0,1.2260858E0,1.5219254E0,1.0820454E0,1.1256202E0,1.3942745E0],"categories":[],"categories_nodes":[],"categories_segments":[],"categories_sizes":[],"default_left":[0,0,0,0,0,0,0,0,0,0,0,0,0,0,0,0,0,0,0,0,0,0,0,0,0,0,0,0,0,0,0,0,0,0,0,0,0,0,0,0,0,0,0,0,0,0,0,0,0,0,0,0,0,0,0,0,0,0,0,0,0,0,0,0,0,0,0,0,0,0,0,0,0,0,0,0,0,0,0,0,0,0,0,0,0,0,0,0,0,0,0,0,0,0,0,0,0,0,0,0,0,0,0,0,0,0,0],"id":9,"left_children":[1,3,5,7,9,11,13,15,17,19,21,23,25,27,29,31,33,35,37,39,41,43,45,47,49,51,53,55,57,59,-1,61,-1,63,65,67,69,71,73,75,77,79,81,83,85,87,89,91,93,95,97,99,-1,101,103,105,-1,-1,-1,-1,-1,-1,-1,-1,-1,-1,-1,-1,-1,-1,-1,-1,-1,-1,-1,-1,-1,-1,-1,-1,-1,-1,-1,-1,-1,-1,-1,-1,-1,-1,-1,-1,-1,-1,-1,-1,-1,-1,-1,-1,-1,-1,-1,-1,-1,-1,-1],"loss_changes":[1.3132131E6,1.9319812E5,2.0708181E5,2.4038281E4,2.402019E4,4.446625E4,2.5226812E4,2.8303438E3,3.7534688E3,2.503129E3,4.552798E3,5.817547E3,4.1990312E3,3.1966875E3,2.75625E3,5.4340625E2,5.630625E2,1.416625E3,3.9952783E2,1.6881475E3,8.5179645E2,2.6847666E3,8.8180664E2,2.160418E3,3.2308906E3,2.1337031E3,1.6474688E3,5.1646094E2,2.8690625E2,1.0059844E3,0E0,8.221875E1,0E0,1.6861719E2,2.2992188E1,9.557969E2,2.0617188E2,4.37417E1,1.6990051E0,3.424297E2,4.4395117E2,2.1416786E2,4.3070447E2,7.0685645E2,6.942168E2,8.0666113E2,5.644634E2,4.2332422E2,2.6954297E2,1.218125E3,4.7061328E2,3.1847656E2,0E0,7.158281E2,5.2310156E2,3.2284375E2,0E0,0E0,0E0,0E0,0E0,0E0,0E0,0E0,0E0,0E0,0E0,0E0,0E0,0E0,0E0,0E0,0E0,0E0,0E0,0E0,0E0,0E0,0E0,0E0,0E0,0E0,0E0,0E0,0E0,0E0,0E0,0E0,0E0,0E0,0E0,0E0,0E0,0E0,0E0,0E0,0E0,0E0,0E0,0E0,0E0,0E0,0E0,0E0,0E0,0E0,0E0],"parents":[2147483647,0,0,1,1,2,2,3,3,4,4,5,5,6,6,7,7,8,8,9,9,10,10,11,11,12,12,13,13,14,14,15,15,16,16,17,17,18,18,19,19,20,20,21,21,22,22,23,23,24,24,25,25,26,26,27,27,28,28,29,29,31,31,33,33,34,34,35,35,36,36,37,37,38,38,39,39,40,40,41,41,42,42,43,43,44,44,45,45,46,46,47,47,48,48,49,49,50,50,51,51,53,53,54,54,55,55],"right_children":[2,4,6,8,10,12,14,16,18,20,22,24,26,28,30,32,34,36,38,40,42,44,46,48,50,52,54,56,58,60,-1,62,-1,64,66,68,70,72,74,76,78,80,82,84,86,88,90,92,94,96,98,100,-1,102,104,106,-1,-1,-1,-1,-1,-1,-1,-1,-1,-1,-1,-1,-1,-1,-1,-1,-1,-1,-1,-1,-1,-1,-1,-1,-1,-1,-1,-1,-1,-1,-1,-1,-1,-1,-1,-1,-1,-1,-1,-1,-1,-1,-1,-1,-1,-1,-1,-1,-1,-1,-1],"split_conditions":[2.3E1,1.1E1,4.4E1,6E0,1.6E1,3.3E1,5.4E1,4E0,8E0,1E1,1E1,2.6E1,3.7E1,4.7E1,2E0,3E0,4E0,9E0,1E1,1.3E1,1.3E1,2E1,1.4E1,1.1E1,9E0,1.3E1,1E1,1.5E1,5.1E1,6.5E1,1.9693931E0,2E0,-5.16839E-1,3E0,5E0,3E0,2E0,2E0,2E0,3E0,7E0,1.3E1,1E0,1E0,2E0,8E0,1.9E1,1E0,2.5E1,3E1,1.3E1,6E0,1.2794079E0,3E1,2E0,2.6E1,1.9453198E0,1.5793365E0,1.8177944E0,2.3713443E0,3.2522526E0,-6.152546E-1,-5.8094126E-1,-5.210701E-1,-2.5663373E-1,-4.6228462E-1,-4.1629463E-1,-4.2933843E-1,-3.4073338E-1,-3.408323E-1,-2.8030533E-1,-1.9686005E-1,-2.4662982E-1,-7.287469E-2,-9.775292E-2,-2.3147742E-1,-1.3422623E-1,-6.14659E-2,-1.3717845E-1,-7.362289E-2,2.6171928E-2,6.375577E-2,3.217312E-1,3.366618E-2,1.4468606E-1,3.5856858E-1,1.8064652E-1,1.7511855E-1,3.9230582E-1,3.3313987E-1,6.238322E-1,6.3262314E-1,3.3707517E-1,5.693354E-1,8.5826457E-1,5.162549E-1,6.5037805E-1,7.304179E-1,9.4698113E-1,8.029378E-1,9.635669E-1,1.0138382E0,1.2260858E0,1.5219254E0,1.0820454E0,1.1256202E0,1.3942745E0],"split_indices":[0,0,0,0,0,0,0,0,7,7,7,0,0,0,11,7,7,0,7,0,7,0,7,7,7,7,7,7,0,0,0,0,0,11,7,7,11,11,11,7,6,0,6,7,6,6,0,6,0,0,7,7,0,6,11,6,0,0,0,0,0,0,0,0,0,0,0,0,0,0,0,0,0,0,0,0,0,0,0,0,0,0,0,0,0,0,0,0,0,0,0,0,0,0,0,0,0,0,0,0,0,0,0,0,0,0,0],"split_type":[0,0,0,0,0,0,0,0,0,0,0,0,0,0,0,0,0,0,0,0,0,0,0,0,0,0,0,0,0,0,0,0,0,0,0,0,0,0,0,0,0,0,0,0,0,0,0,0,0,0,0,0,0,0,0,0,0,0,0,0,0,0,0,0,0,0,0,0,0,0,0,0,0,0,0,0,0,0,0,0,0,0,0,0,0,0,0,0,0,0,0,0,0,0,0,0,0,0,0,0,0,0,0,0,0,0,0],"sum_hessian":[1.2014E4,9.172E3,2.842E3,5.897E3,3.275E3,2.255E3,5.87E2,3.459E3,2.438E3,1.668E3,1.607E3,1.404E3,8.51E2,4.2E2,1.67E2,2.253E3,1.206E3,2.106E3,3.32E2,1.375E3,2.93E2,1.355E3,2.52E2,4.51E2,9.53E2,3.99E2,4.52E2,1.56E2,2.64E2,9.7E1,7E1,1.939E3,3.14E2,7.23E2,4.83E2,1.439E3,6.67E2,2.59E2,7.3E1,5.95E2,7.8E2,2.25E2,6.8E1,8.37E2,5.18E2,1.76E2,7.6E1,3.92E2,5.9E1,7.88E2,1.65E2,3.66E2,3.3E1,3.86E2,6.6E1,1.49E2,7E0,1.68E2,9.6E1,8.5E1,1.2E1,8.37E2,1.102E3,7.14E2,9E0,2.69E2,2.14E2,9.46E2,4.93E2,3.16E2,3.51E2,1.52E2,1.07E2,4.3E1,3E1,4.77E2,1.18E2,3.8E2,4E2,1.38E2,8.7E1,4.2E1,2.6E1,6.54E2,1.83E2,6.3E1,4.55E2,9.2E1,8.4E1,3.7E1,3.9E1,1.3E1,3.79E2,4E1,1.9E1,4.84E2,3.04E2,1.03E2,6.2E1,2.95E2,7.1E1,3.05E2,8.1E1,4E1,2.6E1,5.3E1,9.6E1],"tree_param":{"num_deleted":"0","num_feature":"12","num_nodes":"107","size_leaf_vector":"1"}},{"base_weights":[5.7792686E-2,-5.625491E0,1.7897676E1,-9.221596E0,-3.2654792E-1,1.196378E1,2.917139E1,-1.0828798E1,-7.3997607E0,-2.6952176E0,2.7921326E0,8.724547E0,1.5005505E1,2.4930325E1,4.0026722E1,-1.1410221E1,-1.0102189E1,-8.072333E0,-5.3305497E0,-3.5040276E0,-6.7813635E-1,1.8874199E0,5.203127E0,8.0298605E0,1.3785917E1,1.3387722E1,1.7690245E1,2.2470491E1,2.9128548E1,3.798609E1,2.8154259E0,-5.808967E-1,-5.400748E-1,-5.178849E-1,-4.5026493E-1,-8.650227E0,-6.926387E0,-6.1121483E0,-1.943575E-1,-5.1526346E0,-2.4745424E0,-1.7699509E0,8.7867266E-1,6.774353E-1,3.814823E0,4.43425E0,8.700346E0,6.4416976E0,9.681807E0,1.42746525E1,2.2776413E-1,1.2628991E1,1.638098E1,2.147021E1,1.5932039E1,2.1526772E1,1.3881879E0,1.5090308E0,1.1958934E0,3.4261665E1,2.011285E0,-4.4541165E-1,-3.9498731E-1,-3.686051E-1,-3.2452837E-1,-3.0943614E-1,-1.403399E-1,-2.5882927E-1,-1.6432793E-1,-1.4780834E-1,-4.396364E-2,-1.4121448E-1,-5.3184934E-2,1.04263104E-1,-1.9228466E-2,-9.995784E-3,7.978493E-2,1.560691E-1,2.6862547E-1,1.8434355E-1,3.4096703E-1,4.556919E-1,1.9973765E-1,3.146434E-1,6.641299E-1,4.315395E-1,6.747674E-1,5.664362E-1,8.0827874E-1,5.9099746E-1,6.9014436E-1,4.461268E-1,8.346264E-1,1.4288504E0,1.0211811E0,5.16015E-1,8.2784027E-1,1.1293651E0,9.6744007E-1,1.8011961E0,1.3148056E0],"categories":[],"categories_nodes":[],"categories_segments":[],"categories_sizes":[],"default_left":[0,0,0,0,0,0,0,0,0,0,0,0,0,0,0,0,0,0,0,0,0,0,0,0,0,0,0,0,0,0,0,0,0,0,0,0,0,0,0,0,0,0,0,0,0,0,0,0,0,0,0,0,0,0,0,0,0,0,0,0,0,0,0,0,0,0,0,0,0,0,0,0,0,0,0,0,0,0,0,0,0,0,0,0,0,0,0,0,0,0,0,0,0,0,0,0,0,0,0,0,0],"id":10,"left_children":[1,3,5,7,9,11,13,15,17,19,21,23,25,27,29,31,33,35,37,39,41,43,45,47,49,51,53,55,57,59,-1,-1,-1,-1,-1,61,63,65,-1,67,69,71,73,75,77,79,81,83,85,87,-1,89,91,93,95,97,-1,-1,-1,99,-1,-1,-1,-1,-1,-1,-1,-1,-1,-1,-1,-1,-1,-1,-1,-1,-1,-1,-1,-1,-1,-1,-1,-1,-1,-1,-1,-1,-1,-1,-1,-1,-1,-1,-1,-1,-1,-1,-1,-1,-1],"loss_changes":[1.2165674E6,1.7340256E5,1.9358562E5,1.5792875E4,2.7192143E4,1.8599344E4,4.499425E4,1.1005938E3,3.4974531E3,3.410587E3,3.4561973E3,3.1346328E3,4.0152812E3,6.7911875E3,7.1309062E3,7.565625E1,2.6770312E2,1.21025E3,6.835957E2,2.5211934E3,1.0214032E3,2.695688E3,1.1257275E3,2.073211E3,4.3122266E2,1.1898359E3,2.083711E3,1.6952031E3,7.1990625E2,7.1546875E2,0E0,0E0,0E0,0E0,0E0,1.7572656E2,7.802734E1,8.513574E1,0E0,8.59668E0,7.050239E2,2.5984985E2,3.7880707E2,5.739342E2,4.649834E2,6.112344E2,1.13413086E2,3.4199023E2,1.4747422E3,3.9619922E2,0E0,3.0696875E2,1.3222461E2,2.5683594E2,7.1615234E2,4.7303125E2,0E0,0E0,0E0,4.7047656E2,0E0,0E0,0E0,0E0,0E0,0E0,0E0,0E0,0E0,0E0,0E0,0E0,0E0,0E0,0E0,0E0,0E0,0E0,0E0,0E0,0E0,0E0,0E0,0E0,0E0,0E0,0E0,0E0,0E0,0E0,0E0,0E0,0E0,0E0,0E0,0E0,0E0,0E0,0E0,0E0,0E0],"parents":[2147483647,0,0,1,1,2,2,3,3,4,4,5,5,6,6,7,7,8,8,9,9,10,10,11,11,12,12,13,13,14,14,15,15,16,16,17,17,18,18,19,19,20,20,21,21,22,22,23,23,24,24,25,25,26,26,27,27,28,28,29,29,35,35,36,36,37,37,39,39,40,40,41,41,42,42,43,43,44,44,45,45,46,46,47,47,48,48,49,49,51,51,52,52,53,53,54,54,55,55,59,59],"right_children":[2,4,6,8,10,12,14,16,18,20,22,24,26,28,30,32,34,36,38,40,42,44,46,48,50,52,54,56,58,60,-1,-1,-1,-1,-1,62,64,66,-1,68,70,72,74,76,78,80,82,84,86,88,-1,90,92,94,96,98,-1,-1,-1,100,-1,-1,-1,-1,-1,-1,-1,-1,-1,-1,-1,-1,-1,-1,-1,-1,-1,-1,-1,-1,-1,-1,-1,-1,-1,-1,-1,-1,-1,-1,-1,-1,-1,-1,-1,-1,-1,-1,-1,-1,-1],"split_conditions":[2.3E1,1E1,3.8E1,5E0,1.6E1,2.9E1,5.1E1,3E0,6E0,5E0,5E0,1.1E1,3.4E1,4.5E1,6.3E1,2E0,4E0,8E0,8E0,1.2E1,1.3E1,2E1,1.4E1,2.6E1,1.7E1,9E0,4E0,1E1,2E1,5.4E1,2.8154259E0,-5.808967E-1,-5.400748E-1,-5.178849E-1,-4.5026493E-1,2E0,9E0,3E0,-1.943575E-1,4E0,1.5E1,1E1,4E0,1.8E1,2.2E1,2.1E1,8E0,2.4E1,1.7E1,2.5E1,2.2776413E-1,3.2E1,1.4E1,2E1,7E0,1E0,1.3881879E0,1.5090308E0,1.1958934E0,2E1,2.011285E0,-4.4541165E-1,-3.9498731E-1,-3.686051E-1,-3.2452837E-1,-3.0943614E-1,-1.403399E-1,-2.5882927E-1,-1.6432793E-1,-1.4780834E-1,-4.396364E-2,-1.4121448E-1,-5.3184934E-2,1.04263104E-1,-1.9228466E-2,-9.995784E-3,7.978493E-2,1.560691E-1,2.6862547E-1,1.8434355E-1,3.4096703E-1,4.556919E-1,1.9973765E-1,3.146434E-1,6.641299E-1,4.315395E-1,6.747674E-1,5.664362E-1,8.0827874E-1,5.9099746E-1,6.9014436E-1,4.461268E-1,8.346264E-1,1.4288504E0,1.0211811E0,5.16015E-1,8.2784027E-1,1.1293651E0,9.6744007E-1,1.8011961E0,1.3148056E0],"split_indices":[0,0,0,0,0,0,0,0,7,7,7,7,0,0,0,7,7,0,7,0,0,0,7,0,6,7,5,7,5,0,0,0,0,0,0,7,0,6,0,7,0,7,6,0,0,0,6,5,5,0,0,0,6,6,5,7,0,0,0,5,0,0,0,0,0,0,0,0,0,0,0,0,0,0,0,0,0,0,0,0,0,0,0,0,0,0,0,0,0,0,0,0,0,0,0,0,0,0,0,0,0],"split_type":[0,0,0,0,0,0,0,0,0,0,0,0,0,0,0,0,0,0,0,0,0,0,0,0,0,0,0,0,0,0,0,0,0,0,0,0,0,0,0,0,0,0,0,0,0,0,0,0,0,0,0,0,0,0,0,0,0,0,0,0,0,0,0,0,0,0,0,0,0,0,0,0,0,0,0,0,0,0,0,0,0,0,0,0,0,0,0,0,0,0,0,0,0,0,0,0,0,0,0,0,0],"sum_hessian":[1.1997E4,9.099E3,2.898E3,5.42E3,3.679E3,1.9E3,9.98E2,2.877E3,2.543E3,2.091E3,1.588E3,9.22E2,9.78E2,7.2E2,2.78E2,1.59E3,1.287E3,1.917E3,6.26E2,1.492E3,5.99E2,1.156E3,4.32E2,8.13E2,1.09E2,6.14E2,3.64E2,4.58E2,2.62E2,2.5E2,2.8E1,1.172E3,4.18E2,1.037E3,2.5E2,1.27E3,6.47E2,4.04E2,2.22E2,5.72E2,9.2E2,3.52E2,2.47E2,7.11E2,4.45E2,3.56E2,7.6E1,4.17E2,3.96E2,1.03E2,6E0,4.94E2,1.2E2,1.12E2,2.52E2,3.93E2,6.5E1,2.14E2,4.8E1,1E2,1.5E2,9.37E2,3.33E2,3.12E2,3.35E2,3.94E2,1E1,5.63E2,9E0,7.06E2,2.14E2,1.4E2,2.12E2,1.26E2,1.21E2,3.64E2,3.47E2,3.1E2,1.35E2,2.73E2,8.3E1,6.9E1,7E0,4.1E2,7E0,3.13E2,8.3E1,4.3E1,6E1,2.99E2,1.95E2,6E0,1.14E2,1.1E1,1.01E2,2.7E1,2.25E2,2.58E2,1.35E2,7.9E1,2.1E1],"tree_param":{"num_deleted":"0","num_feature":"12","num_nodes":"101","size_leaf_vector":"1"}},{"base_weights":[-1.0669151E-3,-4.011809E0,1.7779222E1,-5.5517254E0,5.4658885E0,1.1980724E1,2.4947565E1,-7.0012813E0,2.4990423E0,2.4856408E0,1.1540071E1,8.602859E0,2.1238285E1,2.1119947E1,3.5389572E1,-8.312596E0,-1.2629561E0,-3.9329067E-1,9.362722E0,9.040251E-1,9.9827795E0,1.0122981E1,2.0582434E1,6.4926195E0,1.6166422E1,1.6143644E1,2.5383583E1,1.7643515E1,2.7182804E1,3.2905132E1,4.4612717E1,-8.913031E0,-4.565975E0,-3.261642E0,9.83592E-1,-1.6606127E0,5.429431E0,6.155126E0,1.3899961E1,-1.2664782E0,2.1727905E0,8.891956E0,7.117587E-1,7.4536376E0,1.1533401E1,1.693374E1,1.194942E0,4.194465E0,9.359235E0,1.2416567E1,1.9395258E1,1.3638976E1,2.1289114E1,2.3205097E1,1.9527887E0,1.616156E1,2.5339417E1,2.5093012E1,1.7569894E0,3.0095463E1,1.9660397E0,5.1872425E1,1.7850345E0,-4.7857538E-1,-3.2687965E-1,-2.6359555E-1,-6.330031E-2,-1.9453984E-1,1.287838E-1,1.417502E-2,3.4597337E-1,-1.5874727E-1,-1.1248774E-2,1.2329693E-1,3.645191E-1,2.2168687E-1,4.7693935E-1,6.3630897E-1,1.1724266E0,-8.996045E-2,1.09377086E-1,7.7498816E-2,2.840272E-1,3.3393878E-1,5.605797E-1,3.2417622E-1,6.1370367E-1,3.611606E-1,6.039206E-1,6.457266E-1,9.671159E-1,1.7944723E-1,5.0413483E-1,3.824245E-1,6.42872E-1,5.910202E-1,8.333686E-1,8.1060374E-1,1.0792726E0,5.085931E-1,7.1510553E-1,9.636772E-1,1.3828894E0,1.2631073E0,1.0158488E0,5.786895E-1,8.969474E-1,1.1705967E0,2.1480496E0,1.0919915E0,1.4054734E0,1.2911861E0,1.6470536E0,1.003716E0,2.7505379E0],"categories":[],"categories_nodes":[],"categories_segments":[],"categories_sizes":[],"default_left":[0,0,0,0,0,0,0,0,0,0,0,0,0,0,0,0,0,0,0,0,0,0,0,0,0,0,0,0,0,0,0,0,0,0,0,0,0,0,0,0,0,0,0,0,0,0,0,0,0,0,0,0,0,0,0,0,0,0,0,0,0,0,0,0,0,0,0,0,0,0,0,0,0,0,0,0,0,0,0,0,0,0,0,0,0,0,0,0,0,0,0,0,0,0,0,0,0,0,0,0,0,0,0,0,0,0,0,0,0,0,0,0,0,0,0],"id":11,"left_children":[1,3,5,7,9,11,13,15,17,19,21,23,25,27,29,31,33,35,37,39,41,43,45,47,49,51,53,55,57,59,61,63,65,67,69,71,73,75,77,79,81,83,-1,85,87,89,-1,91,93,95,97,99,101,103,-1,105,107,109,-1,111,-1,113,-1,-1,-1,-1,-1,-1,-1,-1,-1,-1,-1,-1,-1,-1,-1,-1,-1,-1,-1,-1,-1,-1,-1,-1,-1,-1,-1,-1,-1,-1,-1,-1,-1,-1,-1,-1,-1,-1,-1,-1,-1,-1,-1,-1,-1,-1,-1,-1,-1,-1,-1,-1,-1],"loss_changes":[8.5510394E5,1.4282648E5,9.143644E4,9.824425E4,2.4735621E4,3.803022E4,3.8661062E4,5.3663562E4,2.5513566E4,1.0888102E4,5.557871E3,1.4211984E4,6.4749375E3,1.4780219E4,4.5585E3,1.3020469E4,5.966119E3,6.6872495E3,5.459379E3,2.095685E3,6.1559863E2,1.3861094E3,3.213379E2,4.5920566E3,2.1201719E3,1.6299062E3,4.3953906E3,4.8709844E3,3.4749062E3,2.6200781E3,1.5771562E3,7.763E3,1.8662969E3,2.5918423E3,2.5994792E3,1.6167659E3,8.754385E2,1.2682422E3,1.4612363E3,5.209934E2,1.0398408E3,5.9251074E2,0E0,5.6575977E2,5.0942578E2,5.998047E1,0E0,1.3614683E3,1.768832E3,3.8663086E1,3.6814844E2,9.133594E1,7.025195E1,4.1353906E2,0E0,2.9806875E3,1.473668E3,1.4566406E3,0E0,9.848594E2,0E0,1.5901094E3,0E0,0E0,0E0,0E0,0E0,0E0,0E0,0E0,0E0,0E0,0E0,0E0,0E0,0E0,0E0,0E0,0E0,0E0,0E0,0E0,0E0,0E0,0E0,0E0,0E0,0E0,0E0,0E0,0E0,0E0,0E0,0E0,0E0,0E0,0E0,0E0,0E0,0E0,0E0,0E0,0E0,0E0,0E0,0E0,0E0,0E0,0E0,0E0,0E0,0E0,0E0,0E0,0E0],"parents":[2147483647,0,0,1,1,2,2,3,3,4,4,5,5,6,6,7,7,8,8,9,9,10,10,11,11,12,12,13,13,14,14,15,15,16,16,17,17,18,18,19,19,20,20,21,21,22,22,23,23,24,24,25,25,26,26,27,27,28,28,29,29,30,30,31,31,32,32,33,33,34,34,35,35,36,36,37,37,38,38,39,39,40,40,41,41,43,43,44,44,45,45,47,47,48,48,49,49,50,50,51,51,52,52,53,53,55,55,56,56,57,57,59,59,61,61],"right_children":[2,4,6,8,10,12,14,16,18,20,22,24,26,28,30,32,34,36,38,40,42,44,46,48,50,52,54,56,58,60,62,64,66,68,70,72,74,76,78,80,82,84,-1,86,88,90,-1,92,94,96,98,100,102,104,-1,106,108,110,-1,112,-1,114,-1,-1,-1,-1,-1,-1,-1,-1,-1,-1,-1,-1,-1,-1,-1,-1,-1,-1,-1,-1,-1,-1,-1,-1,-1,-1,-1,-1,-1,-1,-1,-1,-1,-1,-1,-1,-1,-1,-1,-1,-1,-1,-1,-1,-1,-1,-1,-1,-1,-1,-1,-1,-1],"split_conditions":[1.8E1,1.3E1,9E0,8E0,8E0,8E0,6E0,9E0,8E0,2E1,2.2E1,2.8E1,2.4E1,2.7E1,3.2E1,8E0,1.3E1,1.3E1,1.2E1,1.5E1,2.4E1,1.6E1,1.2E1,2.3E1,3E1,1.3E1,1.5E1,2.1E1,3.3E1,1.2E1,2E0,4E0,2E0,5E0,9E0,1E1,1.4E1,1.4E1,1.7E1,5E0,5E0,3E0,7.117587E-1,1.6E1,9E0,2.3E1,1.194942E0,6E0,3E0,8E0,3E0,9E0,1.6E1,2E0,1.9527887E0,2E1,2.6E1,1.6E1,1.7569894E0,1.5E1,1.9660397E0,7E0,1.7850345E0,-4.7857538E-1,-3.2687965E-1,-2.6359555E-1,-6.330031E-2,-1.9453984E-1,1.287838E-1,1.417502E-2,3.4597337E-1,-1.5874727E-1,-1.1248774E-2,1.2329693E-1,3.645191E-1,2.2168687E-1,4.7693935E-1,6.3630897E-1,1.1724266E0,-8.996045E-2,1.09377086E-1,7.7498816E-2,2.840272E-1,3.3393878E-1,5.605797E-1,3.2417622E-1,6.1370367E-1,3.611606E-1,6.039206E-1,6.457266E-1,9.671159E-1,1.7944723E-1,5.0413483E-1,3.824245E-1,6.42872E-1,5.910202E-1,8.333686E-1,8.1060374E-1,1.0792726E0,5.085931E-1,7.1510553E-1,9.636772E-1,1.3828894E0,1.2631073E0,1.0158488E0,5.786895E-1,8.969474E-1,1.1705967E0,2.1480496E0,1.0919915E0,1.4054734E0,1.2911861E0,1.6470536E0,1.003716E0,2.7505379E0],"split_indices":[6,5,5,7,6,7,7,6,6,5,5,6,6,6,6,5,6,7,7,5,5,5,6,6,6,7,7,5,6,7,11,7,6,7,5,7,7,6,7,6,6,6,0,6,6,5,0,7,7,5,5,7,7,11,0,6,5,5,0,5,0,7,0,0,0,0,0,0,0,0,0,0,0,0,0,0,0,0,0,0,0,0,0,0,0,0,0,0,0,0,0,0,0,0,0,0,0,0,0,0,0,0,0,0,0,0,0,0,0,0,0,0,0,0,0],"split_type":[0,0,0,0,0,0,0,0,0,0,0,0,0,0,0,0,0,0,0,0,0,0,0,0,0,0,0,0,0,0,0,0,0,0,0,0,0,0,0,0,0,0,0,0,0,0,0,0,0,0,0,0,0,0,0,0,0,0,0,0,0,0,0,0,0,0,0,0,0,0,0,0,0,0,0,0,0,0,0,0,0,0,0,0,0,0,0,0,0,0,0,0,0,0,0,0,0,0,0,0,0,0,0,0,0,0,0,0,0,0,0,0,0,0,0],"sum_hessian":[1.1989E4,9.783E3,2.206E3,8.416E3,1.367E3,1.221E3,9.85E2,7.132E3,1.284E3,9.18E2,4.49E2,8.96E2,3.25E2,7.23E2,2.62E2,5.805E3,1.327E3,9.04E2,3.8E2,7.59E2,1.59E2,3.9E2,5.9E1,7.02E2,1.94E2,1.48E2,1.77E2,4.62E2,2.61E2,2.1E2,5.2E1,5.002E3,8.03E2,7.02E2,6.25E2,7.43E2,1.61E2,2.24E2,1.56E2,2.8E2,4.79E2,1.29E2,3E1,1.37E2,2.53E2,3.1E1,2.8E1,3.91E2,3.11E2,9.2E1,1.02E2,1.02E2,4.6E1,1.55E2,2.2E1,3.9E2,7.2E1,2.1E2,5.1E1,1.5E2,6E1,2.6E1,2.6E1,3.914E3,1.088E3,6.61E2,1.42E2,6.34E2,6.8E1,5.6E2,6.5E1,3.61E2,3.82E2,6.3E1,9.8E1,1.5E2,7.4E1,1.41E2,1.5E1,2.43E2,3.7E1,4.08E2,7.1E1,6.8E1,6.1E1,1.16E2,2.1E1,3E1,2.23E2,1.4E1,1.7E1,3.56E2,3.5E1,2.11E2,1E2,8.4E1,8E0,4.5E1,5.7E1,1.9E1,8.3E1,3.8E1,8E0,8.6E1,6.9E1,1.11E2,2.79E2,6.7E1,5E0,1.05E2,1.05E2,6.4E1,8.6E1,3E0,2.3E1],"tree_param":{"num_deleted":"0","num_feature":"12","num_nodes":"115","size_leaf_vector":"1"}},{"base_weights":[9.57331E-2,-5.054747E0,1.6179935E1,-8.0349045E0,2.0312393E-1,1.1342083E1,2.7766342E1,-9.530953E0,-5.920639E0,-2.0661964E0,2.6067226E0,9.225961E0,1.6140776E1,2.3731075E1,3.621875E1,-1.03474455E1,-8.814934E0,-6.4839945E0,-3.9373457E0,-2.865171E0,-1.5536477E-1,1.1461189E0,3.970802E0,6.720221E0,1.04445305E1,1.3922211E1,1.8400444E1,2.1560322E1,1.3780955E0,3.4399464E1,2.4507916E0,-5.286995E-1,-4.8526046E-1,-9.16088E0,-3.8983288E-1,-6.9975305E0,-5.4733214E0,-4.2858486E0,-8.9986E-2,-3.3005562E0,-7.648454E-1,-6.2040657E-1,2.7719324E0,1.3843459E-1,3.145452E0,3.4534726E0,6.1980696E0,5.5801973E0,1.0700495E1,9.614702E0,1.29319725E1,1.2736322E1,1.7862986E1,2.2874191E1,1.7184872E1,2.124681E1,1.5044321E0,1.635307E0,1.953772E0,-4.6747366E-1,-4.272163E-1,-3.653618E-1,-3.048261E-1,-2.8022298E-1,-1.8913077E-1,-2.523634E-1,-1.9221786E-1,-1.8740897E-1,-1.16104774E-1,-4.878659E-2,7.518349E-2,-6.666764E-2,1.2203431E-2,3.502559E-2,3.1948063E-1,-3.460648E-2,3.0559247E-2,1.21233694E-1,3.0998644E-1,1.2778866E-1,2.273582E-1,2.663436E-1,4.1716775E-1,3.9103654E-1,2.5771746E-1,5.7588786E-1,3.9716E-1,4.3534547E-1,5.463268E-1,5.990251E-1,7.8077906E-1,6.5120834E-1,2.2484234E-1,9.1607964E-1,4.0266696E-1,8.666794E-1,1.3031589E0,8.2154006E-1,1.175341E0,1.0039657E0,1.1335733E0],"categories":[],"categories_nodes":[],"categories_segments":[],"categories_sizes":[],"default_left":[0,0,0,0,0,0,0,0,0,0,0,0,0,0,0,0,0,0,0,0,0,0,0,0,0,0,0,0,0,0,0,0,0,0,0,0,0,0,0,0,0,0,0,0,0,0,0,0,0,0,0,0,0,0,0,0,0,0,0,0,0,0,0,0,0,0,0,0,0,0,0,0,0,0,0,0,0,0,0,0,0,0,0,0,0,0,0,0,0,0,0,0,0,0,0,0,0,0,0,0,0],"id":12,"left_children":[1,3,5,7,9,11,13,15,17,19,21,23,25,27,29,31,33,35,37,39,41,43,45,47,49,51,53,55,-1,57,-1,-1,-1,59,-1,61,63,65,-1,67,69,71,73,75,77,79,81,83,85,87,89,91,93,95,97,99,-1,-1,-1,-1,-1,-1,-1,-1,-1,-1,-1,-1,-1,-1,-1,-1,-1,-1,-1,-1,-1,-1,-1,-1,-1,-1,-1,-1,-1,-1,-1,-1,-1,-1,-1,-1,-1,-1,-1,-1,-1,-1,-1,-1,-1],"loss_changes":[9.979889E5,1.4298388E5,1.6347294E5,1.8365156E4,1.8016264E4,2.0800094E4,2.8473062E4,1.9017812E3,2.6738672E3,2.5934272E3,3.1912256E3,4.3084062E3,2.9021406E3,4.2705E3,4.739625E3,1.2826562E2,5.7078125E2,9.374531E2,3.9233398E2,1.0929883E3,6.8510016E2,1.5629692E3,9.337949E2,2.082039E3,1.8634453E3,1.2773008E3,1.2873047E3,3.71375E2,0E0,6.61875E2,0E0,0E0,0E0,7.766406E1,0E0,3.023047E2,1.2025391E2,1.3556738E2,0E0,4.257744E2,1.004958E2,2.6781018E2,5.125918E2,2.0342284E2,5.573467E2,6.5109717E2,2.452456E2,3.1176172E2,1.4286914E2,7.694375E2,4.206172E2,5.3672656E2,1.7636133E2,6.61375E2,7.912656E2,1.5685938E2,0E0,0E0,0E0,0E0,0E0,0E0,0E0,0E0,0E0,0E0,0E0,0E0,0E0,0E0,0E0,0E0,0E0,0E0,0E0,0E0,0E0,0E0,0E0,0E0,0E0,0E0,0E0,0E0,0E0,0E0,0E0,0E0,0E0,0E0,0E0,0E0,0E0,0E0,0E0,0E0,0E0,0E0,0E0,0E0,0E0],"parents":[2147483647,0,0,1,1,2,2,3,3,4,4,5,5,6,6,7,7,8,8,9,9,10,10,11,11,12,12,13,13,14,14,15,15,16,16,17,17,18,18,19,19,20,20,21,21,22,22,23,23,24,24,25,25,26,26,27,27,29,29,33,33,35,35,36,36,37,37,39,39,40,40,41,41,42,42,43,43,44,44,45,45,46,46,47,47,48,48,49,49,50,50,51,51,52,52,53,53,54,54,55,55],"right_children":[2,4,6,8,10,12,14,16,18,20,22,24,26,28,30,32,34,36,38,40,42,44,46,48,50,52,54,56,-1,58,-1,-1,-1,60,-1,62,64,66,-1,68,70,72,74,76,78,80,82,84,86,88,90,92,94,96,98,100,-1,-1,-1,-1,-1,-1,-1,-1,-1,-1,-1,-1,-1,-1,-1,-1,-1,-1,-1,-1,-1,-1,-1,-1,-1,-1,-1,-1,-1,-1,-1,-1,-1,-1,-1,-1,-1,-1,-1,-1,-1,-1,-1,-1,-1],"split_conditions":[2.3E1,1.1E1,4E1,6E0,1.6E1,3.3E1,5.1E1,3E0,7E0,5E0,1.9E1,2.6E1,3.6E1,4.6E1,6.3E1,2E0,4E0,9E0,1E1,1.5E1,1.3E1,2E0,9E0,8E0,6E0,8E0,2E0,1.5E1,1.3780955E0,1.2E1,2.4507916E0,-5.286995E-1,-4.8526046E-1,5E0,-3.8983288E-1,3E0,4E0,8E0,-8.9986E-2,1.2E1,1E0,1.3E1,1E0,1.7E1,1.3E1,2.1E1,1.4E1,6E0,1.5E1,3E1,1.3E1,3.2E1,2E0,3.7E1,2.1E1,4.3E1,1.5044321E0,1.635307E0,1.953772E0,-4.6747366E-1,-4.272163E-1,-3.653618E-1,-3.048261E-1,-2.8022298E-1,-1.8913077E-1,-2.523634E-1,-1.9221786E-1,-1.8740897E-1,-1.16104774E-1,-4.878659E-2,7.518349E-2,-6.666764E-2,1.2203431E-2,3.502559E-2,3.1948063E-1,-3.460648E-2,3.0559247E-2,1.21233694E-1,3.0998644E-1,1.2778866E-1,2.273582E-1,2.663436E-1,4.1716775E-1,3.9103654E-1,2.5771746E-1,5.7588786E-1,3.9716E-1,4.3534547E-1,5.463268E-1,5.990251E-1,7.8077906E-1,6.5120834E-1,2.2484234E-1,9.1607964E-1,4.0266696E-1,8.666794E-1,1.3031589E0,8.2154006E-1,1.175341E0,1.0039657E0,1.1335733E0],"split_indices":[0,0,0,0,0,0,0,0,7,7,0,0,0,0,0,7,7,0,7,0,7,7,7,7,7,7,5,7,0,7,0,0,0,0,0,7,7,0,0,5,7,0,6,0,7,0,7,6,6,0,7,6,5,0,5,0,0,0,0,0,0,0,0,0,0,0,0,0,0,0,0,0,0,0,0,0,0,0,0,0,0,0,0,0,0,0,0,0,0,0,0,0,0,0,0,0,0,0,0,0,0],"split_type":[0,0,0,0,0,0,0,0,0,0,0,0,0,0,0,0,0,0,0,0,0,0,0,0,0,0,0,0,0,0,0,0,0,0,0,0,0,0,0,0,0,0,0,0,0,0,0,0,0,0,0,0,0,0,0,0,0,0,0,0,0,0,0,0,0,0,0,0,0,0,0,0,0,0,0,0,0,0,0,0,0,0,0,0,0,0,0,0,0,0,0,0,0,0,0,0,0,0,0,0,0],"sum_hessian":[1.2045E4,9.124E3,2.921E3,5.823E3,3.301E3,2.062E3,8.59E2,3.408E3,2.415E3,1.698E3,1.603E3,1.433E3,6.29E2,5.84E2,2.75E2,1.586E3,1.822E3,1.879E3,5.36E2,1.197E3,5.01E2,7.75E2,8.28E2,4.71E2,9.62E2,3.21E2,3.08E2,3.77E2,2.07E2,2.44E2,3.1E1,1.161E3,4.25E2,1.354E3,4.68E2,1.242E3,6.37E2,4.6E2,7.6E1,9.91E2,2.06E2,4.33E2,6.8E1,5.16E2,2.59E2,6.74E2,1.54E2,3.68E2,1.03E2,7.25E2,2.37E2,2.5E2,7.1E1,6.2E1,2.46E2,3.67E2,1E1,1.85E2,5.9E1,1.026E3,3.28E2,9.19E2,3.23E2,5.89E2,4.8E1,1.65E2,2.95E2,6.78E2,3.13E2,1.89E2,1.7E1,2.37E2,1.96E2,4.4E1,2.4E1,1.87E2,3.29E2,2.11E2,4.8E1,3.72E2,3.02E2,1.12E2,4.2E1,5.6E1,3.12E2,7.7E1,2.6E1,4.33E2,2.92E2,1.79E2,5.8E1,2.41E2,9E0,6.7E1,4E0,2.5E1,3.7E1,2.23E2,2.3E1,2.1E2,1.57E2],"tree_param":{"num_deleted":"0","num_feature":"12","num_nodes":"101","size_leaf_vector":"1"}},{"base_weights":[-3.0414192E-2,-4.8604417E0,1.5279653E1,-7.6562796E0,1.3528934E-1,1.0341505E1,2.4801687E1,-9.044957E0,-5.7230873E0,-1.7071108E0,2.7766867E0,7.914983E0,1.3414923E1,2.1109627E1,3.4434612E1,-9.847848E0,-8.343676E0,-6.090686E0,-3.3374982E0,-1.9614916E0,3.8884025E0,2.047335E0,4.607989E0,6.938885E0,1.033574E1,1.2610099E1,1.6526897E1,1.8954754E1,2.3692831E1,3.1341974E1,4.32971E1,-5.0256985E-1,-4.6328446E-1,-8.683196E0,-7.3938665E0,-6.463352E0,-5.267524E0,-3.7140381E0,-1.9010056E0,-2.5477386E0,-3.799643E-1,1.6564739E0,6.3579106E0,9.383042E-1,3.339526E0,3.2257338E0,5.4728723E0,5.1875405E0,8.263618E0,9.2205515E0,1.213307E1,1.2131148E1,1.8471586E1,1.6063847E1,2.389569E1,1.8059566E1,2.2440472E1,2.3110737E1,1.705223E0,3.3824467E1,1.401214E0,1.7847124E0,4.6887264E1,-4.4428775E-1,-4.0153977E-1,-3.868376E-1,-3.466336E-1,-3.4511566E-1,-2.816364E-1,-2.9217014E-1,-2.3589018E-1,-1.6019551E-1,-2.1895659E-1,-6.4863734E-2,-1.2784497E-1,-1.6012514E-1,-4.0416427E-2,-5.0038047E-2,6.937145E-3,1.360367E-1,-6.2719814E-2,1.3649312E-1,4.2127725E-1,-1.6687474E-3,7.184205E-2,2.6765403E-1,1.4169294E-1,1.5195973E-1,4.0324172E-1,2.3988621E-1,4.1549674E-1,5.5633205E-1,2.4941121E-1,5.290107E-1,3.615273E-1,4.0022835E-1,5.745979E-1,4.6545792E-1,6.7112684E-1,5.3878206E-1,6.4145017E-1,2.1524E-1,9.650963E-1,1.0668552E0,7.751738E-1,3.0660215E-1,1.6663736E0,9.5638984E-1,7.596346E-1,1.2353263E0,8.79625E-1,1.0959584E0,1.2426856E0,1.6244669E0,2.1625588E0,2.5833871E0,1.8268334E0],"categories":[],"categories_nodes":[],"categories_segments":[],"categories_sizes":[],"default_left":[0,0,0,0,0,0,0,0,0,0,0,0,0,0,0,0,0,0,0,0,0,0,0,0,0,0,0,0,0,0,0,0,0,0,0,0,0,0,0,0,0,0,0,0,0,0,0,0,0,0,0,0,0,0,0,0,0,0,0,0,0,0,0,0,0,0,0,0,0,0,0,0,0,0,0,0,0,0,0,0,0,0,0,0,0,0,0,0,0,0,0,0,0,0,0,0,0,0,0,0,0,0,0,0,0,0,0,0,0,0,0,0,0,0,0,0,0],"id":13,"left_children":[1,3,5,7,9,11,13,15,17,19,21,23,25,27,29,31,33,35,37,39,41,43,45,47,49,51,53,55,57,59,61,-1,-1,63,65,67,69,71,73,75,77,79,81,83,85,87,89,91,93,95,97,99,101,103,105,107,109,111,-1,113,-1,-1,115,-1,-1,-1,-1,-1,-1,-1,-1,-1,-1,-1,-1,-1,-1,-1,-1,-1,-1,-1,-1,-1,-1,-1,-1,-1,-1,-1,-1,-1,-1,-1,-1,-1,-1,-1,-1,-1,-1,-1,-1,-1,-1,-1,-1,-1,-1,-1,-1,-1,-1,-1,-1,-1,-1],"loss_changes":[8.9543725E5,1.2856961E5,1.3629312E5,1.5792625E4,1.6083691E4,1.4167891E4,3.4518312E4,1.8508125E3,2.145711E3,2.7789707E3,1.8043975E3,2.4613047E3,1.9029531E3,3.5532188E3,6.1254688E3,9.5859375E1,5.2883594E2,6.22125E2,1.7251685E2,1.7263418E3,4.5796826E2,1.3912534E3,4.438047E2,1.7366211E3,5.0146094E2,1.6680781E3,1.9620312E2,8.3353125E2,1.1693906E3,7.4875E2,1.825E2,0E0,0E0,1.0690625E2,2.4007812E1,4.963711E2,1.8516992E2,7.486206E1,2.4797821E1,1.5451816E3,1.6275473E2,1.4591733E2,2.7705847E2,2.5436731E2,4.419961E2,1.1179431E2,4.121748E2,3.3869043E2,9.645469E2,4.4107812E2,2.901582E2,4.5392188E2,4.933047E2,1.5086328E2,1.135977E3,6.924531E2,4.1125E2,9.696875E1,0E0,1.7E1,0E0,0E0,2.3990625E2,0E0,0E0,0E0,0E0,0E0,0E0,0E0,0E0,0E0,0E0,0E0,0E0,0E0,0E0,0E0,0E0,0E0,0E0,0E0,0E0,0E0,0E0,0E0,0E0,0E0,0E0,0E0,0E0,0E0,0E0,0E0,0E0,0E0,0E0,0E0,0E0,0E0,0E0,0E0,0E0,0E0,0E0,0E0,0E0,0E0,0E0,0E0,0E0,0E0,0E0,0E0,0E0,0E0,0E0],"parents":[2147483647,0,0,1,1,2,2,3,3,4,4,5,5,6,6,7,7,8,8,9,9,10,10,11,11,12,12,13,13,14,14,15,15,16,16,17,17,18,18,19,19,20,20,21,21,22,22,23,23,24,24,25,25,26,26,27,27,28,28,29,29,30,30,33,33,34,34,35,35,36,36,37,37,38,38,39,39,40,40,41,41,42,42,43,43,44,44,45,45,46,46,47,47,48,48,49,49,50,50,51,51,52,52,53,53,54,54,55,55,56,56,57,57,59,59,62,62],"right_children":[2,4,6,8,10,12,14,16,18,20,22,24,26,28,30,32,34,36,38,40,42,44,46,48,50,52,54,56,58,60,62,-1,-1,64,66,68,70,72,74,76,78,80,82,84,86,88,90,92,94,96,98,100,102,104,106,108,110,112,-1,114,-1,-1,116,-1,-1,-1,-1,-1,-1,-1,-1,-1,-1,-1,-1,-1,-1,-1,-1,-1,-1,-1,-1,-1,-1,-1,-1,-1,-1,-1,-1,-1,-1,-1,-1,-1,-1,-1,-1,-1,-1,-1,-1,-1,-1,-1,-1,-1,-1,-1,-1,-1,-1,-1,-1,-1,-1],"split_conditions":[2.3E1,1.1E1,3.8E1,6E0,1.7E1,3E1,5.1E1,3E0,8E0,1.3E1,5E0,6E0,3.6E1,4.4E1,5.9E1,2E0,4E0,9E0,1E1,1.5E1,1.5E1,2E1,1.9E1,2.6E1,1.2E1,1.3E1,3.3E1,8E0,1.5E1,2E0,3.1E1,-5.0256985E-1,-4.6328446E-1,5E0,5E0,3E0,2E0,2E0,2E0,4E0,2E0,1.4E1,1.4E1,1.8E1,3E0,1.6E1,1.4E1,1E0,1.2E1,1.9E1,2.5E1,3.2E1,1.4E1,1.6E1,3.7E1,1E0,2E0,4.8E1,1.705223E0,1.5E1,1.401214E0,1.7847124E0,2E0,-4.4428775E-1,-4.0153977E-1,-3.868376E-1,-3.466336E-1,-3.4511566E-1,-2.816364E-1,-2.9217014E-1,-2.3589018E-1,-1.6019551E-1,-2.1895659E-1,-6.4863734E-2,-1.2784497E-1,-1.6012514E-1,-4.0416427E-2,-5.0038047E-2,6.937145E-3,1.360367E-1,-6.2719814E-2,1.3649312E-1,4.2127725E-1,-1.6687474E-3,7.184205E-2,2.6765403E-1,1.4169294E-1,1.5195973E-1,4.0324172E-1,2.3988621E-1,4.1549674E-1,5.5633205E-1,2.4941121E-1,5.290107E-1,3.615273E-1,4.0022835E-1,5.745979E-1,4.6545792E-1,6.7112684E-1,5.3878206E-1,6.4145017E-1,2.1524E-1,9.650963E-1,1.0668552E0,7.751738E-1,3.0660215E-1,1.6663736E0,9.5638984E-1,7.596346E-1,1.2353263E0,8.79625E-1,1.0959584E0,1.2426856E0,1.6244669E0,2.1625588E0,2.5833871E0,1.8268334E0],"split_indices":[0,0,0,0,0,0,0,0,7,7,7,7,0,0,0,7,7,0,7,0,0,0,0,0,7,7,6,7,7,11,6,0,0,0,7,7,11,11,11,7,11,7,7,0,6,7,7,6,6,6,0,0,6,6,0,7,11,0,0,7,0,0,11,0,0,0,0,0,0,0,0,0,0,0,0,0,0,0,0,0,0,0,0,0,0,0,0,0,0,0,0,0,0,0,0,0,0,0,0,0,0,0,0,0,0,0,0,0,0,0,0,0,0,0,0,0,0],"split_type":[0,0,0,0,0,0,0,0,0,0,0,0,0,0,0,0,0,0,0,0,0,0,0,0,0,0,0,0,0,0,0,0,0,0,0,0,0,0,0,0,0,0,0,0,0,0,0,0,0,0,0,0,0,0,0,0,0,0,0,0,0,0,0,0,0,0,0,0,0,0,0,0,0,0,0,0,0,0,0,0,0,0,0,0,0,0,0,0,0,0,0,0,0,0,0,0,0,0,0,0,0,0,0,0,0,0,0,0,0,0,0,0,0,0,0,0,0],"sum_hessian":[1.2107E4,9.204E3,2.903E3,5.901E3,3.303E3,1.913E3,9.9E2,3.432E3,2.469E3,1.946E3,1.357E3,1.071E3,8.42E2,7.18E2,2.72E2,1.594E3,1.838E3,2.138E3,3.31E2,1.862E3,8.4E1,9.72E2,3.85E2,7.66E2,3.05E2,6.73E2,1.69E2,3.96E2,3.22E2,2.05E2,6.7E1,1.169E3,4.25E2,1.348E3,4.9E2,1.467E3,6.71E2,2.61E2,7E1,1.358E3,5.04E2,4.5E1,3.9E1,5.24E2,4.48E2,1.5E2,2.35E2,3.32E2,4.34E2,1.92E2,1.13E2,6.25E2,4.8E1,1.62E2,7E0,3.2E2,7.6E1,3.08E2,1.4E1,1.12E2,9.3E1,2.5E1,4.2E1,1.019E3,3.29E2,2.72E2,2.18E2,9.55E2,5.12E2,3.23E2,3.48E2,1.51E2,1.1E2,3.8E1,3.2E1,9.86E2,3.72E2,2.29E2,2.75E2,3.3E1,1.2E1,1.5E1,2.4E1,1.78E2,3.46E2,8.8E1,3.6E2,1.46E2,4E0,1.92E2,4.3E1,9E0,3.23E2,1.31E2,3.03E2,1.28E2,6.4E1,3.8E1,7.5E1,2.18E2,4.07E2,3E0,4.5E1,1.2E1,1.5E2,3E0,4E0,2.29E2,9.1E1,4.9E1,2.7E1,1.91E2,1.17E2,1.02E2,1E1,2.6E1,1.6E1],"tree_param":{"num_deleted":"0","num_feature":"12","num_nodes":"117","size_leaf_vector":"1"}},{"base_weights":[1.4027614E-2,-4.5753665E0,1.4578842E1,-7.239855E0,2.1804565E-1,9.839681E0,2.3480932E1,-8.581296E0,-5.34925E0,-1.84269E0,2.33596E0,7.5632353E0,1.2710288E1,1.9565765E1,3.0968859E1,-9.321276E0,-7.9366755E0,-5.83679E0,-3.596497E0,-2.9066076E0,-9.844799E-1,1.6512592E0,4.5777E0,6.66255E0,1.0664504E1,1.2104917E1,1.8041965E1,1.7842052E1,2.2112984E1,2.6803022E1,3.5002316E1,-9.526415E0,-4.3740946E-1,-8.43149E0,-7.386424E0,-6.504599E0,-5.2016335E0,-3.9954054E0,-1.1667006E0,-3.5779655E0,-1.7796667E0,-1.6275235E0,1.0996037E0,9.5926833E-1,3.6483006E0,4.35876E0,8.092121E0,4.9138427E0,8.044641E0,1.0333262E1,9.406625E-1,1.06884775E1,1.3845584E1,1.7881909E-1,1.853972E1,2.3334776E1,1.7149752E1,2.1584457E1,1.5684643E0,1.4058174E0,2.1215755E1,3.2281128E1,2.1421568E0,-4.7787943E-1,-3.3432803E-1,-4.2488146E-1,-2.2361974E-1,-3.83056E-1,-3.3413172E-1,-3.412245E-1,-2.7782393E-1,-2.8898507E-1,-2.322594E-1,-2.3790741E-1,-1.770136E-1,-1.662738E-2,-1.1968743E-1,-1.974993E-1,-1.14212714E-1,-1.0335808E-1,-6.6295825E-2,-1.0624238E-1,-2.1449499E-2,1.0046674E-2,1.0505112E-1,2.2279205E-2,1.3725129E-1,1.4971507E-1,3.182655E-1,1.987926E-1,3.2436353E-1,1.7485122E-1,5.9757847E-1,3.5460076E-1,2.2310486E-1,5.214521E-1,3.5477024E-1,4.6935853E-1,5.6997395E-1,5.4150516E-1,4.028383E-2,8.084366E-1,6.5189505E-1,8.63923E-1,1.3865632E0,1.2276293E0,4.7062373E-1,1.1342373E0,8.250453E-1,1.0530906E0,1.5560234E0,8.221654E-1,1.2435793E0,1.486647E0,2.0296462E0],"categories":[],"categories_nodes":[],"categories_segments":[],"categories_sizes":[],"default_left":[0,0,0,0,0,0,0,0,0,0,0,0,0,0,0,0,0,0,0,0,0,0,0,0,0,0,0,0,0,0,0,0,0,0,0,0,0,0,0,0,0,0,0,0,0,0,0,0,0,0,0,0,0,0,0,0,0,0,0,0,0,0,0,0,0,0,0,0,0,0,0,0,0,0,0,0,0,0,0,0,0,0,0,0,0,0,0,0,0,0,0,0,0,0,0,0,0,0,0,0,0,0,0,0,0,0,0,0,0,0,0,0,0,0,0],"id":14,"left_children":[1,3,5,7,9,11,13,15,17,19,21,23,25,27,29,31,33,35,37,39,41,43,45,47,49,51,53,55,57,59,61,63,-1,65,67,69,71,73,75,77,79,81,83,85,87,89,91,93,95,97,-1,99,101,-1,103,105,107,109,-1,-1,111,113,-1,-1,-1,-1,-1,-1,-1,-1,-1,-1,-1,-1,-1,-1,-1,-1,-1,-1,-1,-1,-1,-1,-1,-1,-1,-1,-1,-1,-1,-1,-1,-1,-1,-1,-1,-1,-1,-1,-1,-1,-1,-1,-1,-1,-1,-1,-1,-1,-1,-1,-1,-1,-1],"loss_changes":[8.06803E5,1.1722289E5,1.21777875E5,1.491475E4,1.4319737E4,1.2248078E4,2.8827875E4,1.5712031E3,2.0734766E3,1.5155654E3,2.4759434E3,2.8786367E3,2.4734531E3,2.5120781E3,4.8251875E3,1.04765625E2,4.4142188E2,7.788672E2,5.1486523E2,5.5501514E2,1.2374141E3,1.711481E3,2.5557959E2,1.9447227E3,4.4261133E2,1.7061016E3,5.313203E2,1.1208594E3,6.095547E2,6.729531E2,2.2654844E3,3.940625E1,0E0,2.1520312E2,1.1971094E2,2.4414453E2,2.9063477E2,1.4284375E2,7.8016975E1,2.1429443E2,3.365497E1,4.1931067E2,1.957659E2,8.45459E2,5.477788E2,2.6598584E2,3.306305E2,3.2750684E2,9.603574E2,1.23990234E2,0E0,5.7773047E2,4.1590234E2,0E0,4.482832E2,4.809961E2,9.149844E2,6.005078E2,0E0,0E0,2.3657812E2,1.5676406E3,0E0,0E0,0E0,0E0,0E0,0E0,0E0,0E0,0E0,0E0,0E0,0E0,0E0,0E0,0E0,0E0,0E0,0E0,0E0,0E0,0E0,0E0,0E0,0E0,0E0,0E0,0E0,0E0,0E0,0E0,0E0,0E0,0E0,0E0,0E0,0E0,0E0,0E0,0E0,0E0,0E0,0E0,0E0,0E0,0E0,0E0,0E0,0E0,0E0,0E0,0E0,0E0,0E0],"parents":[2147483647,0,0,1,1,2,2,3,3,4,4,5,5,6,6,7,7,8,8,9,9,10,10,11,11,12,12,13,13,14,14,15,15,16,16,17,17,18,18,19,19,20,20,21,21,22,22,23,23,24,24,25,25,26,26,27,27,28,28,29,29,30,30,31,31,33,33,34,34,35,35,36,36,37,37,38,38,39,39,40,40,41,41,42,42,43,43,44,44,45,45,46,46,47,47,48,48,49,49,51,51,52,52,54,54,55,55,56,56,57,57,60,60,61,61],"right_children":[2,4,6,8,10,12,14,16,18,20,22,24,26,28,30,32,34,36,38,40,42,44,46,48,50,52,54,56,58,60,62,64,-1,66,68,70,72,74,76,78,80,82,84,86,88,90,92,94,96,98,-1,100,102,-1,104,106,108,110,-1,-1,112,114,-1,-1,-1,-1,-1,-1,-1,-1,-1,-1,-1,-1,-1,-1,-1,-1,-1,-1,-1,-1,-1,-1,-1,-1,-1,-1,-1,-1,-1,-1,-1,-1,-1,-1,-1,-1,-1,-1,-1,-1,-1,-1,-1,-1,-1,-1,-1,-1,-1,-1,-1,-1,-1],"split_conditions":[2.3E1,1.1E1,3.8E1,6E0,1.6E1,3E1,4.9E1,3E0,7E0,1.3E1,2.1E1,8E0,1.2E1,4.4E1,5.4E1,2E0,1E0,8E0,1E1,1E0,7E0,6E0,2.2E1,2.6E1,1.7E1,3.4E1,1.5E1,1E0,1.5E1,2E1,1.3E1,4E0,-4.3740946E-1,3E0,5E0,4E0,2E0,8E0,2E0,1.2E1,1.1E1,1.5E1,1.2E1,1.7E1,1.4E1,1E1,2E0,6E0,1.2E1,1.2E1,9.406625E-1,3.2E1,4E0,1.7881909E-1,1.7E1,4.3E1,1.9E1,2.5E1,1.5684643E0,1.4058174E0,2.2E1,3.5E1,2.1421568E0,-4.7787943E-1,-3.3432803E-1,-4.2488146E-1,-2.2361974E-1,-3.83056E-1,-3.3413172E-1,-3.412245E-1,-2.7782393E-1,-2.8898507E-1,-2.322594E-1,-2.3790741E-1,-1.770136E-1,-1.662738E-2,-1.1968743E-1,-1.974993E-1,-1.14212714E-1,-1.0335808E-1,-6.6295825E-2,-1.0624238E-1,-2.1449499E-2,1.0046674E-2,1.0505112E-1,2.2279205E-2,1.3725129E-1,1.4971507E-1,3.182655E-1,1.987926E-1,3.2436353E-1,1.7485122E-1,5.9757847E-1,3.5460076E-1,2.2310486E-1,5.214521E-1,3.5477024E-1,4.6935853E-1,5.6997395E-1,5.4150516E-1,4.028383E-2,8.084366E-1,6.5189505E-1,8.63923E-1,1.3865632E0,1.2276293E0,4.7062373E-1,1.1342373E0,8.250453E-1,1.0530906E0,1.5560234E0,8.221654E-1,1.2435793E0,1.486647E0,2.0296462E0],"split_indices":[0,0,0,0,0,0,0,0,7,0,0,7,7,0,0,7,7,0,7,7,7,7,6,0,7,0,6,5,7,5,7,11,0,11,0,7,11,0,11,5,7,0,7,5,7,7,11,6,6,7,0,6,5,0,7,0,6,5,0,0,5,6,0,0,0,0,0,0,0,0,0,0,0,0,0,0,0,0,0,0,0,0,0,0,0,0,0,0,0,0,0,0,0,0,0,0,0,0,0,0,0,0,0,0,0,0,0,0,0,0,0,0,0,0,0],"split_type":[0,0,0,0,0,0,0,0,0,0,0,0,0,0,0,0,0,0,0,0,0,0,0,0,0,0,0,0,0,0,0,0,0,0,0,0,0,0,0,0,0,0,0,0,0,0,0,0,0,0,0,0,0,0,0,0,0,0,0,0,0,0,0,0,0,0,0,0,0,0,0,0,0,0,0,0,0,0,0,0,0,0,0,0,0,0,0,0,0,0,0,0,0,0,0,0,0,0,0,0,0,0,0,0,0,0,0,0,0,0,0,0,0,0,0],"sum_hessian":[1.2068E4,9.177E3,2.891E3,5.898E3,3.279E3,1.888E3,1.003E3,3.448E3,2.45E3,1.662E3,1.617E3,1.055E3,8.33E2,6.61E2,3.42E2,1.599E3,1.849E3,1.915E3,5.35E2,7.41E2,9.21E2,1.24E3,3.77E2,8.2E2,2.35E2,7.51E2,8.2E1,3.99E2,2.62E2,1.72E2,1.7E2,1.166E3,4.33E2,9.66E2,8.83E2,9.29E2,9.86E2,4.59E2,7.6E1,4.63E2,2.78E2,7.04E2,2.17E2,9.22E2,3.18E2,3.57E2,2E1,3.64E2,4.56E2,2.28E2,7E0,4.18E2,3.33E2,3E0,7.9E1,4.1E1,3.58E2,2.51E2,1.1E1,1.36E2,3.6E1,1.3E2,4E1,1.151E3,1.5E1,9.49E2,1.7E1,6.28E2,2.55E2,6.9E2,2.39E2,4.79E2,5.07E2,1.68E2,2.91E2,4.6E1,3E1,3.58E2,1.05E2,1.68E2,1.1E2,4.97E2,2.07E2,1.15E2,1.02E2,7.17E2,2.05E2,2.58E2,6E1,3.05E2,5.2E1,1E1,1E1,6E1,3.04E2,1.27E2,3.29E2,1.26E2,1.02E2,4.12E2,6E0,8.1E1,2.52E2,7.2E1,7E0,3.7E1,4E0,3.4E1,3.24E2,2.41E2,1E1,1.8E1,1.8E1,1.03E2,2.7E1],"tree_param":{"num_deleted":"0","num_feature":"12","num_nodes":"115","size_leaf_vector":"1"}},{"base_weights":[2.6927061E-2,-4.7208066E0,1.2820397E1,-7.132545E0,-7.066498E-1,8.553962E0,2.2574078E1,-8.157483E0,-5.3718266E0,-2.4675534E0,1.3580838E0,6.473763E0,1.2140143E1,1.9377577E1,3.1234035E1,-8.660997E0,-7.1979437E0,-5.818012E0,-3.6510873E0,-3.1097057E0,-9.189542E-1,1.019303E0,5.851698E0,4.756035E0,8.135407E0,1.1530262E1,1.7490158E1,1.7559858E1,2.2254032E1,2.9750242E1,2.1365392E0,-8.831152E0,-3.7863556E-1,-7.5952125E0,-6.603983E0,-6.170548E0,-5.330743E0,-4.361466E0,-3.1366706E0,-3.9514644E0,-2.3944035E0,-1.579792E0,5.332395E-1,-4.4939452E-1,1.8292774E0,6.1164308E0,-1.2140484E-1,3.9812584E0,7.5173655E0,7.269579E0,1.0448425E1,9.899651E0,1.2828942E1,2.0046282E-1,1.7945578E1,1.6689892E1,2.2442581E1,2.1825977E1,1.4633952E0,3.2108665E1,1.3560998E0,-4.4311538E-1,-3.5818183E-1,-3.8204074E-1,-1.8194894E-1,-3.4419906E-1,-3.119371E-1,-3.2363757E-1,-2.7122876E-1,-2.7405694E-1,-2.1859303E-1,-1.9005145E-1,-2.4901001E-1,-1.3933615E-1,-1.8098632E-1,-2.4621868E-1,-1.527837E-1,-8.471157E-2,-1.5691872E-1,-1.2473153E-1,-4.952206E-2,1.2890385E-2,2.3745541E-1,6.276986E-3,-5.2172918E-2,1.243689E-1,5.3195823E-2,2.7071378E-1,3.7862942E-1,3.47638E-1,1.8366413E-1,4.2208582E-1,2.9848602E-1,5.597529E-1,3.455497E-1,4.636643E-1,6.171741E-1,5.312819E-1,4.4410473E-1,6.1619717E-1,8.295021E-1,8.0787545E-1,1.1810752E0,9.020176E-1,6.918741E-1,1.2524656E0,8.63492E-1,9.6154565E-1,1.130349E0,1.3749639E0,1.739983E0],"categories":[],"categories_nodes":[],"categories_segments":[],"categories_sizes":[],"default_left":[0,0,0,0,0,0,0,0,0,0,0,0,0,0,0,0,0,0,0,0,0,0,0,0,0,0,0,0,0,0,0,0,0,0,0,0,0,0,0,0,0,0,0,0,0,0,0,0,0,0,0,0,0,0,0,0,0,0,0,0,0,0,0,0,0,0,0,0,0,0,0,0,0,0,0,0,0,0,0,0,0,0,0,0,0,0,0,0,0,0,0,0,0,0,0,0,0,0,0,0,0,0,0,0,0,0,0,0,0,0,0],"id":15,"left_children":[1,3,5,7,9,11,13,15,17,19,21,23,25,27,29,31,33,35,37,39,41,43,45,47,49,51,53,55,57,59,-1,61,-1,63,65,67,69,71,73,75,77,79,81,83,85,87,-1,89,91,93,95,97,99,-1,101,103,105,107,-1,109,-1,-1,-1,-1,-1,-1,-1,-1,-1,-1,-1,-1,-1,-1,-1,-1,-1,-1,-1,-1,-1,-1,-1,-1,-1,-1,-1,-1,-1,-1,-1,-1,-1,-1,-1,-1,-1,-1,-1,-1,-1,-1,-1,-1,-1,-1,-1,-1,-1,-1,-1],"loss_changes":[7.297908E5,8.483039E4,1.3513381E5,9.834719E3,1.1965122E4,1.6810781E4,2.6771844E4,1.6083594E3,1.5273477E3,1.7632617E3,2.300397E3,4.057164E3,2.5065312E3,3.3999375E3,3.2493438E3,3.521875E2,2.3205469E2,2.4195703E2,1.3906934E2,7.4618945E2,5.0178726E2,1.6781683E3,2.4719629E2,1.4847773E3,1.3819922E3,1.4569922E3,4.3762695E2,1.5327031E3,1.9284375E2,6.043906E2,0E0,3.7875E1,0E0,1.0028516E2,6.8554688E0,1.7274219E2,7.395508E1,4.1059814E1,3.1497803E1,4.8607715E2,3.4942065E2,1.9108801E2,1.8920985E2,1.715879E2,4.5520288E2,6.431201E1,0E0,4.8236914E2,1.6991211E2,6.728906E2,3.2201758E2,1.5383594E2,5.7997656E2,0E0,4.3025E2,1.2334141E3,4.4385938E2,1.0234375E2,0E0,5.314922E2,0E0,0E0,0E0,0E0,0E0,0E0,0E0,0E0,0E0,0E0,0E0,0E0,0E0,0E0,0E0,0E0,0E0,0E0,0E0,0E0,0E0,0E0,0E0,0E0,0E0,0E0,0E0,0E0,0E0,0E0,0E0,0E0,0E0,0E0,0E0,0E0,0E0,0E0,0E0,0E0,0E0,0E0,0E0,0E0,0E0,0E0,0E0,0E0,0E0,0E0,0E0],"parents":[2147483647,0,0,1,1,2,2,3,3,4,4,5,5,6,6,7,7,8,8,9,9,10,10,11,11,12,12,13,13,14,14,15,15,16,16,17,17,18,18,19,19,20,20,21,21,22,22,23,23,24,24,25,25,26,26,27,27,28,28,29,29,31,31,33,33,34,34,35,35,36,36,37,37,38,38,39,39,40,40,41,41,42,42,43,43,44,44,45,45,47,47,48,48,49,49,50,50,51,51,52,52,54,54,55,55,56,56,57,57,59,59],"right_children":[2,4,6,8,10,12,14,16,18,20,22,24,26,28,30,32,34,36,38,40,42,44,46,48,50,52,54,56,58,60,-1,62,-1,64,66,68,70,72,74,76,78,80,82,84,86,88,-1,90,92,94,96,98,100,-1,102,104,106,108,-1,110,-1,-1,-1,-1,-1,-1,-1,-1,-1,-1,-1,-1,-1,-1,-1,-1,-1,-1,-1,-1,-1,-1,-1,-1,-1,-1,-1,-1,-1,-1,-1,-1,-1,-1,-1,-1,-1,-1,-1,-1,-1,-1,-1,-1,-1,-1,-1,-1,-1,-1,-1],"split_conditions":[2.1E1,1E1,3.8E1,6E0,1.5E1,3E1,5.1E1,4E0,7E0,5E0,1.3E1,2.5E1,1.2E1,4.5E1,6.3E1,3E0,4E0,8E0,8E0,1.2E1,1.3E1,1.7E1,7E0,8E0,6E0,3.3E1,1.4E1,1E1,1.5E1,2E0,2.1365392E0,3E0,-3.7863556E-1,3E0,5E0,3E0,2E0,2E0,2E0,2E0,7E0,1E1,9E0,7E0,1E1,1.9E1,-1.2140484E-1,2E0,2E0,6E0,1.2E1,2.2E1,3E1,2.0046282E-1,1.6E1,1E0,2E0,2.6E1,1.4633952E0,5.4E1,1.3560998E0,-4.4311538E-1,-3.5818183E-1,-3.8204074E-1,-1.8194894E-1,-3.4419906E-1,-3.119371E-1,-3.2363757E-1,-2.7122876E-1,-2.7405694E-1,-2.1859303E-1,-1.9005145E-1,-2.4901001E-1,-1.3933615E-1,-1.8098632E-1,-2.4621868E-1,-1.527837E-1,-8.471157E-2,-1.5691872E-1,-1.2473153E-1,-4.952206E-2,1.2890385E-2,2.3745541E-1,6.276986E-3,-5.2172918E-2,1.243689E-1,5.3195823E-2,2.7071378E-1,3.7862942E-1,3.47638E-1,1.8366413E-1,4.2208582E-1,2.9848602E-1,5.597529E-1,3.455497E-1,4.636643E-1,6.171741E-1,5.312819E-1,4.4410473E-1,6.1619717E-1,8.295021E-1,8.0787545E-1,1.1810752E0,9.020176E-1,6.918741E-1,1.2524656E0,8.63492E-1,9.6154565E-1,1.130349E0,1.3749639E0,1.739983E0],"split_indices":[0,0,0,0,0,0,0,0,7,7,7,0,7,0,0,7,7,0,0,0,0,0,6,7,7,0,6,7,7,11,0,11,0,11,0,7,7,11,11,11,6,7,6,6,6,0,0,6,11,6,7,6,6,0,7,7,11,6,0,0,0,0,0,0,0,0,0,0,0,0,0,0,0,0,0,0,0,0,0,0,0,0,0,0,0,0,0,0,0,0,0,0,0,0,0,0,0,0,0,0,0,0,0,0,0,0,0,0,0,0,0],"split_type":[0,0,0,0,0,0,0,0,0,0,0,0,0,0,0,0,0,0,0,0,0,0,0,0,0,0,0,0,0,0,0,0,0,0,0,0,0,0,0,0,0,0,0,0,0,0,0,0,0,0,0,0,0,0,0,0,0,0,0,0,0,0,0,0,0,0,0,0,0,0,0,0,0,0,0,0,0,0,0,0,0,0,0,0,0,0,0,0,0,0,0,0,0,0,0,0,0,0,0,0,0,0,0,0,0,0,0,0,0,0,0],"sum_hessian":[1.2013E4,8.762E3,3.251E3,5.473E3,3.289E3,2.263E3,9.88E2,3.457E3,2.016E3,1.775E3,1.514E3,1.434E3,8.29E2,7.24E2,2.64E2,2.262E3,1.195E3,1.599E3,4.17E2,1.254E3,5.21E2,1.409E3,1.05E2,7.07E2,7.27E2,7.47E2,8.2E1,4.48E2,2.76E2,2.37E2,2.7E1,1.95E3,3.12E2,7.09E2,4.86E2,9.21E2,6.78E2,1.72E2,2.45E2,5.74E2,6.8E2,3.58E2,1.63E2,5.01E2,9.08E2,1.02E2,3E0,5.54E2,1.53E2,5.32E2,1.95E2,3.35E2,4.12E2,3E0,7.9E1,3.84E2,6.4E1,2.64E2,1.2E1,1.19E2,1.18E2,1.91E3,4E1,7E2,9E0,2.65E2,2.21E2,6.5E2,2.71E2,5.82E2,9.6E1,9.4E1,7.8E1,1.46E2,9.9E1,2.73E2,3.01E2,3.52E2,3.28E2,1.39E2,2.19E2,1.54E2,9E0,2.55E2,2.46E2,4.87E2,4.21E2,7.2E1,3E1,5E1,5.04E2,9.3E1,6E1,4.2E1,4.9E2,1.24E2,7.1E1,1.9E2,1.45E2,3.67E2,4.5E1,6.3E1,1.6E1,2.57E2,1.27E2,4E1,2.4E1,6.7E1,1.97E2,4.8E1,7.1E1],"tree_param":{"num_deleted":"0","num_feature":"12","num_nodes":"111","size_leaf_vector":"1"}},{"base_weights":[-6.656709E-3,-4.1753283E0,1.3182322E1,-6.7990136E0,-2.879381E-1,8.77764E0,2.142082E1,-7.9787383E0,-5.4539776E0,-1.7629397E0,2.2734852E0,6.7421527E0,1.1381206E1,1.7557468E1,2.72738E1,-8.249225E0,-6.872096E0,-5.9227796E0,-4.01276E0,-2.8460205E0,-7.2471964E-1,1.7602395E0,4.456431E0,5.2909317E0,7.926534E0,1.0865726E1,1.5786838E1,1.6745369E1,2.1757992E1,2.5796062E1,3.563582E1,-4.3386832E-1,-7.9971967E0,-3.5682032E-1,-3.244799E-1,-6.308207E0,-5.140846E0,-4.365918E0,-3.3696663E0,-3.6172216E0,-1.5624365E0,-1.1885191E0,1.7742482E0,1.0580899E0,3.5453305E0,2.8750188E0,5.4581485E0,4.5810957E0,9.295469E0,6.953853E0,9.782286E0,1.0447614E1,1.5883166E1,1.9294548E-1,1.6180971E1,1.5158147E1,1.882368E1,2.3430847E1,9.182755E-1,2.82765E1,2.2813337E1,1.6866907E0,2.620196E0,-4.0246746E-1,-2.654132E-1,-3.2419106E-1,-2.8661874E-1,-2.7678424E-1,-2.381858E-1,-2.2067967E-1,-1.645392E-1,-1.4442945E-1,-2.0349386E-1,-1.9303861E-1,-1.0614214E-1,-1.06209435E-1,-4.8738297E-2,-2.7978381E-2,-8.8646874E-2,5.9569117E-2,2.181052E-1,4.062077E-2,1.9026971E-1,1.4388053E-1,2.103649E-1,1.3199626E-1,3.0786756E-1,2.4789707E-1,3.3429483E-1,2.2150695E-1,5.7875794E-1,4.0414295E-1,5.81444E-1,4.437831E-1,3.0179638E-1,7.759242E-1,4.6121278E-1,5.1208436E-1,8.974499E-1,5.553277E-1,1.0212668E0,7.438188E-1,1.2482404E0,9.651664E-1,7.2912914E-1,8.381038E-1,9.926281E-1,1.5276903E0,1.0787381E0,1.4401755E0,6.606793E-1,6.612833E-1,1.1716194E0],"categories":[],"categories_nodes":[],"categories_segments":[],"categories_sizes":[],"default_left":[0,0,0,0,0,0,0,0,0,0,0,0,0,0,0,0,0,0,0,0,0,0,0,0,0,0,0,0,0,0,0,0,0,0,0,0,0,0,0,0,0,0,0,0,0,0,0,0,0,0,0,0,0,0,0,0,0,0,0,0,0,0,0,0,0,0,0,0,0,0,0,0,0,0,0,0,0,0,0,0,0,0,0,0,0,0,0,0,0,0,0,0,0,0,0,0,0,0,0,0,0,0,0,0,0,0,0,0,0,0,0,0,0],"id":16,"left_children":[1,3,5,7,9,11,13,15,17,19,21,23,25,27,29,31,33,35,37,39,41,43,45,47,49,51,53,55,57,59,61,-1,63,-1,-1,65,67,69,71,73,75,77,79,81,83,85,87,89,91,93,95,97,99,-1,101,103,105,107,-1,109,111,-1,-1,-1,-1,-1,-1,-1,-1,-1,-1,-1,-1,-1,-1,-1,-1,-1,-1,-1,-1,-1,-1,-1,-1,-1,-1,-1,-1,-1,-1,-1,-1,-1,-1,-1,-1,-1,-1,-1,-1,-1,-1,-1,-1,-1,-1,-1,-1,-1,-1,-1,-1],"loss_changes":[6.595463E5,9.296458E4,1.0435753E5,8.5916875E3,1.388476E4,9.881078E3,2.2201125E4,8.1046875E2,1.6964219E3,2.6202158E3,1.4968359E3,1.774832E3,1.6975078E3,1.7062812E3,3.9864375E3,1.8128125E2,1.1816406E1,5.459219E2,1.27916016E2,1.1238262E3,1.3836606E3,1.3612021E3,3.8826025E2,1.3161611E3,9.7891016E2,1.3864688E3,3.3246094E2,1.4069219E3,1.088125E2,1.8777969E3,5.0109375E1,0E0,1.6411719E2,0E0,0E0,9.236719E1,6.87793E1,6.0810547E0,6.470996E1,2.509414E2,1.3988318E2,3.6878406E2,2.7686884E2,5.2538824E2,1.2359009E2,6.1682312E1,6.2041504E1,3.794873E2,1.0690137E2,6.2383203E2,4.8744336E2,8.758594E2,9.6643555E2,0E0,5.5682227E2,4.2471094E2,1.2964062E2,1.340586E2,0E0,1.0641719E3,6.397344E2,0E0,0E0,0E0,0E0,0E0,0E0,0E0,0E0,0E0,0E0,0E0,0E0,0E0,0E0,0E0,0E0,0E0,0E0,0E0,0E0,0E0,0E0,0E0,0E0,0E0,0E0,0E0,0E0,0E0,0E0,0E0,0E0,0E0,0E0,0E0,0E0,0E0,0E0,0E0,0E0,0E0,0E0,0E0,0E0,0E0,0E0,0E0,0E0,0E0,0E0,0E0,0E0],"parents":[2147483647,0,0,1,1,2,2,3,3,4,4,5,5,6,6,7,7,8,8,9,9,10,10,11,11,12,12,13,13,14,14,15,15,16,16,17,17,18,18,19,19,20,20,21,21,22,22,23,23,24,24,25,25,26,26,27,27,28,28,29,29,30,30,32,32,35,35,36,36,37,37,38,38,39,39,40,40,41,41,42,42,43,43,44,44,45,45,46,46,47,47,48,48,49,49,50,50,51,51,52,52,54,54,55,55,56,56,57,57,59,59,60,60],"right_children":[2,4,6,8,10,12,14,16,18,20,22,24,26,28,30,32,34,36,38,40,42,44,46,48,50,52,54,56,58,60,62,-1,64,-1,-1,66,68,70,72,74,76,78,80,82,84,86,88,90,92,94,96,98,100,-1,102,104,106,108,-1,110,112,-1,-1,-1,-1,-1,-1,-1,-1,-1,-1,-1,-1,-1,-1,-1,-1,-1,-1,-1,-1,-1,-1,-1,-1,-1,-1,-1,-1,-1,-1,-1,-1,-1,-1,-1,-1,-1,-1,-1,-1,-1,-1,-1,-1,-1,-1,-1,-1,-1,-1,-1,-1],"split_conditions":[2.3E1,1E1,3.8E1,5E0,1.7E1,3E1,4.8E1,3E0,6E0,1.3E1,9E0,2.6E1,1.2E1,1E1,6E1,2E0,4E0,8E0,8E0,1E0,1E1,2.1E1,1.9E1,1.1E1,3E0,3E1,1.4E1,4.3E1,2E0,2E0,7E1,-4.3386832E-1,3E0,-3.5682032E-1,-3.244799E-1,3E0,2E0,9E0,2E0,1.2E1,1E1,7E0,1.4E1,1.9E1,2E0,1.6E1,1.4E1,2.4E1,2.5E1,1.2E1,1.3E1,2.5E1,2E0,1.9294548E-1,1.7E1,1.9E1,2.6E1,4E1,9.182755E-1,2.4E1,9E0,1.6866907E0,2.620196E0,-4.0246746E-1,-2.654132E-1,-3.2419106E-1,-2.8661874E-1,-2.7678424E-1,-2.381858E-1,-2.2067967E-1,-1.645392E-1,-1.4442945E-1,-2.0349386E-1,-1.9303861E-1,-1.0614214E-1,-1.06209435E-1,-4.8738297E-2,-2.7978381E-2,-8.8646874E-2,5.9569117E-2,2.181052E-1,4.062077E-2,1.9026971E-1,1.4388053E-1,2.103649E-1,1.3199626E-1,3.0786756E-1,2.4789707E-1,3.3429483E-1,2.2150695E-1,5.7875794E-1,4.0414295E-1,5.81444E-1,4.437831E-1,3.0179638E-1,7.759242E-1,4.6121278E-1,5.1208436E-1,8.974499E-1,5.553277E-1,1.0212668E0,7.438188E-1,1.2482404E0,9.651664E-1,7.2912914E-1,8.381038E-1,9.926281E-1,1.5276903E0,1.0787381E0,1.4401755E0,6.606793E-1,6.612833E-1,1.1716194E0],"split_indices":[0,0,0,0,0,0,0,7,7,0,7,0,7,7,0,0,7,0,7,7,7,0,0,7,7,6,6,0,11,11,0,0,11,0,0,7,11,0,11,5,7,6,7,5,11,7,7,5,0,6,6,5,11,0,7,6,6,0,0,5,5,0,0,0,0,0,0,0,0,0,0,0,0,0,0,0,0,0,0,0,0,0,0,0,0,0,0,0,0,0,0,0,0,0,0,0,0,0,0,0,0,0,0,0,0,0,0,0,0,0,0,0,0],"split_type":[0,0,0,0,0,0,0,0,0,0,0,0,0,0,0,0,0,0,0,0,0,0,0,0,0,0,0,0,0,0,0,0,0,0,0,0,0,0,0,0,0,0,0,0,0,0,0,0,0,0,0,0,0,0,0,0,0,0,0,0,0,0,0,0,0,0,0,0,0,0,0,0,0,0,0,0,0,0,0,0,0,0,0,0,0,0,0,0,0,0,0,0,0,0,0,0,0,0,0,0,0,0,0,0,0,0,0,0,0,0,0,0,0],"sum_hessian":[1.1994E4,9.114E3,2.88E3,5.441E3,3.673E3,1.878E3,1.002E3,2.896E3,2.545E3,2.331E3,1.342E3,1.056E3,8.22E2,6.06E2,3.96E2,2.322E3,5.74E2,1.918E3,6.27E2,1.14E3,1.191E3,1.088E3,2.54E2,4.77E2,5.79E2,7.39E2,8.3E1,5.12E2,9.4E1,3.4E2,5.6E1,8.48E2,1.474E3,3.29E2,2.45E2,1.28E3,6.38E2,4.01E2,2.26E2,7.11E2,4.29E2,1.005E3,1.86E2,7.82E2,3.06E2,1E2,1.54E2,4.07E2,7E1,3.83E2,1.96E2,6.85E2,5.4E1,3E0,8E1,2.95E2,2.17E2,5.9E1,3.5E1,1.81E2,1.59E2,5.3E1,3E0,1.444E3,3E1,