{"learner":{"attributes":{"scikit_learn":"{\"_estimator_type\": \"regressor\"}"},"feature_names":["balls","innings","balls_pp","balls_middle","balls_death","wides","noballs","dot_balls"],"feature_types":["int","int","int","int","int","int","int","int"],"gradient_booster":{"model":{"cats":{"enc":[],"feature_segments":[],"sorted_idx":[]},"gbtree_model_param":{"num_parallel_tree":"1","num_trees":"800"},"iteration_indptr":[0,1,2,3,4,5,6,7,8,9,10,11,12,13,14,15,16,17,18,19,20,21,22,23,24,25,26,27,28,29,30,31,32,33,34,35,36,37,38,39,40,41,42,43,44,45,46,47,48,49,50,51,52,53,54,55,56,57,58,59,60,61,62,63,64,65,66,67,68,69,70,71,72,73,74,75,76,77,78,79,80,81,82,83,84,85,86,87,88,89,90,91,92,93,94,95,96,97,98,99,100,101,102,103,104,105,106,107,108,109,110,111,112,113,114,115,116,117,118,119,120,121,122,123,124,125,126,127,128,129,130,131,132,133,134,135,136,137,138,139,140,141,142,143,144,145,146,147,148,149,150,151,152,153,154,155,156,157,158,159,160,161,162,163,164,165,166,167,168,169,170,171,172,173,174,175,176,177,178,179,180,181,182,183,184,185,186,187,188,189,190,191,192,193,194,195,196,197,198,199,200,201,202,203,204,205,206,207,208,209,210,211,212,213,214,215,216,217,218,219,220,221,222,223,224,225,226,227,228,229,230,231,232,233,234,235,236,237,238,239,240,241,242,243,244,245,246,247,248,249,250,251,252,253,254,255,256,257,258,259,260,261,262,263,264,265,266,267,268,269,270,271,272,273,274,275,276,277,278,279,280,281,282,283,284,285,286,287,288,289,290,291,292,293,294,295,296,297,298,299,300,301,302,303,304,305,306,307,308,309,310,311,312,313,314,315,316,317,318,319,320,321,322,323,324,325,326,327,328,329,330,331,332,333,334,335,336,337,338,339,340,341,342,343,344,345,346,347,348,349,350,351,352,353,354,355,356,357,358,359,360,361,362,363,364,365,366,367,368,369,370,371,372,373,374,375,376,377,378,379,380,381,382,383,384,385,386,387,388,389,390,391,392,393,394,395,396,397,398,399,400,401,402,403,404,405,406,407,408,409,410,411,412,413,414,415,416,417,418,419,420,421,422,423,424,425,426,427,428,429,430,431,432,433,434,435,436,437,438,439,440,441,442,443,444,445,446,447,448,449,450,451,452,453,454,455,456,457,458,459,460,461,462,463,464,465,466,467,468,469,470,471,472,473,474,475,476,477,478,479,480,481,482,483,484,485,486,487,488,489,490,491,492,493,494,495,496,497,498,499,500,501,502,503,504,505,506,507,508,509,510,511,512,513,514,515,516,517,518,519,520,521,522,523,524,525,526,527,528,529,530,531,532,533,534,535,536,537,538,539,540,541,542,543,544,545,546,547,548,549,550,551,552,553,554,555,556,557,558,559,560,561,562,563,564,565,566,567,568,569,570,571,572,573,574,575,576,577,578,579,580,581,582,583,584,585,586,587,588,589,590,591,592,593,594,595,596,597,598,599,600,601,602,603,604,605,606,607,608,609,610,611,612,613,614,615,616,617,618,619,620,621,622,623,624,625,626,627,628,629,630,631,632,633,634,635,636,637,638,639,640,641,642,643,644,645,646,647,648,649,650,651,652,653,654,655,656,657,658,659,660,661,662,663,664,665,666,667,668,669,670,671,672,673,674,675,676,677,678,679,680,681,682,683,684,685,686,687,688,689,690,691,692,693,694,695,696,697,698,699,700,701,702,703,704,705,706,707,708,709,710,711,712,713,714,715,716,717,718,719,720,721,722,723,724,725,726,727,728,729,730,731,732,733,734,735,736,737,738,739,740,741,742,743,744,745,746,747,748,749,750,751,752,753,754,755,756,757,758,759,760,761,762,763,764,765,766,767,768,769,770,771,772,773,774,775,776,777,778,779,780,781,782,783,784,785,786,787,788,789,790,791,792,793,794,795,796,797,798,799,800],"tree_info":[0,0,0,0,0,0,0,0,0,0,0,0,0,0,0,0,0,0,0,0,0,0,0,0,0,0,0,0,0,0,0,0,0,0,0,0,0,0,0,0,0,0,0,0,0,0,0,0,0,0,0,0,0,0,0,0,0,0,0,0,0,0,0,0,0,0,0,0,0,0,0,0,0,0,0,0,0,0,0,0,0,0,0,0,0,0,0,0,0,0,0,0,0,0,0,0,0,0,0,0,0,0,0,0,0,0,0,0,0,0,0,0,0,0,0,0,0,0,0,0,0,0,0,0,0,0,0,0,0,0,0,0,0,0,0,0,0,0,0,0,0,0,0,0,0,0,0,0,0,0,0,0,0,0,0,0,0,0,0,0,0,0,0,0,0,0,0,0,0,0,0,0,0,0,0,0,0,0,0,0,0,0,0,0,0,0,0,0,0,0,0,0,0,0,0,0,0,0,0,0,0,0,0,0,0,0,0,0,0,0,0,0,0,0,0,0,0,0,0,0,0,0,0,0,0,0,0,0,0,0,0,0,0,0,0,0,0,0,0,0,0,0,0,0,0,0,0,0,0,0,0,0,0,0,0,0,0,0,0,0,0,0,0,0,0,0,0,0,0,0,0,0,0,0,0,0,0,0,0,0,0,0,0,0,0,0,0,0,0,0,0,0,0,0,0,0,0,0,0,0,0,0,0,0,0,0,0,0,0,0,0,0,0,0,0,0,0,0,0,0,0,0,0,0,0,0,0,0,0,0,0,0,0,0,0,0,0,0,0,0,0,0,0,0,0,0,0,0,0,0,0,0,0,0,0,0,0,0,0,0,0,0,0,0,0,0,0,0,0,0,0,0,0,0,0,0,0,0,0,0,0,0,0,0,0,0,0,0,0,0,0,0,0,0,0,0,0,0,0,0,0,0,0,0,0,0,0,0,0,0,0,0,0,0,0,0,0,0,0,0,0,0,0,0,0,0,0,0,0,0,0,0,0,0,0,0,0,0,0,0,0,0,0,0,0,0,0,0,0,0,0,0,0,0,0,0,0,0,0,0,0,0,0,0,0,0,0,0,0,0,0,0,0,0,0,0,0,0,0,0,0,0,0,0,0,0,0,0,0,0,0,0,0,0,0,0,0,0,0,0,0,0,0,0,0,0,0,0,0,0,0,0,0,0,0,0,0,0,0,0,0,0,0,0,0,0,0,0,0,0,0,0,0,0,0,0,0,0,0,0,0,0,0,0,0,0,0,0,0,0,0,0,0,0,0,0,0,0,0,0,0,0,0,0,0,0,0,0,0,0,0,0,0,0,0,0,0,0,0,0,0,0,0,0,0,0,0,0,0,0,0,0,0,0,0,0,0,0,0,0,0,0,0,0,0,0,0,0,0,0,0,0,0,0,0,0,0,0,0,0,0,0,0,0,0,0,0,0,0,0,0,0,0,0,0,0,0,0,0,0,0,0,0,0,0,0,0,0,0,0,0,0,0,0,0,0,0,0,0,0,0,0,0,0,0,0,0,0,0,0,0,0,0,0,0,0,0,0,0,0,0,0,0,0,0,0,0,0,0,0,0,0,0,0,0,0,0,0,0,0,0,0,0,0,0,0,0,0,0,0,0,0,0,0,0,0,0,0,0,0,0,0,0,0,0,0,0,0,0,0,0,0,0,0,0,0,0,0,0,0,0,0,0,0,0,0,0,0,0,0,0,0,0,0,0,0,0,0,0,0,0,0,0,0,0,0,0,0,0,0,0,0,0,0,0,0,0,0,0,0,0,0,0,0,0,0,0,0,0,0,0,0,0,0,0,0,0,0,0,0],"trees":[{"base_weights":[3.2628726E-2,-1.1506078E1,3.4827516E0,-1.6469778E1,-7.825925E0,6.016626E0,-1.9141972E0,-1.4690498E1,-1.8534685E1,-5.9163704E0,-1.1870062E1,1.2785993E0,8.497425E0,-3.8589373E-2,-6.406235E0,-1.1170288E0,-1.41709385E1,-8.690343E-1,-9.959551E-1,-4.3376074E0,-7.353161E0,-1.0823889E1,-7.825951E-1,4.611164E0,-2.1675193E0,1.2113737E1,6.457829E0,-8.717352E0,9.831668E-1,-5.446555E0,-1.10335865E1,-6.453969E-1,-1.4931292E1,-2.31713E0,-5.589117E0,-4.3508353E0,-8.184682E0,-4.7378156E-1,-1.30862875E1,6.7642474E0,3.3566117E0,-8.958282E-1,-3.9906318E0,1.4720671E1,8.76522E0,8.633007E0,2.832619E0,-6.8528523E0,-1.0339975E1,2.5870423E0,-2.8684206E0,-7.5088304E-1,-5.0318823E0,-9.960206E0,-6.3770777E-1,-6.500581E-1,-7.752771E-1,1.712146E-1,-1.3447039E-1,-5.715004E-1,-2.6490608E-1,-2.613351E-1,-7.1623355E-2,-3.4784842E-1,-4.412574E-1,-5.9482163E-1,-7.592123E-1,-4.8704438E-2,3.7018055E-1,2.831235E-1,7.98018E-2,3.711959E-2,-1.1742958E-1,-9.603309E-2,-2.3837364E-1,8.237459E-1,6.155024E-1,5.141921E-1,3.391213E-1,4.9121603E-1,3.2247952E-1,2.0672739E-1,-5.769073E-3,-2.7546027E-1,-4.6477008E-1,-5.4340506E-1,-3.4874043E-1,1.7424251E-1,3.908704E-3,-6.605903E-2,-2.123128E-1,-2.0768845E-1,-3.7561038E-1,-5.155821E-1,-3.0991152E-1],"categories":[],"categories_nodes":[],"categories_segments":[],"categories_sizes":[],"default_left":[0,0,0,0,0,0,0,0,0,0,0,0,0,0,0,0,0,0,0,0,0,0,0,0,0,0,0,0,0,0,0,0,0,0,0,0,0,0,0,0,0,0,0,0,0,0,0,0,0,0,0,0,0,0,0,0,0,0,0,0,0,0,0,0,0,0,0,0,0,0,0,0,0,0,0,0,0,0,0,0,0,0,0,0,0,0,0,0,0,0,0,0,0,0,0],"id":0,"left_children":[1,3,5,7,9,11,13,15,17,19,21,23,25,27,29,-1,31,-1,-1,33,35,37,-1,39,41,43,45,47,49,51,53,-1,55,57,59,61,63,-1,65,67,69,71,73,75,77,79,81,83,85,87,89,-1,91,93,-1,-1,-1,-1,-1,-1,-1,-1,-1,-1,-1,-1,-1,-1,-1,-1,-1,-1,-1,-1,-1,-1,-1,-1,-1,-1,-1,-1,-1,-1,-1,-1,-1,-1,-1,-1,-1,-1,-1,-1,-1],"loss_changes":[3.7409438E5,3.938303E4,9.893785E4,3.1078438E3,9.53657E3,5.785453E4,1.947905E4,1.6667656E3,3.2798438E2,1.8894004E3,1.40525E3,1.9453105E4,2.3753031E4,1.448046E4,2.9640723E3,0E0,2.58625E2,0E0,0E0,1.0136797E3,1.0678398E3,8.3683984E2,0E0,2.3029902E3,1.9276824E3,1.0031953E4,1.6282719E4,4.495078E2,9.032699E3,2.1708184E3,8.719824E1,0E0,1.1651172E2,3.4478156E2,3.6436035E2,2.4301086E2,2.098789E2,0E0,1.0643555E2,1.5706553E3,2.207525E3,1.1726769E3,5.407915E2,2.5586094E3,1.4719453E3,3.2972969E3,2.9826704E3,2.2118921E2,8.414746E1,2.324288E3,9.110818E2,0E0,1.1536328E3,3.656494E1,0E0,0E0,0E0,0E0,0E0,0E0,0E0,0E0,0E0,0E0,0E0,0E0,0E0,0E0,0E0,0E0,0E0,0E0,0E0,0E0,0E0,0E0,0E0,0E0,0E0,0E0,0E0,0E0,0E0,0E0,0E0,0E0,0E0,0E0,0E0,0E0,0E0,0E0,0E0,0E0,0E0],"parents":[2147483647,0,0,1,1,2,2,3,3,4,4,5,5,6,6,7,7,8,8,9,9,10,10,11,11,12,12,13,13,14,14,16,16,19,19,20,20,21,21,23,23,24,24,25,25,26,26,27,27,28,28,29,29,30,30,32,32,33,33,34,34,35,35,36,36,38,38,39,39,40,40,41,41,42,42,43,43,44,44,45,45,46,46,47,47,48,48,49,49,50,50,52,52,53,53],"right_children":[2,4,6,8,10,12,14,16,18,20,22,24,26,28,30,-1,32,-1,-1,34,36,38,-1,40,42,44,46,48,50,52,54,-1,56,58,60,62,64,-1,66,68,70,72,74,76,78,80,82,84,86,88,90,-1,92,94,-1,-1,-1,-1,-1,-1,-1,-1,-1,-1,-1,-1,-1,-1,-1,-1,-1,-1,-1,-1,-1,-1,-1,-1,-1,-1,-1,-1,-1,-1,-1,-1,-1,-1,-1,-1,-1,-1,-1,-1,-1],"split_conditions":[1.3E1,8E0,1E1,2E0,5E0,2E1,1.3E1,4E0,3E0,1.1E1,7E0,6E0,7E0,2.1E1,1.6E1,-1.1170288E0,1E0,-8.690343E-1,-9.959551E-1,3E0,2E0,1E1,-7.825951E-1,1.2E1,8E0,1.7E1,1.7E1,1.1E1,1.8E1,2.2E1,9E0,-6.453969E-1,1E0,1E0,1.2E1,1.3E1,3E0,-4.7378156E-1,6E0,1.6E1,4E0,1E1,1E0,6E0,2.2E1,9E0,9E0,9E0,1.9E1,1.2E1,1.1E1,-7.5088304E-1,1.7E1,7E0,-6.3770777E-1,-6.500581E-1,-7.752771E-1,1.712146E-1,-1.3447039E-1,-5.715004E-1,-2.6490608E-1,-2.613351E-1,-7.1623355E-2,-3.4784842E-1,-4.412574E-1,-5.9482163E-1,-7.592123E-1,-4.8704438E-2,3.7018055E-1,2.831235E-1,7.98018E-2,3.711959E-2,-1.1742958E-1,-9.603309E-2,-2.3837364E-1,8.237459E-1,6.155024E-1,5.141921E-1,3.391213E-1,4.9121603E-1,3.2247952E-1,2.0672739E-1,-5.769073E-3,-2.7546027E-1,-4.6477008E-1,-5.4340506E-1,-3.4874043E-1,1.7424251E-1,3.908704E-3,-6.605903E-2,-2.123128E-1,-2.0768845E-1,-3.7561038E-1,-5.155821E-1,-3.0991152E-1],"split_indices":[0,0,7,7,7,0,7,0,7,3,7,7,7,0,7,0,7,0,0,7,7,3,0,3,7,3,3,7,3,0,3,0,3,7,0,3,7,0,7,0,7,3,3,7,3,7,7,3,0,7,7,0,3,3,0,0,0,0,0,0,0,0,0,0,0,0,0,0,0,0,0,0,0,0,0,0,0,0,0,0,0,0,0,0,0,0,0,0,0,0,0,0,0,0,0],"split_type":[0,0,0,0,0,0,0,0,0,0,0,0,0,0,0,0,0,0,0,0,0,0,0,0,0,0,0,0,0,0,0,0,0,0,0,0,0,0,0,0,0,0,0,0,0,0,0,0,0,0,0,0,0,0,0,0,0,0,0,0,0,0,0,0,0,0,0,0,0,0,0,0,0,0,0,0,0,0,0,0,0,0,0,0,0,0,0,0,0,0,0,0,0,0,0],"sum_hessian":[9.395E3,2.162E3,7.233E3,9.19E2,1.243E3,4.922E3,2.311E3,4.98E2,4.21E2,8.46E2,3.97E2,1.692E3,3.23E3,1.631E3,6.8E2,2.9E1,4.69E2,2.37E2,1.84E2,4.05E2,4.41E2,3.14E2,8.3E1,8.6E2,8.32E2,1.163E3,2.067E3,1.71E2,1.46E3,5.65E2,1.15E2,1.83E2,2.86E2,1.56E2,2.49E2,9.7E1,3.44E2,2E2,1.14E2,3.15E2,5.45E2,4.91E2,3.41E2,6.52E2,5.11E2,1.291E3,7.76E2,8.2E1,8.9E1,1.031E3,4.29E2,2.2E1,5.43E2,7.5E1,4E1,7.1E1,2.15E2,9E0,1.47E2,1E1,2.39E2,7.4E1,2.3E1,1.22E2,2.22E2,7.7E1,3.7E1,2.4E1,2.91E2,2.35E2,3.1E2,2.31E2,2.6E2,9.4E1,2.47E2,3.74E2,2.78E2,2.87E2,2.24E2,8.33E2,4.58E2,5.38E2,2.38E2,5.5E1,2.7E1,7.5E1,1.4E1,7.59E2,2.72E2,2.03E2,2.26E2,4.03E2,1.4E2,6.7E1,8E0],"tree_param":{"num_deleted":"0","num_feature":"8","num_nodes":"95","size_leaf_vector":"1"}},{"base_weights":[-3.1220106E-2,-3.854212E0,4.834163E0,-8.482263E0,-1.2686552E0,6.6155224E0,-1.3192508E0,-1.3502757E1,-2.648632E0,-3.1150398E0,1.5421777E0,2.6101637E0,8.605867E0,7.6356566E-1,-4.585373E0,-1.6097662E1,-1.0181719E1,-5.487171E0,-1.0897329E-1,-8.726637E0,1.5503281E-1,3.7905533E0,-2.9830458E0,-9.08862E0,5.1481233E0,1.1153225E1,6.113512E0,-1.6512903E0,2.1338565E0,-3.7208815E0,-9.289069E0,-1.4782171E1,-9.0088034E-1,-1.4628384E1,-6.104863E0,-7.364999E0,-2.8331528E0,5.4589796E0,-2.1884468E0,-1.3266156E1,-7.799148E0,2.95517E0,-3.6090345E0,2.6651807E0,6.419056E0,-1.3301259E0,-6.621775E0,-1.414007E1,-5.50833E0,7.26065E0,1.5099311E0,9.669822E0,1.36931505E1,5.708849E0,9.070331E0,-6.972624E-1,-2.8466163E0,1.1371382E0,4.1179724E0,-3.9338202E0,6.058297E0,-1.0156843E1,-3.628825E0,-1.007089E0,-7.0849365E-1,-6.434857E-1,-8.776167E-1,-1.1785519E-1,-4.7219992E-1,-1.4964293E-1,-5.075609E-1,4.9017947E-2,-3.0073544E-1,2.4669018E-1,6.878583E-1,-2.237357E-2,-3.5844412E-1,-5.4912114E-1,-7.8560567E-1,-3.2766634E-1,-6.002399E-1,3.2054648E-2,2.8434417E-1,-9.801691E-2,-3.5741073E-1,-3.2369997E-2,2.4699484E-1,5.398007E-1,2.585331E-1,-1.7699839E-1,4.370384E-2,-2.518977E-1,-3.890477E-1,-7.9677045E-1,-4.3820867E-1,-3.9555895E-1,1.2635957E-1,2.067709E-1,4.474987E-1,1.9041897E-1,-2.684242E-3,3.6653683E-1,6.3012046E-1,8.5203266E-1,5.7347924E-1,2.4697028E-1,3.8666221E-1,5.208678E-1,2.5582406E-1,-9.791278E-2,1.2009618E-2,-1.6912445E-1,-3.0485556E-2,4.1824818E-2,4.059287E-1,1.7662291E-1,6.6162497E-1,-1.3977644E-1,-2.52686E-1,1.0880051E-1,4.213005E-1,-5.7963234E-1,-2.9209232E-1,-2.3572616E-1,-5.465355E-2],"categories":[],"categories_nodes":[],"categories_segments":[],"categories_sizes":[],"default_left":[0,0,0,0,0,0,0,0,0,0,0,0,0,0,0,0,0,0,0,0,0,0,0,0,0,0,0,0,0,0,0,0,0,0,0,0,0,0,0,0,0,0,0,0,0,0,0,0,0,0,0,0,0,0,0,0,0,0,0,0,0,0,0,0,0,0,0,0,0,0,0,0,0,0,0,0,0,0,0,0,0,0,0,0,0,0,0,0,0,0,0,0,0,0,0,0,0,0,0,0,0,0,0,0,0,0,0,0,0,0,0,0,0,0,0,0,0,0,0,0,0,0,0,0,0],"id":1,"left_children":[1,3,5,7,9,11,13,15,17,19,21,23,25,27,29,31,33,35,37,39,41,43,45,47,49,51,53,55,57,59,61,63,-1,65,67,69,71,73,75,77,79,81,83,85,87,89,91,93,95,97,99,101,103,105,107,109,111,113,115,117,119,121,123,-1,-1,-1,-1,-1,-1,-1,-1,-1,-1,-1,-1,-1,-1,-1,-1,-1,-1,-1,-1,-1,-1,-1,-1,-1,-1,-1,-1,-1,-1,-1,-1,-1,-1,-1,-1,-1,-1,-1,-1,-1,-1,-1,-1,-1,-1,-1,-1,-1,-1,-1,-1,-1,-1,-1,-1,-1,-1,-1,-1,-1,-1],"loss_changes":[1.7627528E5,6.349325E4,4.571792E4,5.566947E4,1.768153E4,2.5759125E4,6.377662E3,8.643484E3,6.350462E3,3.7729637E4,1.3756926E4,3.196466E4,1.3645484E4,1.8996123E3,1.4496377E3,1.1783438E3,8.0866055E3,2.0523906E3,5.4074863E3,3.0837695E3,1.3712541E4,2.6540059E3,2.6917153E3,3.3945576E3,6.7832656E3,3.8877656E3,1.257207E3,2.3521295E2,7.1912036E2,6.693657E2,2.3820361E2,8.467656E2,0E0,8.796953E2,2.943623E3,2.9297822E3,2.117021E3,4.8559204E2,2.9448696E3,5.3685547E2,3.2274453E3,4.7121157E3,3.2244307E3,4.7805024E3,1.4195039E3,1.5130854E3,2.1783057E2,6.228125E2,2.2211223E3,2.914246E3,1.1718127E3,4.551543E3,2.7149219E3,1.4649395E3,6.390713E2,1.3877888E2,1.0821777E2,5.0744235E2,6.043325E2,3.7340332E2,4.600995E1,2.2966064E2,1.9624275E1,0E0,0E0,0E0,0E0,0E0,0E0,0E0,0E0,0E0,0E0,0E0,0E0,0E0,0E0,0E0,0E0,0E0,0E0,0E0,0E0,0E0,0E0,0E0,0E0,0E0,0E0,0E0,0E0,0E0,0E0,0E0,0E0,0E0,0E0,0E0,0E0,0E0,0E0,0E0,0E0,0E0,0E0,0E0,0E0,0E0,0E0,0E0,0E0,0E0,0E0,0E0,0E0,0E0,0E0,0E0,0E0,0E0,0E0,0E0,0E0,0E0,0E0],"parents":[2147483647,0,0,1,1,2,2,3,3,4,4,5,5,6,6,7,7,8,8,9,9,10,10,11,11,12,12,13,13,14,14,15,15,16,16,17,17,18,18,19,19,20,20,21,21,22,22,23,23,24,24,25,25,26,26,27,27,28,28,29,29,30,30,31,31,33,33,34,34,35,35,36,36,37,37,38,38,39,39,40,40,41,41,42,42,43,43,44,44,45,45,46,46,47,47,48,48,49,49,50,50,51,51,52,52,53,53,54,54,55,55,56,56,57,57,58,58,59,59,60,60,61,61,62,62],"right_children":[2,4,6,8,10,12,14,16,18,20,22,24,26,28,30,32,34,36,38,40,42,44,46,48,50,52,54,56,58,60,62,64,-1,66,68,70,72,74,76,78,80,82,84,86,88,90,92,94,96,98,100,102,104,106,108,110,112,114,116,118,120,122,124,-1,-1,-1,-1,-1,-1,-1,-1,-1,-1,-1,-1,-1,-1,-1,-1,-1,-1,-1,-1,-1,-1,-1,-1,-1,-1,-1,-1,-1,-1,-1,-1,-1,-1,-1,-1,-1,-1,-1,-1,-1,-1,-1,-1,-1,-1,-1,-1,-1,-1,-1,-1,-1,-1,-1,-1,-1,-1,-1,-1,-1,-1],"split_conditions":[5E0,7E0,1.1E1,9E0,6E0,1E0,1.3E1,6E0,4E0,1.6E1,1E1,7E0,8E0,8E0,1.6E1,2E0,2E0,1.7E1,7E0,1.2E1,8E0,8E0,1.3E1,6E0,8E0,7E0,1.3E1,1.2E1,1.4E1,2.1E1,1.9E1,3E0,-9.0088034E-1,3E0,4E0,5E0,9E0,1E0,1.3E1,2E0,5E0,2.1E1,1.1E1,1.3E1,6E0,8E0,1.4E1,8E0,1.2E1,1.3E1,9E0,8E0,6E0,1.3E1,2E0,1E0,1.2E1,1.4E1,7E0,1.4E1,2.2E1,7E0,2E1,-1.007089E0,-7.0849365E-1,-6.434857E-1,-8.776167E-1,-1.1785519E-1,-4.7219992E-1,-1.4964293E-1,-5.075609E-1,4.9017947E-2,-3.0073544E-1,2.4669018E-1,6.878583E-1,-2.237357E-2,-3.5844412E-1,-5.4912114E-1,-7.8560567E-1,-3.2766634E-1,-6.002399E-1,3.2054648E-2,2.8434417E-1,-9.801691E-2,-3.5741073E-1,-3.2369997E-2,2.4699484E-1,5.398007E-1,2.585331E-1,-1.7699839E-1,4.370384E-2,-2.518977E-1,-3.890477E-1,-7.9677045E-1,-4.3820867E-1,-3.9555895E-1,1.2635957E-1,2.067709E-1,4.474987E-1,1.9041897E-1,-2.684242E-3,3.6653683E-1,6.3012046E-1,8.5203266E-1,5.7347924E-1,2.4697028E-1,3.8666221E-1,5.208678E-1,2.5582406E-1,-9.791278E-2,1.2009618E-2,-1.6912445E-1,-3.0485556E-2,4.1824818E-2,4.059287E-1,1.7662291E-1,6.6162497E-1,-1.3977644E-1,-2.52686E-1,1.0880051E-1,4.213005E-1,-5.7963234E-1,-2.9209232E-1,-2.3572616E-1,-5.465355E-2],"split_indices":[4,3,7,2,2,2,7,2,3,3,7,3,7,2,7,7,3,2,7,3,7,2,7,3,7,3,4,7,2,2,2,3,0,7,7,7,7,4,7,7,7,3,7,3,7,2,7,4,4,3,7,4,7,2,1,2,4,4,3,7,2,4,2,0,0,0,0,0,0,0,0,0,0,0,0,0,0,0,0,0,0,0,0,0,0,0,0,0,0,0,0,0,0,0,0,0,0,0,0,0,0,0,0,0,0,0,0,0,0,0,0,0,0,0,0,0,0,0,0,0,0,0,0,0,0],"split_type":[0,0,0,0,0,0,0,0,0,0,0,0,0,0,0,0,0,0,0,0,0,0,0,0,0,0,0,0,0,0,0,0,0,0,0,0,0,0,0,0,0,0,0,0,0,0,0,0,0,0,0,0,0,0,0,0,0,0,0,0,0,0,0,0,0,0,0,0,0,0,0,0,0,0,0,0,0,0,0,0,0,0,0,0,0,0,0,0,0,0,0,0,0,0,0,0,0,0,0,0,0,0,0,0,0,0,0,0,0,0,0,0,0,0,0,0,0,0,0,0,0,0,0,0,0],"sum_hessian":[9.475E3,5.306E3,4.169E3,1.901E3,3.405E3,3.233E3,9.36E2,1.021E3,8.8E2,2.055E3,1.35E3,1.074E3,2.159E3,5.72E2,3.64E2,5.71E2,4.5E2,4.15E2,4.65E2,7.56E2,1.299E3,9.02E2,4.48E2,1.91E2,8.83E2,1.066E3,1.093E3,2.07E2,3.65E2,3.09E2,5.5E1,3.44E2,2.27E2,2.14E2,2.36E2,2.42E2,1.73E2,1.26E2,3.39E2,1.26E2,6.3E2,7.45E2,5.54E2,6.33E2,2.69E2,3.09E2,1.39E2,7.8E1,1.13E2,5.58E2,3.25E2,6.76E2,3.9E2,9.64E2,1.29E2,1.16E2,9.1E1,2.44E2,1.21E2,3.03E2,6E0,4.7E1,8E0,3.2E1,3.12E2,1.37E2,7.7E1,1.12E2,1.24E2,9.5E1,1.47E2,7.9E1,9.4E1,1.2E2,6E0,2.52E2,8.7E1,6.8E1,5.8E1,4.88E2,1.42E2,4.04E2,3.41E2,3.79E2,1.75E2,2.58E2,3.75E2,5.8E1,2.11E2,1.54E2,1.55E2,6.1E1,7.8E1,5.7E1,2.1E1,8.7E1,2.6E1,1.97E2,3.61E2,1.31E2,1.94E2,3.78E2,2.98E2,1.53E2,2.37E2,7.01E2,2.63E2,9.5E1,3.4E1,4.9E1,6.7E1,7.3E1,1.8E1,2.35E2,9E0,1.15E2,6E0,1.52E2,1.51E2,3E0,3E0,3.4E1,1.3E1,5E0,3E0],"tree_param":{"num_deleted":"0","num_feature":"8","num_nodes":"125","size_leaf_vector":"1"}},{"base_weights":[2.5354004E-3,-1.0111214E1,3.156118E0,-1.4739355E1,-6.7676134E0,5.491122E0,-1.816821E0,-1.3055586E1,-1.6644201E1,-4.87467E0,-1.0667008E1,1.2566313E0,7.740176E0,-2.5424764E-1,-5.7722197E0,-1.0427468E0,-1.26203575E1,-1.5633634E1,-8.965395E-1,-6.2027364E0,-2.5999155E0,-9.622794E0,-7.0212144E-1,4.341927E0,-1.8630946E0,1.0134081E1,4.8251796E0,-8.31315E0,7.982924E-1,-4.868685E0,-1.0107655E1,-1.1513835E1,-1.3291855E1,-7.978336E-1,-5.41617E-1,-3.2094889E0,-6.9303365E0,8.2609516E-1,-4.332607E0,-8.324857E0,-1.1680508E1,7.2687063E0,2.7381184E0,-5.34348E-1,-3.8176296E0,1.2537767E1,6.8164864E0,6.6248507E0,1.6414505E0,-9.534647E0,-6.5516953E0,2.2157147E0,-2.6999164E0,-6.982887E-1,-4.5094337E0,-1.0970929E1,-6.521161E0,-5.8968395E-1,-4.5550853E-1,-6.6909313E-1,-2.73352E-1,-1.852186E-1,-3.2214586E-2,-3.561239E-1,-6.727045E-2,4.0099573E-1,2.7472341E-2,-2.4101673E-1,-1.0666368E-1,-4.3400916E-1,-1.2182885E-1,-5.2907825E-1,-6.752264E-1,4.4620976E-1,2.4331923E-1,7.7158265E-2,2.695767E-1,-9.335047E-2,7.2214976E-2,-2.418071E-1,-3.2194655E-2,7.6030195E-1,5.5375445E-1,5.131426E-1,2.944261E-1,3.9310524E-1,2.7507448E-1,1.5359397E-1,-9.085449E-3,-5.077781E-1,-2.770249E-1,-1.9069666E-1,-4.3285757E-1,1.5088996E-1,-1.9290068E-4,-6.447115E-2,-1.9524942E-1,-3.4158874E-1,-1.619365E-1,-5.8037907E-1,-2.9857495E-1,-1.860995E-1,-3.8440612E-1],"categories":[],"categories_nodes":[],"categories_segments":[],"categories_sizes":[],"default_left":[0,0,0,0,0,0,0,0,0,0,0,0,0,0,0,0,0,0,0,0,0,0,0,0,0,0,0,0,0,0,0,0,0,0,0,0,0,0,0,0,0,0,0,0,0,0,0,0,0,0,0,0,0,0,0,0,0,0,0,0,0,0,0,0,0,0,0,0,0,0,0,0,0,0,0,0,0,0,0,0,0,0,0,0,0,0,0,0,0,0,0,0,0,0,0,0,0,0,0,0,0,0,0],"id":2,"left_children":[1,3,5,7,9,11,13,15,17,19,21,23,25,27,29,-1,31,33,-1,35,37,39,-1,41,43,45,47,49,51,53,55,57,59,-1,-1,61,63,65,67,69,71,73,75,77,79,81,83,85,87,89,91,93,95,-1,97,99,101,-1,-1,-1,-1,-1,-1,-1,-1,-1,-1,-1,-1,-1,-1,-1,-1,-1,-1,-1,-1,-1,-1,-1,-1,-1,-1,-1,-1,-1,-1,-1,-1,-1,-1,-1,-1,-1,-1,-1,-1,-1,-1,-1,-1,-1,-1],"loss_changes":[3.0003197E5,3.4501594E4,8.327842E4,2.7879688E3,9.54373E3,4.646542E4,1.4164469E4,1.4408438E3,2.865547E2,2.6333125E3,1.359332E3,1.6313309E4,2.2190703E4,1.3951566E4,2.4930664E3,0E0,2.0211719E2,2.180039E2,0E0,1.1821289E3,1.9328501E3,7.761113E2,0E0,3.97938E3,2.1873E3,1.3861875E4,8.234113E3,3.463369E2,7.2205107E3,1.6985479E3,2.7212695E2,1.9015625E1,1.3178906E2,0E0,0E0,1.3725537E2,4.668711E2,2.145109E2,2.2141504E2,4.056709E2,1.056582E2,1.1536533E3,1.7419102E3,1.3290406E3,1.099165E3,3.7851562E3,2.2965703E3,1.2340508E3,1.3592744E3,2.1653613E2,4.338855E2,1.8443862E3,7.0885864E2,0E0,1.5123975E3,2.1078027E2,4.9781433E1,0E0,0E0,0E0,0E0,0E0,0E0,0E0,0E0,0E0,0E0,0E0,0E0,0E0,0E0,0E0,0E0,0E0,0E0,0E0,0E0,0E0,0E0,0E0,0E0,0E0,0E0,0E0,0E0,0E0,0E0,0E0,0E0,0E0,0E0,0E0,0E0,0E0,0E0,0E0,0E0,0E0,0E0,0E0,0E0,0E0,0E0],"parents":[2147483647,0,0,1,1,2,2,3,3,4,4,5,5,6,6,7,7,8,8,9,9,10,10,11,11,12,12,13,13,14,14,16,16,17,17,19,19,20,20,21,21,23,23,24,24,25,25,26,26,27,27,28,28,29,29,30,30,31,31,32,32,35,35,36,36,37,37,38,38,39,39,40,40,41,41,42,42,43,43,44,44,45,45,46,46,47,47,48,48,49,49,50,50,51,51,52,52,54,54,55,55,56,56],"right_children":[2,4,6,8,10,12,14,16,18,20,22,24,26,28,30,-1,32,34,-1,36,38,40,-1,42,44,46,48,50,52,54,56,58,60,-1,-1,62,64,66,68,70,72,74,76,78,80,82,84,86,88,90,92,94,96,-1,98,100,102,-1,-1,-1,-1,-1,-1,-1,-1,-1,-1,-1,-1,-1,-1,-1,-1,-1,-1,-1,-1,-1,-1,-1,-1,-1,-1,-1,-1,-1,-1,-1,-1,-1,-1,-1,-1,-1,-1,-1,-1,-1,-1,-1,-1,-1,-1],"split_conditions":[1.5E1,1E1,1E1,2E0,5E0,2.1E1,1.3E1,3E0,3E0,1E0,7E0,6E0,8E0,2.1E1,1.6E1,-1.0427468E0,1E0,7E0,-8.965395E-1,2E0,3E0,1E1,-7.0212144E-1,4E0,8E0,1.7E1,1.7E1,1.3E1,1.8E1,2.1E1,1.9E1,4E0,7E0,-7.978336E-1,-5.41617E-1,1E0,1.3E1,1.2E1,1.3E1,1.3E1,6E0,1.8E1,7E0,7E0,1.3E1,6E0,5E0,9E0,9E0,1.9E1,1.1E1,1.2E1,1.1E1,-6.982887E-1,7E0,7E0,1E0,-5.8968395E-1,-4.5550853E-1,-6.6909313E-1,-2.73352E-1,-1.852186E-1,-3.2214586E-2,-3.561239E-1,-6.727045E-2,4.0099573E-1,2.7472341E-2,-2.4101673E-1,-1.0666368E-1,-4.3400916E-1,-1.2182885E-1,-5.2907825E-1,-6.752264E-1,4.4620976E-1,2.4331923E-1,7.7158265E-2,2.695767E-1,-9.335047E-2,7.2214976E-2,-2.418071E-1,-3.2194655E-2,7.6030195E-1,5.5375445E-1,5.131426E-1,2.944261E-1,3.9310524E-1,2.7507448E-1,1.5359397E-1,-9.085449E-3,-5.077781E-1,-2.770249E-1,-1.9069666E-1,-4.3285757E-1,1.5088996E-1,-1.9290068E-4,-6.447115E-2,-1.9524942E-1,-3.4158874E-1,-1.619365E-1,-5.8037907E-1,-2.9857495E-1,-1.860995E-1,-3.8440612E-1],"split_indices":[0,0,7,7,7,0,7,0,7,2,7,7,7,0,7,0,7,2,0,7,7,3,0,7,7,3,3,2,3,0,2,2,0,0,0,4,0,0,2,0,7,3,2,2,2,7,7,7,7,0,7,7,7,0,2,4,3,0,0,0,0,0,0,0,0,0,0,0,0,0,0,0,0,0,0,0,0,0,0,0,0,0,0,0,0,0,0,0,0,0,0,0,0,0,0,0,0,0,0,0,0,0,0],"split_type":[0,0,0,0,0,0,0,0,0,0,0,0,0,0,0,0,0,0,0,0,0,0,0,0,0,0,0,0,0,0,0,0,0,0,0,0,0,0,0,0,0,0,0,0,0,0,0,0,0,0,0,0,0,0,0,0,0,0,0,0,0,0,0,0,0,0,0,0,0,0,0,0,0,0,0,0,0,0,0,0,0,0,0,0,0,0,0,0,0,0,0,0,0,0,0,0,0,0,0,0,0,0,0],"sum_hessian":[9.405E3,2.235E3,7.17E3,9.36E2,1.299E3,4.879E3,2.291E3,5.01E2,4.35E2,8.76E2,4.23E2,1.693E3,3.186E3,1.643E3,6.48E2,2.4E1,4.77E2,2.51E2,1.84E2,5.52E2,3.24E2,3.26E2,9.7E1,8.51E2,8.42E2,1.748E3,1.438E3,1.89E2,1.454E3,5.38E2,1.1E2,1.87E2,2.9E2,2.33E2,1.8E1,1.09E2,4.43E2,1.09E2,2.15E2,2.03E2,1.23E2,3E2,5.51E2,5.02E2,3.4E2,1.012E3,7.36E2,9.18E2,5.2E2,1.09E2,8E1,1.035E3,4.19E2,1.9E1,5.19E2,8.7E1,2.3E1,1.64E2,2.3E1,2.86E2,4E0,9.1E1,1.8E1,4.28E2,1.5E1,3E0,1.06E2,1.75E2,4E1,1.91E2,1.2E1,8.1E1,4.2E1,1.76E2,1.24E2,3.81E2,1.7E2,3E2,2.02E2,2.57E2,8.3E1,3.55E2,6.57E2,1.54E2,5.82E2,4.34E2,4.84E2,2.91E2,2.29E2,9.3E1,1.6E1,3.6E1,4.4E1,7.6E2,2.75E2,1.94E2,2.25E2,1.82E2,3.37E2,7.6E1,1.1E1,8E0,1.5E1],"tree_param":{"num_deleted":"0","num_feature":"8","num_nodes":"103","size_leaf_vector":"1"}},{"base_weights":[-4.4766445E-2,-9.745703E0,2.9314492E0,-1.3983129E1,-6.5092673E0,5.096175E0,-1.618995E0,-1.2329303E1,-1.5850339E1,-4.805957E0,-1.0251243E1,1.002716E0,7.3558416E0,-2.2329172E-2,-5.441637E0,-9.7849745E-1,-1.1964273E1,-1.488155E1,-8.5050565E-1,-3.2276285E0,-6.0016127E0,-9.27037E0,-1.3684861E1,3.959045E0,-1.9958336E0,1.0732155E1,5.457308E0,-7.991239E0,9.404827E-1,-4.553724E0,-9.58428E0,-5.4414374E-1,-1.26186695E1,-7.498551E-1,-4.3556404E-1,-1.8686948E0,-4.176565E0,-6.1065607E0,-3.2247562E0,-4.3555495E-1,-5.157238E-1,-6.374678E-1,-8.600298E-1,6.140102E0,2.674015E0,-6.285651E-1,-3.8722231E0,7.3033314E0,1.2517497E1,2.5473192E0,7.0882635E0,-7.151027E0,-1.0443271E1,-1.1448808E0,2.085777E0,-6.674005E-1,-4.1903696E0,-4.9670053E-1,-5.9415717E0,-6.341533E-1,-2.3493075E-1,1.27744E-1,-1.04683034E-1,3.878174E-2,-2.1476701E-1,-3.2692248E-1,-2.8838953E-1,-8.97518E-2,-2.8117585E-1,2.4205819E-1,4.229342E-1,-9.700653E-2,1.5043172E-1,-2.21594E-1,-1.5342094E-2,-6.0433334E-1,-1.8386497E-1,5.152723E-1,3.036002E-1,7.668373E-1,5.774263E-1,1.7137414E-1,3.972942E-2,4.0694782E-1,2.6073432E-1,-3.7255573E-1,-2.0125948E-1,-5.733891E-1,-3.2101747E-1,-1.0801951E-2,-8.968785E-2,1.7305255E-1,5.3156402E-2,-2.8605148E-1,-1.510144E-1,-1.7885615E-1,-3.7286124E-1],"categories":[],"categories_nodes":[],"categories_segments":[],"categories_sizes":[],"default_left":[0,0,0,0,0,0,0,0,0,0,0,0,0,0,0,0,0,0,0,0,0,0,0,0,0,0,0,0,0,0,0,0,0,0,0,0,0,0,0,0,0,0,0,0,0,0,0,0,0,0,0,0,0,0,0,0,0,0,0,0,0,0,0,0,0,0,0,0,0,0,0,0,0,0,0,0,0,0,0,0,0,0,0,0,0,0,0,0,0,0,0,0,0,0,0,0,0],"id":3,"left_children":[1,3,5,7,9,11,13,15,17,19,21,23,25,27,29,-1,31,33,-1,35,37,39,41,43,45,47,49,51,53,55,57,-1,59,-1,-1,61,63,65,67,-1,-1,-1,-1,69,71,73,75,77,79,81,83,85,87,89,91,-1,93,-1,95,-1,-1,-1,-1,-1,-1,-1,-1,-1,-1,-1,-1,-1,-1,-1,-1,-1,-1,-1,-1,-1,-1,-1,-1,-1,-1,-1,-1,-1,-1,-1,-1,-1,-1,-1,-1,-1,-1],"loss_changes":[2.7203244E5,3.0244688E4,7.103011E4,2.7598281E3,7.9561562E3,4.5187383E4,1.4190473E4,1.1191016E3,2.4797656E2,1.6130039E3,1.1933711E3,1.5423615E4,2.0120266E4,1.2598188E4,2.475996E3,0E0,2.0942188E2,4.8316406E1,0E0,4.7577344E2,1.23396484E2,9.000195E1,6.0268555E1,2.4387656E3,2.2141826E3,6.8382656E3,9.554754E3,2.899795E2,3.5013281E3,1.7526865E3,9.385156E1,0E0,9.291016E1,0E0,0E0,1.605929E2,1.3273535E2,3.1345703E1,5.8496735E1,0E0,0E0,0E0,0E0,9.3483984E2,8.596592E2,6.11671E2,5.383872E2,1.3790938E3,1.8525859E3,1.1172695E3,2.5009297E3,9.664111E1,1.0359863E2,3.1301813E2,1.3267959E3,0E0,9.588135E2,0E0,1.9912506E1,0E0,0E0,0E0,0E0,0E0,0E0,0E0,0E0,0E0,0E0,0E0,0E0,0E0,0E0,0E0,0E0,0E0,0E0,0E0,0E0,0E0,0E0,0E0,0E0,0E0,0E0,0E0,0E0,0E0,0E0,0E0,0E0,0E0,0E0,0E0,0E0,0E0,0E0],"parents":[2147483647,0,0,1,1,2,2,3,3,4,4,5,5,6,6,7,7,8,8,9,9,10,10,11,11,12,12,13,13,14,14,16,16,17,17,19,19,20,20,21,21,22,22,23,23,24,24,25,25,26,26,27,27,28,28,29,29,30,30,32,32,35,35,36,36,37,37,38,38,43,43,44,44,45,45,46,46,47,47,48,48,49,49,50,50,51,51,52,52,53,53,54,54,56,56,58,58],"right_children":[2,4,6,8,10,12,14,16,18,20,22,24,26,28,30,-1,32,34,-1,36,38,40,42,44,46,48,50,52,54,56,58,-1,60,-1,-1,62,64,66,68,-1,-1,-1,-1,70,72,74,76,78,80,82,84,86,88,90,92,-1,94,-1,96,-1,-1,-1,-1,-1,-1,-1,-1,-1,-1,-1,-1,-1,-1,-1,-1,-1,-1,-1,-1,-1,-1,-1,-1,-1,-1,-1,-1,-1,-1,-1,-1,-1,-1,-1,-1,-1,-1],"split_conditions":[1.3E1,1E1,1E1,2E0,5E0,2.1E1,1.3E1,4E0,3E0,3E0,7E0,6E0,7E0,2.1E1,1.6E1,-9.7849745E-1,1E0,7E0,-8.5050565E-1,2E0,7E0,6E0,9E0,4E0,8E0,5E0,6E0,1.2E1,4E0,2E1,7E0,-5.4414374E-1,7E0,-7.498551E-1,-4.3556404E-1,1.2E1,1.2E1,2E0,2E0,-4.3555495E-1,-5.157238E-1,-6.374678E-1,-8.600298E-1,4E0,1.7E1,1.8E1,1.6E1,5E0,5E0,9E0,9E0,1.9E1,1.9E1,1.1E1,1.1E1,-6.674005E-1,6E0,-4.9670053E-1,8E0,-6.341533E-1,-2.3493075E-1,1.27744E-1,-1.04683034E-1,3.878174E-2,-2.1476701E-1,-3.2692248E-1,-2.8838953E-1,-8.97518E-2,-2.8117585E-1,2.4205819E-1,4.229342E-1,-9.700653E-2,1.5043172E-1,-2.21594E-1,-1.5342094E-2,-6.0433334E-1,-1.8386497E-1,5.152723E-1,3.036002E-1,7.668373E-1,5.774263E-1,1.7137414E-1,3.972942E-2,4.0694782E-1,2.6073432E-1,-3.7255573E-1,-2.0125948E-1,-5.733891E-1,-3.2101747E-1,-1.0801951E-2,-8.968785E-2,1.7305255E-1,5.3156402E-2,-2.8605148E-1,-1.510144E-1,-1.7885615E-1,-3.7286124E-1],"split_indices":[0,0,7,7,7,0,7,0,7,7,7,7,7,0,7,0,7,0,0,7,4,7,7,7,7,4,4,7,4,0,4,0,0,0,0,0,0,1,1,0,0,0,0,4,0,0,0,7,7,7,7,0,0,7,7,0,4,0,4,0,0,0,0,0,0,0,0,0,0,0,0,0,0,0,0,0,0,0,0,0,0,0,0,0,0,0,0,0,0,0,0,0,0,0,0,0,0],"split_type":[0,0,0,0,0,0,0,0,0,0,0,0,0,0,0,0,0,0,0,0,0,0,0,0,0,0,0,0,0,0,0,0,0,0,0,0,0,0,0,0,0,0,0,0,0,0,0,0,0,0,0,0,0,0,0,0,0,0,0,0,0,0,0,0,0,0,0,0,0,0,0,0,0,0,0,0,0,0,0,0,0,0,0,0,0,0,0,0,0,0,0,0,0,0,0,0,0],"sum_hessian":[9.42E3,2.211E3,7.209E3,9.56E2,1.255E3,4.885E3,2.324E3,5.11E2,4.45E2,8.64E2,3.91E2,1.738E3,3.147E3,1.64E3,6.84E2,2.2E1,4.89E2,2.5E2,1.95E2,3.74E2,4.9E2,3.07E2,8.4E1,8.75E2,8.63E2,1.131E3,2.016E3,1.76E2,1.464E3,5.65E2,1.19E2,1.91E2,2.98E2,2.44E2,6E0,1.55E2,2.19E2,4.71E2,1.9E1,2.06E2,1.01E2,7E1,1.4E1,3.23E2,5.52E2,5E2,3.63E2,3.89E2,7.42E2,7.25E2,1.291E3,1.34E2,4.2E1,5.19E2,9.45E2,2.1E1,5.44E2,1.07E2,1.2E1,2.95E2,3E0,7E0,1.48E2,5E0,2.14E2,1.99E2,2.72E2,1.3E1,6E0,2.09E2,1.14E2,3.7E1,5.15E2,3.8E1,4.62E2,7E0,3.56E2,1.11E2,2.78E2,1.86E2,5.56E2,4.82E2,2.43E2,8.25E2,4.66E2,1.21E2,1.3E1,3.2E1,1E1,2.14E2,3.05E2,4.02E2,5.43E2,2.34E2,3.1E2,6E0,6E0],"tree_param":{"num_deleted":"0","num_feature":"8","num_nodes":"97","size_leaf_vector":"1"}},{"base_weights":[6.337999E-2,-9.475174E0,2.9366355E0,-1.3268519E1,-6.5813036E0,5.2027744E-1,4.904025E0,-9.330139E-1,-1.3071346E1,-7.415809E0,-5.4755273E0,-5.2053314E-1,1.1923363E0,1.5732442E0,5.491347E0,-1.3331485E1,-5.572881E-1,-7.909239E0,-5.864542E0,-4.4707823E0,-6.7617316E0,-2.7877154E0,-1.5862678E-1,1.4129221E0,-9.801918E-2,-7.679175E0,1.7427931E0,4.262379E0,6.924515E0,-6.7394394E-1,-5.5214596E-1,-8.191701E0,-6.7244663E0,-5.3493876E0,-3.1764048E-1,2.1181254E0,-4.632663E0,-3.8819724E-1,-2.7058473E-1,-4.1422234E0,-1.9767269E0,-2.7351823E-1,4.61547E0,8.8555294E-1,2.8392718E0,-4.3817818E-1,6.6392713E0,-4.277195E-1,-2.0044759E-1,1.5273427E0,5.8654075E0,4.7473516E0,2.7917664E0,6.4915233E0,1.1329214E1,-4.3098375E-1,-3.8845947E-1,-4.5533037E-1,-3.0896893E-1,-2.7230844E-1,-9.414323E-2,-1.3637398E-1,3.8228002E-1,-1.7155585E-1,-2.7837202E-1,-2.5591883E-1,2.9782454E-2,-1.2311083E-1,6.634605E-2,-1.933667E-2,6.1285645E-2,1.5802394E-1,4.469347E-1,2.3222229E-2,1.128818E-1,1.2613446E-1,3.5490713E-1,-6.8925455E-2,5.11893E-2,3.6909893E-1,1.4685039E-1,6.943256E-2,2.8247336E-1,3.803106E-1,1.568893E-1,2.6298168E-1,1.10477045E-1,7.463944E-2,2.573987E-1,2.6397166E-1,3.4985682E-1,5.3115284E-1,8.4376997E-1],"categories":[],"categories_nodes":[],"categories_segments":[],"categories_sizes":[],"default_left":[0,0,0,0,0,0,0,0,0,0,0,0,0,0,0,0,0,0,0,0,0,0,0,0,0,0,0,0,0,0,0,0,0,0,0,0,0,0,0,0,0,0,0,0,0,0,0,0,0,0,0,0,0,0,0,0,0,0,0,0,0,0,0,0,0,0,0,0,0,0,0,0,0,0,0,0,0,0,0,0,0,0,0,0,0,0,0,0,0,0,0,0,0],"id":4,"left_children":[1,3,5,7,9,11,13,-1,15,17,19,21,23,25,27,29,-1,31,33,35,37,39,41,43,45,47,49,51,53,-1,-1,55,57,59,-1,61,63,-1,-1,65,67,69,71,73,75,77,79,-1,-1,81,83,85,87,89,91,-1,-1,-1,-1,-1,-1,-1,-1,-1,-1,-1,-1,-1,-1,-1,-1,-1,-1,-1,-1,-1,-1,-1,-1,-1,-1,-1,-1,-1,-1,-1,-1,-1,-1,-1,-1,-1,-1],"loss_changes":[2.5880192E5,2.390936E4,3.449663E4,7.607344E2,1.1054805E3,2.2795457E3,7.8163203E3,0E0,3.0975E2,4.932539E2,6.6503125E2,1.048987E3,5.6371436E2,9.561942E2,5.958961E3,1.2134375E2,0E0,1.22953125E2,9.783691E0,3.3513037E2,2.7459082E2,1.8514624E2,6.0680963E2,1.2694778E3,6.675167E2,1.0404663E0,5.159789E2,1.2940547E3,2.9169453E3,0E0,0E0,9.8828125E0,8.39624E1,2.027539E1,0E0,2.351249E2,3.1560498E2,0E0,0E0,3.036665E2,1.829025E2,1.8361887E2,1.3529602E2,7.13107E2,5.969109E2,3.822115E2,1.681482E1,0E0,0E0,3.1402417E2,1.1383276E2,1.7785781E3,1.3910374E3,8.394336E2,3.6512305E2,0E0,0E0,0E0,0E0,0E0,0E0,0E0,0E0,0E0,0E0,0E0,0E0,0E0,0E0,0E0,0E0,0E0,0E0,0E0,0E0,0E0,0E0,0E0,0E0,0E0,0E0,0E0,0E0,0E0,0E0,0E0,0E0,0E0,0E0,0E0,0E0,0E0,0E0],"parents":[2147483647,0,0,1,1,2,2,3,3,4,4,5,5,6,6,8,8,9,9,10,10,11,11,12,12,13,13,14,14,15,15,17,17,18,18,19,19,20,20,21,21,22,22,23,23,24,24,25,25,26,26,27,27,28,28,31,31,32,32,33,33,35,35,36,36,39,39,40,40,41,41,42,42,43,43,44,44,45,45,46,46,49,49,50,50,51,51,52,52,53,53,54,54],"right_children":[2,4,6,8,10,12,14,-1,16,18,20,22,24,26,28,30,-1,32,34,36,38,40,42,44,46,48,50,52,54,-1,-1,56,58,60,-1,62,64,-1,-1,66,68,70,72,74,76,78,80,-1,-1,82,84,86,88,90,92,-1,-1,-1,-1,-1,-1,-1,-1,-1,-1,-1,-1,-1,-1,-1,-1,-1,-1,-1,-1,-1,-1,-1,-1,-1,-1,-1,-1,-1,-1,-1,-1,-1,-1,-1,-1,-1,-1],"split_conditions":[1.3E1,8E0,5E0,4E0,1E0,1.9E1,2.1E1,-9.330139E-1,7E0,1.3E1,1.2E1,5E0,1.7E1,1.6E1,7E0,7E0,-5.572881E-1,6E0,2E0,1.2E1,1.3E1,2E0,1.4E1,7E0,2.1E1,1.5E1,1.3E1,1.7E1,1.4E1,-6.7394394E-1,-5.5214596E-1,2E0,6E0,1.5E1,-3.1764048E-1,1.1E1,2E0,-3.8819724E-1,-2.7058473E-1,2E1,1E0,1.3E1,1.6E1,2.5E1,1.9E1,1.9E1,2.2E1,-4.277195E-1,-2.0044759E-1,1.4E1,2E0,1.7E1,1.9E1,1E0,1.6E1,-4.3098375E-1,-3.8845947E-1,-4.5533037E-1,-3.0896893E-1,-2.7230844E-1,-9.414323E-2,-1.3637398E-1,3.8228002E-1,-1.7155585E-1,-2.7837202E-1,-2.5591883E-1,2.9782454E-2,-1.2311083E-1,6.634605E-2,-1.933667E-2,6.1285645E-2,1.5802394E-1,4.469347E-1,2.3222229E-2,1.128818E-1,1.2613446E-1,3.5490713E-1,-6.8925455E-2,5.11893E-2,3.6909893E-1,1.4685039E-1,6.943256E-2,2.8247336E-1,3.803106E-1,1.568893E-1,2.6298168E-1,1.10477045E-1,7.463944E-2,2.573987E-1,2.6397166E-1,3.4985682E-1,5.3115284E-1,8.4376997E-1],"split_indices":[0,0,4,0,2,0,0,0,3,3,2,3,2,0,4,2,0,4,1,0,2,1,2,2,2,0,4,3,4,0,0,1,3,3,0,0,1,0,0,2,4,2,2,3,3,2,2,0,0,2,1,2,3,3,4,0,0,0,0,0,0,0,0,0,0,0,0,0,0,0,0,0,0,0,0,0,0,0,0,0,0,0,0,0,0,0,0,0,0,0,0,0,0],"split_type":[0,0,0,0,0,0,0,0,0,0,0,0,0,0,0,0,0,0,0,0,0,0,0,0,0,0,0,0,0,0,0,0,0,0,0,0,0,0,0,0,0,0,0,0,0,0,0,0,0,0,0,0,0,0,0,0,0,0,0,0,0,0,0,0,0,0,0,0,0,0,0,0,0,0,0,0,0,0,0,0,0,0,0,0,0,0,0,0,0,0,0,0,0],"sum_hessian":[9.441E3,2.185E3,7.256E3,9.44E2,1.241E3,3.257E3,3.999E3,3E1,9.14E2,7.04E2,5.37E2,1.278E3,1.979E3,6E2,3.399E3,8E2,1.14E2,5.31E2,1.73E2,3.04E2,2.33E2,1.75E2,1.103E3,1.69E3,2.89E2,1E1,5.9E2,1.832E3,1.567E3,7.47E2,5.3E1,4.24E2,1.07E2,9E1,8.3E1,7E0,2.97E2,1.31E2,1.02E2,6.4E1,1.11E2,1.078E3,2.5E1,1.235E3,4.55E2,2.76E2,1.3E1,7E0,3E0,5.62E2,2.8E1,1.376E3,4.56E2,1.429E3,1.38E2,2.01E2,2.23E2,1.7E1,9E1,8.7E1,3E0,4E0,3E0,1.32E2,1.65E2,5.3E1,1.1E1,9.7E1,1.4E1,1.003E3,7.5E1,2E1,5E0,9.46E2,2.89E2,4.25E2,3E1,1.68E2,1.08E2,1E1,3E0,5.45E2,1.7E1,1.6E1,1.2E1,1.144E3,2.32E2,2.95E2,1.61E2,4.24E2,1.005E3,1.25E2,1.3E1],"tree_param":{"num_deleted":"0","num_feature":"8","num_nodes":"93","size_leaf_vector":"1"}},{"base_weights":[3.716227E-2,-8.861848E0,2.7426813E0,-1.2803153E1,-6.02665E0,4.8224497E0,-1.6574208E0,-1.1266339E1,-1.4523353E1,-4.4623337E0,-9.517464E0,9.0759444E-1,6.846889E0,-1.1905725E-1,-5.4450374E0,-8.87777E-1,-1.0852254E1,-1.40845175E1,-8.5332006E-1,-5.6782928E0,-2.333771E0,-8.648311E0,-1.2616248E1,3.6205325E0,-1.8814315E0,1.0032953E1,5.0256133E0,-7.541777E0,6.9806606E-1,-4.536771E0,-9.444377E0,-9.716038E0,-1.1552647E1,-1.4681751E1,-1.2676336E1,-4.1087317E0,-7.1528296E0,1.2182923E-1,-3.7648094E0,-1.0210762E1,-7.332483E0,-6.480366E-1,-3.8402525E-1,7.414671E0,2.8480935E0,-6.281534E-1,-3.711287E0,1.1994014E1,7.556962E0,6.876542E0,1.8861995E0,-8.782887E0,-5.547037E0,1.9909809E0,-2.4485393E0,-6.4422363E-1,-4.149471E0,-4.9919388E-1,-3.4542987E-1,-5.0231487E-1,-3.880988E-1,-5.9520465E-1,-4.8812467E-1,-7.564007E-1,-6.265833E-1,-5.812594E-1,-6.994484E-1,-1.4454034E-1,-2.5529346E-1,-4.861558E-1,-3.5037148E-1,2.6829332E-1,-9.921621E-3,-1.3845162E-1,-2.3127778E-1,-4.5580202E-1,-6.329236E-1,-3.73278E-1,-2.4569106E-1,5.2586293E-1,3.180039E-1,8.220656E-2,2.8987092E-1,-1.276784E-1,3.1593896E-2,-2.614645E-1,-1.1079174E-1,6.711113E-1,5.0480217E-1,5.7073045E-1,3.4941408E-1,4.525325E-1,2.9784438E-1,1.4144574E-1,-3.905356E-3,-4.6755853E-1,-2.7291307E-1,-1.5449718E-1,-3.8175184E-1,1.7845029E-1,4.712142E-2,-6.300102E-2,-1.7323989E-1,-3.0849376E-1,-1.5448749E-1],"categories":[],"categories_nodes":[],"categories_segments":[],"categories_sizes":[],"default_left":[0,0,0,0,0,0,0,0,0,0,0,0,0,0,0,0,0,0,0,0,0,0,0,0,0,0,0,0,0,0,0,0,0,0,0,0,0,0,0,0,0,0,0,0,0,0,0,0,0,0,0,0,0,0,0,0,0,0,0,0,0,0,0,0,0,0,0,0,0,0,0,0,0,0,0,0,0,0,0,0,0,0,0,0,0,0,0,0,0,0,0,0,0,0,0,0,0,0,0,0,0,0,0,0,0],"id":5,"left_children":[1,3,5,7,9,11,13,15,17,19,21,23,25,27,29,-1,31,33,-1,35,37,39,41,43,45,47,49,51,53,55,57,59,61,63,65,67,69,71,73,75,77,-1,-1,79,81,83,85,87,89,91,93,95,97,99,101,-1,103,-1,-1,-1,-1,-1,-1,-1,-1,-1,-1,-1,-1,-1,-1,-1,-1,-1,-1,-1,-1,-1,-1,-1,-1,-1,-1,-1,-1,-1,-1,-1,-1,-1,-1,-1,-1,-1,-1,-1,-1,-1,-1,-1,-1,-1,-1,-1,-1],"loss_changes":[2.285338E5,2.465175E4,6.661953E4,2.2817344E3,6.996418E3,3.916897E4,1.3616421E4,1.1320469E3,2.4284375E2,2.295463E3,9.6283594E2,1.2763854E4,1.8854797E4,1.009182E4,2.4090684E3,0E0,2.5859375E2,1.2927344E2,0E0,1.2828613E3,1.1460414E3,5.7068555E2,4.4978516E1,2.484666E3,1.9057092E3,5.6583594E3,1.2044504E4,3.597705E2,6.1032456E3,1.7311865E3,1.0066406E2,4.0765625E1,6.183203E1,5.701172E1,1.5683594E0,3.2163965E2,4.0618164E1,2.0427988E2,1.6375684E2,2.6242383E2,1.932129E1,0E0,0E0,4.0427295E2,2.518691E3,1.2025244E3,7.5570654E2,1.6508438E3,1.0741543E3,2.5553398E3,1.4279448E3,1.378916E2,3.1501514E2,1.755521E3,5.234617E2,0E0,1.1135605E3,0E0,0E0,0E0,0E0,0E0,0E0,0E0,0E0,0E0,0E0,0E0,0E0,0E0,0E0,0E0,0E0,0E0,0E0,0E0,0E0,0E0,0E0,0E0,0E0,0E0,0E0,0E0,0E0,0E0,0E0,0E0,0E0,0E0,0E0,0E0,0E0,0E0,0E0,0E0,0E0,0E0,0E0,0E0,0E0,0E0,0E0,0E0,0E0],"parents":[2147483647,0,0,1,1,2,2,3,3,4,4,5,5,6,6,7,7,8,8,9,9,10,10,11,11,12,12,13,13,14,14,16,16,17,17,19,19,20,20,21,21,22,22,23,23,24,24,25,25,26,26,27,27,28,28,29,29,30,30,31,31,32,32,33,33,34,34,35,35,36,36,37,37,38,38,39,39,40,40,43,43,44,44,45,45,46,46,47,47,48,48,49,49,50,50,51,51,52,52,53,53,54,54,56,56],"right_children":[2,4,6,8,10,12,14,16,18,20,22,24,26,28,30,-1,32,34,-1,36,38,40,42,44,46,48,50,52,54,56,58,60,62,64,66,68,70,72,74,76,78,-1,-1,80,82,84,86,88,90,92,94,96,98,100,102,-1,104,-1,-1,-1,-1,-1,-1,-1,-1,-1,-1,-1,-1,-1,-1,-1,-1,-1,-1,-1,-1,-1,-1,-1,-1,-1,-1,-1,-1,-1,-1,-1,-1,-1,-1,-1,-1,-1,-1,-1,-1,-1,-1,-1,-1,-1,-1,-1,-1],"split_conditions":[1.3E1,8E0,1E1,2E0,5E0,2E1,1.3E1,3E0,4E0,1E0,7E0,6E0,7E0,2.1E1,1.6E1,-8.87777E-1,1E0,6E0,-8.5332006E-1,3E0,3E0,1E0,1.3E1,3E0,8E0,1.7E1,1.7E1,1.3E1,1.7E1,2.2E1,1.9E1,7E0,5E0,7E0,3E0,2E0,1.2E1,1E0,4E0,6E0,1.4E1,-6.480366E-1,-3.8402525E-1,1E1,7E0,6E0,7E0,6E0,4E0,8E0,9E0,1.9E1,1.1E1,1.1E1,1.1E1,-6.4422363E-1,7E0,-4.9919388E-1,-3.4542987E-1,-5.0231487E-1,-3.880988E-1,-5.9520465E-1,-4.8812467E-1,-7.564007E-1,-6.265833E-1,-5.812594E-1,-6.994484E-1,-1.4454034E-1,-2.5529346E-1,-4.861558E-1,-3.5037148E-1,2.6829332E-1,-9.921621E-3,-1.3845162E-1,-2.3127778E-1,-4.5580202E-1,-6.329236E-1,-3.73278E-1,-2.4569106E-1,5.2586293E-1,3.180039E-1,8.220656E-2,2.8987092E-1,-1.276784E-1,3.1593896E-2,-2.614645E-1,-1.1079174E-1,6.711113E-1,5.0480217E-1,5.7073045E-1,3.4941408E-1,4.525325E-1,2.9784438E-1,1.4144574E-1,-3.905356E-3,-4.6755853E-1,-2.7291307E-1,-1.5449718E-1,-3.8175184E-1,1.7845029E-1,4.712142E-2,-6.300102E-2,-1.7323989E-1,-3.0849376E-1,-1.5448749E-1],"split_indices":[0,0,7,7,7,0,7,0,7,2,7,7,7,0,7,0,7,2,0,7,7,2,3,7,7,3,3,2,3,0,2,3,2,3,7,7,0,7,7,7,2,0,0,3,2,2,2,7,7,7,7,0,7,7,7,0,2,0,0,0,0,0,0,0,0,0,0,0,0,0,0,0,0,0,0,0,0,0,0,0,0,0,0,0,0,0,0,0,0,0,0,0,0,0,0,0,0,0,0,0,0,0,0,0,0],"split_type":[0,0,0,0,0,0,0,0,0,0,0,0,0,0,0,0,0,0,0,0,0,0,0,0,0,0,0,0,0,0,0,0,0,0,0,0,0,0,0,0,0,0,0,0,0,0,0,0,0,0,0,0,0,0,0,0,0,0,0,0,0,0,0,0,0,0,0,0,0,0,0,0,0,0,0,0,0,0,0,0,0,0,0,0,0,0,0,0,0,0,0,0,0,0,0,0,0,0,0,0,0,0,0,0,0],"sum_hessian":[9.49E3,2.212E3,7.278E3,9.24E2,1.288E3,4.942E3,2.336E3,4.92E2,4.32E2,8.91E2,3.97E2,1.685E3,3.257E3,1.662E3,6.74E2,2.7E1,4.65E2,3.74E2,5.8E1,5.66E2,3.25E2,3.13E2,8.4E1,8.54E2,8.31E2,1.183E3,2.074E3,1.64E2,1.498E3,5.51E2,1.23E2,1.83E2,2.82E2,2.56E2,1.18E2,2.76E2,2.9E2,1.2E2,2.05E2,1.4E2,1.73E2,7.7E1,7E0,1.43E2,7.11E2,4.94E2,3.37E2,6.58E2,5.25E2,1.304E3,7.7E2,9.9E1,6.5E1,1.062E3,4.36E2,2.3E1,5.28E2,9.9E1,2.4E1,1.53E2,3E1,2.31E2,5.1E1,2.07E2,4.9E1,7.1E1,4.7E1,1.26E2,1.5E2,1.2E1,2.78E2,6E0,1.14E2,9.7E1,1.08E2,1E2,4E1,1.62E2,1.1E1,3.4E1,1.09E2,5.06E2,2.05E2,1.95E2,2.99E2,1.66E2,1.71E2,3.72E2,2.86E2,6.5E1,4.6E2,3.85E2,9.19E2,5.2E2,2.5E2,8.3E1,1.6E1,3.1E1,3.4E1,4.23E2,6.39E2,2.02E2,2.34E2,1.8E2,3.48E2],"tree_param":{"num_deleted":"0","num_feature":"8","num_nodes":"105","size_leaf_vector":"1"}},{"base_weights":[-6.319882E-2,-8.380136E0,2.546204E0,-1.1990786E1,-5.655805E0,4.55812E0,-1.6793103E0,-1.0479867E1,-1.3685363E1,-4.1308684E0,-8.915557E0,9.783306E-1,6.3815875E0,-3.0716217E-1,-5.0448074E0,-8.2858866E-1,-1.0175021E1,-1.2865908E1,-7.3565286E-1,-5.225541E0,-2.2521625E0,-8.047203E0,-1.1947311E1,3.7750938E0,-1.9448777E0,9.268514E0,4.7185225E0,-7.176212E0,5.6165624E-1,-4.287611E0,-8.557027E0,-1.0497815E1,-8.450127E0,-1.3133236E1,-4.2711005E-1,-2.7106707E0,-5.9220505E0,3.7199718E-1,-3.5781136E0,-9.706428E0,-6.5896606E0,-1.1152199E1,-7.4390024E-1,7.672682E0,2.9846153E0,-2.7238173E0,9.980241E-1,6.2360044E0,1.0869329E1,1.8923969E0,5.970808E0,-7.666999E0,-3.8799734E0,-1.5972512E0,2.1963608E0,-5.879826E-1,-4.057852E0,-1.0545344E1,-7.4807596E0,-4.8401982E-1,-5.513236E-1,-4.0440637E-1,-5.8738846E-1,-6.6223085E-1,-4.1029343E-1,-1.5412445E-1,-2.6639417E-2,-2.6630518E-1,-3.6739275E-1,3.648389E-1,5.482513E-3,-1.8677E-1,2.2726113E-2,-4.3627486E-1,-5.7551175E-1,-3.4607336E-1,-1.3055381E-1,-5.9064674E-1,-4.0093604E-1,3.2628372E-1,5.0265E-1,9.593741E-2,2.7923504E-1,-7.6659255E-2,-2.2840802E-1,9.419806E-2,-1.00170314E-1,3.8293192E-1,2.144988E-1,4.794537E-1,6.6693974E-1,7.460237E-2,4.4332024E-1,1.7436852E-1,3.4366724E-1,-3.1315893E-1,-4.4794175E-1,-2.4580853E-1,-6.882355E-2,-1.15344726E-1,2.7996613E-2,1.5099283E-1,-3.4896396E-3,-2.9296312E-1,-1.5615368E-1,-5.650854E-1,-2.2508614E-1,-3.2502112E-1,-4.1966134E-1],"categories":[],"categories_nodes":[],"categories_segments":[],"categories_sizes":[],"default_left":[0,0,0,0,0,0,0,0,0,0,0,0,0,0,0,0,0,0,0,0,0,0,0,0,0,0,0,0,0,0,0,0,0,0,0,0,0,0,0,0,0,0,0,0,0,0,0,0,0,0,0,0,0,0,0,0,0,0,0,0,0,0,0,0,0,0,0,0,0,0,0,0,0,0,0,0,0,0,0,0,0,0,0,0,0,0,0,0,0,0,0,0,0,0,0,0,0,0,0,0,0,0,0,0,0,0,0,0,0],"id":6,"left_children":[1,3,5,7,9,11,13,15,17,19,21,23,25,27,29,-1,31,33,-1,35,37,39,41,43,45,47,49,51,53,55,57,59,61,63,-1,65,67,69,71,73,75,77,-1,79,81,83,85,87,89,91,93,95,97,99,101,-1,103,105,107,-1,-1,-1,-1,-1,-1,-1,-1,-1,-1,-1,-1,-1,-1,-1,-1,-1,-1,-1,-1,-1,-1,-1,-1,-1,-1,-1,-1,-1,-1,-1,-1,-1,-1,-1,-1,-1,-1,-1,-1,-1,-1,-1,-1,-1,-1,-1,-1,-1,-1],"loss_changes":[2.0473858E5,2.2094047E4,6.1056055E4,2.3350156E3,6.3557656E3,3.175068E4,1.0698266E4,7.896367E2,1.9219531E2,1.7938975E3,9.8060547E2,1.3439725E4,1.5430359E4,9.833255E3,1.747793E3,0E0,1.8634766E2,1.8833203E2,0E0,9.543506E2,1.1321708E3,7.123418E2,4.146875E1,2.5651064E3,1.845762E3,5.645961E3,7.2332734E3,2.6953613E2,5.1666924E3,9.0337305E2,1.736289E2,7.1296875E1,4.063965E0,2.4683594E1,0E0,9.715045E1,3.287871E2,1.9903633E2,1.3870215E2,1.6144043E2,2.1162842E2,5.848535E1,0E0,3.1936133E2,1.9292266E3,1.3896108E3,4.531586E2,1.099456E3,2.3033203E3,1.7457563E3,3.1543242E3,2.340498E2,6.0680206E1,9.67246E2,1.5547285E3,0E0,8.89333E2,1.27398926E2,1.7002441E1,0E0,0E0,0E0,0E0,0E0,0E0,0E0,0E0,0E0,0E0,0E0,0E0,0E0,0E0,0E0,0E0,0E0,0E0,0E0,0E0,0E0,0E0,0E0,0E0,0E0,0E0,0E0,0E0,0E0,0E0,0E0,0E0,0E0,0E0,0E0,0E0,0E0,0E0,0E0,0E0,0E0,0E0,0E0,0E0,0E0,0E0,0E0,0E0,0E0,0E0],"parents":[2147483647,0,0,1,1,2,2,3,3,4,4,5,5,6,6,7,7,8,8,9,9,10,10,11,11,12,12,13,13,14,14,16,16,17,17,19,19,20,20,21,21,22,22,23,23,24,24,25,25,26,26,27,27,28,28,29,29,30,30,31,31,32,32,33,33,35,35,36,36,37,37,38,38,39,39,40,40,41,41,43,43,44,44,45,45,46,46,47,47,48,48,49,49,50,50,51,51,52,52,53,53,54,54,56,56,57,57,58,58],"right_children":[2,4,6,8,10,12,14,16,18,20,22,24,26,28,30,-1,32,34,-1,36,38,40,42,44,46,48,50,52,54,56,58,60,62,64,-1,66,68,70,72,74,76,78,-1,80,82,84,86,88,90,92,94,96,98,100,102,-1,104,106,108,-1,-1,-1,-1,-1,-1,-1,-1,-1,-1,-1,-1,-1,-1,-1,-1,-1,-1,-1,-1,-1,-1,-1,-1,-1,-1,-1,-1,-1,-1,-1,-1,-1,-1,-1,-1,-1,-1,-1,-1,-1,-1,-1,-1,-1,-1,-1,-1,-1,-1],"split_conditions":[1.5E1,1E1,1E1,2E0,5E0,2E1,1.3E1,3E0,3E0,1E0,7E0,6E0,7E0,2.1E1,1.6E1,-8.2858866E-1,5E0,7E0,-7.3565286E-1,2E0,3E0,1E0,9E0,3E0,1.3E1,5E0,6E0,1.9E1,7E0,2.1E1,9E0,1E0,4E0,8E0,-4.2711005E-1,1E0,4E0,1.2E1,1.3E1,6E0,1E0,1.3E1,-7.4390024E-1,1E0,7E0,8E0,9E0,6E0,7E0,1.3E1,3E0,1.1E1,1.3E1,7E0,1.2E1,-5.879826E-1,7E0,7E0,1.7E1,-4.8401982E-1,-5.513236E-1,-4.0440637E-1,-5.8738846E-1,-6.6223085E-1,-4.1029343E-1,-1.5412445E-1,-2.6639417E-2,-2.6630518E-1,-3.6739275E-1,3.648389E-1,5.482513E-3,-1.8677E-1,2.2726113E-2,-4.3627486E-1,-5.7551175E-1,-3.4607336E-1,-1.3055381E-1,-5.9064674E-1,-4.0093604E-1,3.2628372E-1,5.0265E-1,9.593741E-2,2.7923504E-1,-7.6659255E-2,-2.2840802E-1,9.419806E-2,-1.00170314E-1,3.8293192E-1,2.144988E-1,4.794537E-1,6.6693974E-1,7.460237E-2,4.4332024E-1,1.7436852E-1,3.4366724E-1,-3.1315893E-1,-4.4794175E-1,-2.4580853E-1,-6.882355E-2,-1.15344726E-1,2.7996613E-2,1.5099283E-1,-3.4896396E-3,-2.9296312E-1,-1.5615368E-1,-5.650854E-1,-2.2508614E-1,-3.2502112E-1,-4.1966134E-1],"split_indices":[0,0,7,7,7,0,7,0,7,2,7,7,7,0,7,0,2,2,0,7,7,2,7,7,2,4,2,0,2,0,2,7,1,0,0,4,7,0,0,7,4,2,0,2,2,7,7,7,2,4,4,7,2,4,7,0,2,4,7,0,0,0,0,0,0,0,0,0,0,0,0,0,0,0,0,0,0,0,0,0,0,0,0,0,0,0,0,0,0,0,0,0,0,0,0,0,0,0,0,0,0,0,0,0,0,0,0,0,0],"split_type":[0,0,0,0,0,0,0,0,0,0,0,0,0,0,0,0,0,0,0,0,0,0,0,0,0,0,0,0,0,0,0,0,0,0,0,0,0,0,0,0,0,0,0,0,0,0,0,0,0,0,0,0,0,0,0,0,0,0,0,0,0,0,0,0,0,0,0,0,0,0,0,0,0,0,0,0,0,0,0,0,0,0,0,0,0,0,0,0,0,0,0,0,0,0,0,0,0,0,0,0,0,0,0,0,0,0,0,0,0],"sum_hessian":[9.432E3,2.252E3,7.18E3,9.67E2,1.285E3,4.864E3,2.316E3,5.15E2,4.52E2,8.77E2,4.08E2,1.642E3,3.222E3,1.646E3,6.7E2,2.2E1,4.93E2,2.59E2,1.93E2,5.53E2,3.24E2,3.2E2,8.8E1,8.39E2,8.03E2,1.176E3,2.046E3,1.84E2,1.462E3,5.53E2,1.17E2,4.11E2,8.2E1,2.42E2,1.7E1,1.21E2,4.32E2,1.09E2,2.15E2,1.47E2,1.73E2,7.3E1,1.5E1,1.4E2,6.99E2,6.35E2,1.68E2,4.08E2,7.68E2,6.29E2,1.417E3,1.59E2,2.5E1,6.3E2,8.32E2,1.5E1,5.38E2,3.8E1,7.9E1,1.69E2,2.42E2,7.7E1,5E0,2.35E2,7E0,1.03E2,1.8E1,3.08E2,1.24E2,3E0,1.06E2,2.07E2,8E0,9.9E1,4.8E1,1.59E2,1.4E1,5.8E1,1.5E1,9.7E1,4.3E1,4.97E2,2.02E2,3.87E2,2.48E2,1.3E2,3.8E1,2.34E2,1.74E2,5.09E2,2.59E2,5.96E2,3.3E1,3.79E2,1.038E3,7.9E1,8E1,1.7E1,8E0,4.74E2,1.56E2,6.1E2,2.22E2,1.82E2,3.56E2,3.3E1,5E0,4.2E1,3.7E1],"tree_param":{"num_deleted":"0","num_feature":"8","num_nodes":"109","size_leaf_vector":"1"}},{"base_weights":[1.29006505E-2,-7.8487916E0,2.5120525E0,-1.1442722E1,-5.374316E0,4.9808073E0,-6.71086E-1,-1.0075106E1,-1.3030677E1,-3.892893E0,-8.581882E0,1.4039016E0,7.2104135E0,5.010319E-1,-5.0350194E0,-8.1433976E-1,-9.716154E0,-6.129371E-1,-7.0287627E-1,-2.7011597E0,-5.0685663E0,-7.685141E0,-1.146622E1,4.6136284E0,-2.667831E-1,9.018735E0,4.653903E0,-5.67492E0,1.3871634E0,-2.7406623E0,-6.4622755E0,-9.998715E0,-3.8480622E-1,3.744918E-1,-3.205673E0,-3.8071842E0,-6.2454076E0,-6.610688E0,-9.492436E0,-1.0692855E1,-7.542104E-1,7.295934E0,3.4371736E0,9.339266E-1,-1.8417714E0,1.2457518E1,7.8303165E0,6.643533E0,2.6123357E0,-4.679781E0,-7.779918E0,2.6410742E0,-1.4666356E0,-5.6345916E-1,-2.20071E0,-5.5483937E0,-8.798973E0,-4.320335E-1,-5.263227E-1,-2.1307886E-1,4.1217968E-2,-1.2359599E-1,-2.1860527E-1,-2.0901516E-1,2.5998978E-3,-3.2192197E-1,-5.9057016E-2,-3.3925945E-1,-1.8477456E-1,-4.8818016E-1,-2.958913E-1,-5.4716915E-1,-3.4567973E-1,5.728241E-1,3.1669453E-1,2.9978332E-1,1.222375E-1,8.837404E-2,-6.046918E-2,-2.3990024E-2,-1.6585591E-1,6.9604754E-1,5.5434245E-1,4.3404898E-1,3.2827625E-1,5.5453575E-1,2.998939E-1,1.9225599E-1,5.3265244E-2,-1.6328691E-1,-3.4949026E-1,-3.5421804E-1,-5.5781895E-1,1.9076774E-1,4.990569E-2,-3.58985E-2,-1.5011178E-1,-8.140594E-2,-1.8838951E-1,-2.5453946E-1,-4.3559518E-1,-3.9772975E-1,-5.0184894E-1],"categories":[],"categories_nodes":[],"categories_segments":[],"categories_sizes":[],"default_left":[0,0,0,0,0,0,0,0,0,0,0,0,0,0,0,0,0,0,0,0,0,0,0,0,0,0,0,0,0,0,0,0,0,0,0,0,0,0,0,0,0,0,0,0,0,0,0,0,0,0,0,0,0,0,0,0,0,0,0,0,0,0,0,0,0,0,0,0,0,0,0,0,0,0,0,0,0,0,0,0,0,0,0,0,0,0,0,0,0,0,0,0,0,0,0,0,0,0,0,0,0,0,0],"id":7,"left_children":[1,3,5,7,9,11,13,15,17,19,21,23,25,27,29,-1,31,-1,-1,33,35,37,39,41,43,45,47,49,51,53,55,57,-1,59,61,63,65,67,69,71,-1,73,75,77,79,81,83,85,87,89,91,93,95,-1,97,99,101,-1,-1,-1,-1,-1,-1,-1,-1,-1,-1,-1,-1,-1,-1,-1,-1,-1,-1,-1,-1,-1,-1,-1,-1,-1,-1,-1,-1,-1,-1,-1,-1,-1,-1,-1,-1,-1,-1,-1,-1,-1,-1,-1,-1,-1,-1],"loss_changes":[1.8555167E5,2.0196953E4,5.631655E4,1.8840625E3,6.3862227E3,3.2177344E4,1.6017727E4,9.6329297E2,1.6534375E2,1.2837178E3,1.01373047E3,8.318377E3,1.1450789E4,1.3519982E4,2.153373E3,0E0,1.9588672E2,0E0,0E0,7.1808936E2,6.6649023E2,5.741758E2,1.15711914E2,1.6505527E3,1.932537E3,5.848625E3,4.174592E3,6.129697E2,7.7332383E3,1.1540786E3,8.224492E2,2.071875E2,0E0,1.4116377E2,3.2897437E2,3.2708252E2,2.2603418E2,8.124414E1,5.8539062E1,4.821289E0,0E0,5.718594E2,9.2735205E2,1.0383452E3,8.865542E2,5.9185156E2,1.1092969E3,1.4323242E3,9.7045996E2,6.7293115E2,1.5111914E2,2.8920645E3,7.56614E2,0E0,2.1101135E2,3.841504E2,3.828418E1,0E0,0E0,0E0,0E0,0E0,0E0,0E0,0E0,0E0,0E0,0E0,0E0,0E0,0E0,0E0,0E0,0E0,0E0,0E0,0E0,0E0,0E0,0E0,0E0,0E0,0E0,0E0,0E0,0E0,0E0,0E0,0E0,0E0,0E0,0E0,0E0,0E0,0E0,0E0,0E0,0E0,0E0,0E0,0E0,0E0,0E0],"parents":[2147483647,0,0,1,1,2,2,3,3,4,4,5,5,6,6,7,7,8,8,9,9,10,10,11,11,12,12,13,13,14,14,16,16,19,19,20,20,21,21,22,22,23,23,24,24,25,25,26,26,27,27,28,28,29,29,30,30,31,31,33,33,34,34,35,35,36,36,37,37,38,38,39,39,41,41,42,42,43,43,44,44,45,45,46,46,47,47,48,48,49,49,50,50,51,51,52,52,54,54,55,55,56,56],"right_children":[2,4,6,8,10,12,14,16,18,20,22,24,26,28,30,-1,32,-1,-1,34,36,38,40,42,44,46,48,50,52,54,56,58,-1,60,62,64,66,68,70,72,-1,74,76,78,80,82,84,86,88,90,92,94,96,-1,98,100,102,-1,-1,-1,-1,-1,-1,-1,-1,-1,-1,-1,-1,-1,-1,-1,-1,-1,-1,-1,-1,-1,-1,-1,-1,-1,-1,-1,-1,-1,-1,-1,-1,-1,-1,-1,-1,-1,-1,-1,-1,-1,-1,-1,-1,-1,-1],"split_conditions":[1.5E1,8E0,9E0,2E0,5E0,2.1E1,1.3E1,3E0,3E0,1.1E1,7E0,5E0,1.7E1,2.1E1,1.4E1,-8.1433976E-1,7E0,-6.129371E-1,-7.0287627E-1,2E0,3E0,1E1,9E0,1.2E1,7E0,6E0,7E0,1.1E1,1.8E1,2.2E1,1.6E1,5E0,-3.8480622E-1,1E1,4E0,1.4E1,1.3E1,1.3E1,1.4E1,1.4E1,-7.542104E-1,3E0,3E0,1.6E1,1E1,5E0,1E1,4E0,2.3E1,1E1,1.5E1,1.1E1,1.1E1,-5.6345916E-1,1.6E1,2.3E1,9E0,-4.320335E-1,-5.263227E-1,-2.1307886E-1,4.1217968E-2,-1.2359599E-1,-2.1860527E-1,-2.0901516E-1,2.5998978E-3,-3.2192197E-1,-5.9057016E-2,-3.3925945E-1,-1.8477456E-1,-4.8818016E-1,-2.958913E-1,-5.4716915E-1,-3.4567973E-1,5.728241E-1,3.1669453E-1,2.9978332E-1,1.222375E-1,8.837404E-2,-6.046918E-2,-2.3990024E-2,-1.6585591E-1,6.9604754E-1,5.5434245E-1,4.3404898E-1,3.2827625E-1,5.5453575E-1,2.998939E-1,1.9225599E-1,5.3265244E-2,-1.6328691E-1,-3.4949026E-1,-3.5421804E-1,-5.5781895E-1,1.9076774E-1,4.990569E-2,-3.58985E-2,-1.5011178E-1,-8.140594E-2,-1.8838951E-1,-2.5453946E-1,-4.3559518E-1,-3.9772975E-1,-5.0184894E-1],"split_indices":[0,0,7,7,7,0,7,0,7,3,7,7,3,0,7,0,3,0,0,7,7,3,7,3,7,7,7,7,3,0,7,3,0,0,7,3,0,0,3,0,0,7,7,3,3,7,3,7,3,3,3,7,7,0,3,3,3,0,0,0,0,0,0,0,0,0,0,0,0,0,0,0,0,0,0,0,0,0,0,0,0,0,0,0,0,0,0,0,0,0,0,0,0,0,0,0,0,0,0,0,0,0,0],"split_type":[0,0,0,0,0,0,0,0,0,0,0,0,0,0,0,0,0,0,0,0,0,0,0,0,0,0,0,0,0,0,0,0,0,0,0,0,0,0,0,0,0,0,0,0,0,0,0,0,0,0,0,0,0,0,0,0,0,0,0,0,0,0,0,0,0,0,0,0,0,0,0,0,0,0,0,0,0,0,0,0,0,0,0,0,0,0,0,0,0,0,0,0,0,0,0,0,0,0,0,0,0,0,0],"sum_hessian":[9.442E3,2.277E3,7.165E3,9.27E2,1.35E3,4.035E3,3.13E3,5.02E2,4.25E2,9.25E2,4.25E2,1.55E3,2.485E3,2.468E3,6.62E2,2.5E1,4.77E2,2.5E2,1.75E2,4.61E2,4.64E2,3.27E2,9.8E1,5.3E2,1.02E3,1.454E3,1.031E3,3.09E2,2.159E3,2.55E2,4.07E2,4.15E2,6.2E1,6.5E1,3.96E2,2.26E2,2.38E2,2.08E2,1.19E2,8.4E1,1.4E1,1.6E2,3.7E2,5.79E2,4.41E2,3.71E2,1.083E3,5.21E2,5.1E2,2.12E2,9.7E1,1.5E3,6.59E2,1.4E1,2.41E2,2.95E2,1.12E2,1.21E2,2.94E2,5E0,6E1,2.45E2,1.51E2,2.06E2,2E1,2.29E2,9E0,1.95E2,1.3E1,1.09E2,1E1,7.7E1,7E0,2.8E1,1.32E2,1.02E2,2.68E2,4.17E2,1.62E2,2.3E2,2.11E2,1.75E2,1.96E2,6.44E2,4.39E2,6.4E1,4.57E2,2.83E2,2.27E2,1.33E2,7.9E1,8.3E1,1.4E1,8.74E2,6.26E2,4.44E2,2.15E2,1.78E2,6.3E1,2.6E2,3.5E1,7.1E1,4.1E1],"tree_param":{"num_deleted":"0","num_feature":"8","num_nodes":"103","size_leaf_vector":"1"}},{"base_weights":[-4.4794403E-2,-7.595679E0,2.2216127E0,-1.0804373E1,-5.143146E0,3.5809557E0,-2.4386904E0,-9.511132E0,-1.2269204E1,-3.7756793E0,-8.123731E0,4.2640018E-1,5.113009E0,-1.2539508E0,-5.8888702E0,-7.599135E-1,-9.173526E0,-5.685971E-1,-6.689144E-1,-2.5442374E0,-5.001177E0,-6.5929227E0,-9.708464E0,3.1188765E0,-2.0678024E0,7.582389E0,3.0147903E0,-7.650805E0,-6.194238E-1,-6.425347E0,-3.4404945E0,-4.153544E-1,-9.716649E0,-9.1258687E-1,-3.4826803E0,-4.012966E0,-5.9435706E0,-5.8241286E0,-7.716183E0,-9.279313E0,-7.0483005E-1,5.1779523E0,1.978275E0,-7.138069E-1,-3.6132052E0,9.290642E0,5.2437687E0,4.411091E0,4.3373525E-1,-8.215748E0,-4.043727E0,8.289942E-1,-2.313183E0,-5.6833754E0,-8.090075E0,-9.7883344E-1,-4.583187E0,-4.129716E-1,-5.0790095E-1,2.0608285E-1,-6.586688E-2,-1.3788278E-1,-2.0539983E-1,-2.16627E-1,-4.6207653E-3,-3.3908755E-1,-2.5776562E-1,-2.985972E-1,-1.9734298E-1,-4.1655898E-1,-2.8720462E-1,-4.1035327E-1,-5.0339895E-1,1.9583473E-1,3.74169E-1,1.9108589E-1,3.135596E-2,-1.9398582E-1,-2.0088466E-2,-4.8636714E-1,-1.7115259E-1,6.448439E-1,4.288158E-1,3.694424E-1,1.8838881E-1,3.032658E-1,1.8105112E-1,7.04745E-2,-4.6881728E-2,-3.40237E-1,-4.7559977E-1,-2.4367443E-1,-8.551248E-2,1.0906126E-1,-1.4848257E-2,-5.592522E-2,-1.6259137E-1,-5.752766E-1,-2.730495E-1,-3.7543553E-1,-5.409143E-1,4.2041387E-2,-9.9582195E-2,-2.6466733E-1,9.309762E-2],"categories":[],"categories_nodes":[],"categories_segments":[],"categories_sizes":[],"default_left":[0,0,0,0,0,0,0,0,0,0,0,0,0,0,0,0,0,0,0,0,0,0,0,0,0,0,0,0,0,0,0,0,0,0,0,0,0,0,0,0,0,0,0,0,0,0,0,0,0,0,0,0,0,0,0,0,0,0,0,0,0,0,0,0,0,0,0,0,0,0,0,0,0,0,0,0,0,0,0,0,0,0,0,0,0,0,0,0,0,0,0,0,0,0,0,0,0,0,0,0,0,0,0,0,0],"id":8,"left_children":[1,3,5,7,9,11,13,15,17,19,21,23,25,27,29,-1,31,-1,-1,33,35,37,39,41,43,45,47,49,51,53,55,-1,57,59,61,63,65,67,69,71,-1,73,75,77,79,81,83,85,87,89,91,93,95,97,99,101,103,-1,-1,-1,-1,-1,-1,-1,-1,-1,-1,-1,-1,-1,-1,-1,-1,-1,-1,-1,-1,-1,-1,-1,-1,-1,-1,-1,-1,-1,-1,-1,-1,-1,-1,-1,-1,-1,-1,-1,-1,-1,-1,-1,-1,-1,-1,-1,-1],"loss_changes":[1.6271377E5,1.7217812E4,4.6336227E4,1.6829688E3,5.047836E3,2.7361977E4,6.7452734E3,8.378711E2,2.8771094E2,1.2790908E3,8.845293E2,1.2443706E4,1.972307E4,4.9918613E3,5.3218945E2,0E0,1.4657422E2,0E0,0E0,6.537112E2,3.7473828E2,1.2949805E2,2.2699414E2,2.0823457E3,2.010376E3,6.942453E3,7.429385E3,1.9297266E2,2.7520347E3,3.801582E2,2.1492175E2,0E0,1.0326367E2,3.2737256E2,1.1198804E2,2.6521533E2,1.0841016E2,1.0838867E1,4.7958008E1,6.6206055E1,0E0,8.9244434E2,1.429801E3,5.0621304E2,4.887207E2,2.4911797E3,2.3182559E3,1.7267422E3,9.714588E2,1.09029785E2,2.4581055E1,9.217948E2,5.761155E2,2.5050098E2,8.372119E1,4.9591896E1,2.5244092E2,0E0,0E0,0E0,0E0,0E0,0E0,0E0,0E0,0E0,0E0,0E0,0E0,0E0,0E0,0E0,0E0,0E0,0E0,0E0,0E0,0E0,0E0,0E0,0E0,0E0,0E0,0E0,0E0,0E0,0E0,0E0,0E0,0E0,0E0,0E0,0E0,0E0,0E0,0E0,0E0,0E0,0E0,0E0,0E0,0E0,0E0,0E0,0E0],"parents":[2147483647,0,0,1,1,2,2,3,3,4,4,5,5,6,6,7,7,8,8,9,9,10,10,11,11,12,12,13,13,14,14,16,16,19,19,20,20,21,21,22,22,23,23,24,24,25,25,26,26,27,27,28,28,29,29,30,30,32,32,33,33,34,34,35,35,36,36,37,37,38,38,39,39,41,41,42,42,43,43,44,44,45,45,46,46,47,47,48,48,49,49,50,50,51,51,52,52,53,53,54,54,55,55,56,56],"right_children":[2,4,6,8,10,12,14,16,18,20,22,24,26,28,30,-1,32,-1,-1,34,36,38,40,42,44,46,48,50,52,54,56,-1,58,60,62,64,66,68,70,72,-1,74,76,78,80,82,84,86,88,90,92,94,96,98,100,102,104,-1,-1,-1,-1,-1,-1,-1,-1,-1,-1,-1,-1,-1,-1,-1,-1,-1,-1,-1,-1,-1,-1,-1,-1,-1,-1,-1,-1,-1,-1,-1,-1,-1,-1,-1,-1,-1,-1,-1,-1,-1,-1,-1,-1,-1,-1,-1,-1],"split_conditions":[1.3E1,1E1,1.1E1,2E0,5E0,2.1E1,1.4E1,4E0,3E0,1.1E1,6E0,6E0,8E0,2.2E1,7E0,-7.599135E-1,1E0,-5.685971E-1,-6.689144E-1,3E0,3E0,9E0,9E0,4E0,8E0,1.7E1,1.7E1,2E1,1E1,1.6E1,8E0,-4.153544E-1,3E0,1E0,4E0,1.4E1,2E0,7E0,1.3E1,1E0,-7.0483005E-1,4E0,1.2E1,1.8E1,1.8E1,5E0,6E0,9E0,2.4E1,1.2E1,1.3E1,1.2E1,1.8E1,1.9E1,1.8E1,1E0,1.4E1,-4.129716E-1,-5.0790095E-1,2.0608285E-1,-6.586688E-2,-1.3788278E-1,-2.0539983E-1,-2.16627E-1,-4.6207653E-3,-3.3908755E-1,-2.5776562E-1,-2.985972E-1,-1.9734298E-1,-4.1655898E-1,-2.8720462E-1,-4.1035327E-1,-5.0339895E-1,1.9583473E-1,3.74169E-1,1.9108589E-1,3.135596E-2,-1.9398582E-1,-2.0088466E-2,-4.8636714E-1,-1.7115259E-1,6.448439E-1,4.288158E-1,3.694424E-1,1.8838881E-1,3.032658E-1,1.8105112E-1,7.04745E-2,-4.6881728E-2,-3.40237E-1,-4.7559977E-1,-2.4367443E-1,-8.551248E-2,1.0906126E-1,-1.4848257E-2,-5.592522E-2,-1.6259137E-1,-5.752766E-1,-2.730495E-1,-3.7543553E-1,-5.409143E-1,4.2041387E-2,-9.9582195E-2,-2.6466733E-1,9.309762E-2],"split_indices":[0,0,7,7,7,0,7,0,7,3,7,7,7,0,4,0,7,0,0,7,7,3,7,7,7,3,3,0,3,7,4,0,3,7,7,3,1,3,3,3,0,4,3,0,0,7,7,7,3,7,3,7,3,0,7,3,4,0,0,0,0,0,0,0,0,0,0,0,0,0,0,0,0,0,0,0,0,0,0,0,0,0,0,0,0,0,0,0,0,0,0,0,0,0,0,0,0,0,0,0,0,0,0,0,0],"split_type":[0,0,0,0,0,0,0,0,0,0,0,0,0,0,0,0,0,0,0,0,0,0,0,0,0,0,0,0,0,0,0,0,0,0,0,0,0,0,0,0,0,0,0,0,0,0,0,0,0,0,0,0,0,0,0,0,0,0,0,0,0,0,0,0,0,0,0,0,0,0,0,0,0,0,0,0,0,0,0,0,0,0,0,0,0,0,0,0,0,0,0,0,0,0,0,0,0,0,0,0,0,0,0,0,0],"sum_hessian":[9.506E3,2.194E3,7.312E3,9.49E2,1.245E3,5.661E3,1.651E3,5.08E2,4.41E2,8.55E2,3.9E2,1.851E3,3.81E3,1.23E3,4.21E2,2.6E1,4.82E2,2.5E2,1.91E2,4.28E2,4.27E2,2.01E2,1.89E2,8.9E2,9.61E2,1.749E3,2.061E3,1.1E2,1.12E3,3.44E2,7.7E1,1.92E2,2.9E2,1.57E2,2.71E2,2.11E2,2.16E2,1.23E2,7.8E1,1.75E2,1.4E1,3.16E2,5.74E2,5.13E2,4.48E2,1.009E3,7.4E2,1.337E3,7.24E2,9.4E1,1.6E1,6.04E2,5.16E2,2.41E2,1.03E2,2.5E1,5.2E1,7.2E1,2.18E2,1.1E1,1.46E2,1.28E2,1.43E2,1.95E2,1.6E1,1.01E2,1.15E2,1.12E2,1.1E1,5.7E1,2.1E1,7.9E1,9.6E1,2.06E2,1.1E2,2.42E2,3.32E2,4.5E1,4.68E2,1.2E1,4.36E2,1.64E2,8.45E2,3E2,4.4E2,4.3E2,9.07E2,4.23E2,3.01E2,4.8E1,4.6E1,1.1E1,5E0,2.74E2,3.3E2,2.28E2,2.88E2,7E0,2.34E2,8.8E1,1.5E1,9E0,1.6E1,4.7E1,5E0],"tree_param":{"num_deleted":"0","num_feature":"8","num_nodes":"105","size_leaf_vector":"1"}},{"base_weights":[1.0745055E-3,-2.6154387E0,3.2815723E0,-5.678545E0,-8.7947667E-1,1.1113378E0,4.1558475E0,-9.073528E0,-1.9113483E0,-2.2036126E0,1.1103535E0,-6.1850605E0,2.5477314E0,3.7831154E0,7.1073174E0,-1.0881591E1,-6.797087E0,-3.5241435E0,-3.7470683E-1,-5.807201E0,-1.6154717E-1,7.6820153E-1,3.7553332E0,-9.598891E0,-3.8860803E0,1.8683631E0,4.4672055E0,1.9166243E0,4.5033007E0,5.9120708E0,9.382027E0,-1.4059614E1,-1.0579841E1,-9.308825E0,-4.398256E0,-4.719953E0,-1.658217E0,-6.3569945E-1,4.8740416E0,-4.472626E-1,-5.251206E0,-7.1727014E-1,1.703969E0,-4.188126E-2,1.9391497E0,3.1041129E0,6.6793947E0,-5.541338E-1,-6.330764E0,-5.5345507E0,1.4775531E0,8.60737E-1,4.6236167E0,3.8585935E0,8.434999E0,-3.589932E0,2.3733697E0,3.7932432E0,5.833087E0,6.514315E0,4.5752835E0,8.571682E0,7.7440596E-1,-7.462392E-1,-5.014328E-1,-5.311069E-1,-1.2869094E-1,-4.7344533E-1,-1.0638986E-1,-2.2266965E-1,-8.033765E-2,-2.4491082E-1,-2.6183534E-2,-1.6464525E-1,-3.9165456E-2,-3.887794E-2,3.1299716E-1,-2.0475908E-1,3.547356E-1,-2.767844E-1,-3.0953873E-2,-7.756091E-2,-1.4992091E-2,7.189283E-2,2.985555E-1,-1.1227512E-1,8.944563E-3,8.6535916E-2,3.7876707E-1,1.9142939E-1,1.1990931E-1,2.0574598E-1,4.2283234E-1,-3.473479E-1,-1.1150595E-1,-3.0157736E-1,-2.020481E-1,1.4978929E-2,2.9715964E-1,-5.2352495E-2,7.798484E-2,2.0493343E-1,2.833444E-1,1.5210646E-1,3.1931388E-1,5.820307E-1,2.0505719E-1,-2.6651913E-2,-2.8984874E-1,9.978827E-2,3.4121093E-1,1.7500198E-1,2.9116157E-1,2.3413038E-1,3.8161775E-1,4.034032E-1,2.581439E-1,2.6252326E-1,-1.8633987E-1,3.287451E-1,5.4774135E-1],"categories":[],"categories_nodes":[],"categories_segments":[],"categories_sizes":[],"default_left":[0,0,0,0,0,0,0,0,0,0,0,0,0,0,0,0,0,0,0,0,0,0,0,0,0,0,0,0,0,0,0,0,0,0,0,0,0,0,0,0,0,0,0,0,0,0,0,0,0,0,0,0,0,0,0,0,0,0,0,0,0,0,0,0,0,0,0,0,0,0,0,0,0,0,0,0,0,0,0,0,0,0,0,0,0,0,0,0,0,0,0,0,0,0,0,0,0,0,0,0,0,0,0,0,0,0,0,0,0,0,0,0,0,0,0,0,0,0,0,0,0],"id":9,"left_children":[1,3,5,7,9,11,13,15,17,19,21,23,25,27,29,31,33,35,37,39,41,43,45,47,49,51,53,55,57,59,61,63,65,67,69,71,73,75,77,-1,79,81,83,85,87,89,91,-1,93,95,97,99,101,103,105,107,109,111,113,115,117,119,-1,-1,-1,-1,-1,-1,-1,-1,-1,-1,-1,-1,-1,-1,-1,-1,-1,-1,-1,-1,-1,-1,-1,-1,-1,-1,-1,-1,-1,-1,-1,-1,-1,-1,-1,-1,-1,-1,-1,-1,-1,-1,-1,-1,-1,-1,-1,-1,-1,-1,-1,-1,-1,-1,-1,-1,-1,-1,-1],"loss_changes":[8.088201E4,2.7869008E4,7.928332E3,2.4231691E4,8.821142E3,1.2613318E4,3.2514375E3,4.0296406E3,2.2291387E3,1.4790176E4,1.2079852E3,1.5166675E3,1.3022041E3,3.5508633E3,8.4990625E2,3.8251562E2,2.6342617E3,9.7171045E2,6.359852E2,1.2214512E3,1.332358E3,1.1250792E3,2.706101E2,3.129248E2,1.0691925E3,2.0615618E3,6.001426E2,1.8671748E3,1.7813438E3,1.4811621E2,4.2636914E2,7.260742E0,1.4535938E2,2.281582E2,2.809082E1,1.9716309E2,2.4484549E2,4.3625858E2,4.6724335E2,0E0,8.13584E2,3.4416727E2,3.2639856E2,3.41924E2,5.5664795E2,5.576953E1,8.826001E1,0E0,5.2730957E1,4.391919E1,1.5077141E2,7.297057E2,8.575879E1,4.5317407E2,4.2461133E2,3.8147174E2,1.1342708E3,7.2242773E2,1.3366855E3,2.7331494E2,4.2315735E2,4.1335205E2,0E0,0E0,0E0,0E0,0E0,0E0,0E0,0E0,0E0,0E0,0E0,0E0,0E0,0E0,0E0,0E0,0E0,0E0,0E0,0E0,0E0,0E0,0E0,0E0,0E0,0E0,0E0,0E0,0E0,0E0,0E0,0E0,0E0,0E0,0E0,0E0,0E0,0E0,0E0,0E0,0E0,0E0,0E0,0E0,0E0,0E0,0E0,0E0,0E0,0E0,0E0,0E0,0E0,0E0,0E0,0E0,0E0,0E0,0E0],"parents":[2147483647,0,0,1,1,2,2,3,3,4,4,5,5,6,6,7,7,8,8,9,9,10,10,11,11,12,12,13,13,14,14,15,15,16,16,17,17,18,18,19,19,20,20,21,21,22,22,23,23,24,24,25,25,26,26,27,27,28,28,29,29,30,30,31,31,32,32,33,33,34,34,35,35,36,36,37,37,38,38,40,40,41,41,42,42,43,43,44,44,45,45,46,46,48,48,49,49,50,50,51,51,52,52,53,53,54,54,55,55,56,56,57,57,58,58,59,59,60,60,61,61],"right_children":[2,4,6,8,10,12,14,16,18,20,22,24,26,28,30,32,34,36,38,40,42,44,46,48,50,52,54,56,58,60,62,64,66,68,70,72,74,76,78,-1,80,82,84,86,88,90,92,-1,94,96,98,100,102,104,106,108,110,112,114,116,118,120,-1,-1,-1,-1,-1,-1,-1,-1,-1,-1,-1,-1,-1,-1,-1,-1,-1,-1,-1,-1,-1,-1,-1,-1,-1,-1,-1,-1,-1,-1,-1,-1,-1,-1,-1,-1,-1,-1,-1,-1,-1,-1,-1,-1,-1,-1,-1,-1,-1,-1,-1,-1,-1,-1,-1,-1,-1,-1,-1],"split_conditions":[5E0,7E0,1E0,9E0,6E0,7E0,1.3E1,6E0,4E0,1.6E1,1.9E1,6E0,8E0,1E0,1.4E1,3E0,2E0,1.7E1,2E0,9E0,2.5E1,8E0,7E0,7E0,1.2E1,1.9E1,1.4E1,8E0,7E0,2E0,1.6E1,4E0,4E0,1E0,2E0,2E0,2E0,2.1E1,2E0,-4.472626E-1,1E0,1.9E1,2.7E1,9E0,1.5E1,2E0,2E1,-5.541338E-1,1.3E1,7E0,1.4E1,1.3E1,2E1,1.4E1,2E0,2E0,2E1,1.3E1,7E0,8E0,7E0,1E0,7.7440596E-1,-7.462392E-1,-5.014328E-1,-5.311069E-1,-1.2869094E-1,-4.7344533E-1,-1.0638986E-1,-2.2266965E-1,-8.033765E-2,-2.4491082E-1,-2.6183534E-2,-1.6464525E-1,-3.9165456E-2,-3.887794E-2,3.1299716E-1,-2.0475908E-1,3.547356E-1,-2.767844E-1,-3.0953873E-2,-7.756091E-2,-1.4992091E-2,7.189283E-2,2.985555E-1,-1.1227512E-1,8.944563E-3,8.6535916E-2,3.7876707E-1,1.9142939E-1,1.1990931E-1,2.0574598E-1,4.2283234E-1,-3.473479E-1,-1.1150595E-1,-3.0157736E-1,-2.020481E-1,1.4978929E-2,2.9715964E-1,-5.2352495E-2,7.798484E-2,2.0493343E-1,2.833444E-1,1.5210646E-1,3.1931388E-1,5.820307E-1,2.0505719E-1,-2.6651913E-2,-2.8984874E-1,9.978827E-2,3.4121093E-1,1.7500198E-1,2.9116157E-1,2.3413038E-1,3.8161775E-1,4.034032E-1,2.581439E-1,2.6252326E-1,-1.8633987E-1,3.287451E-1,5.4774135E-1],"split_indices":[4,3,2,2,2,3,4,2,3,3,3,3,4,3,4,3,3,2,4,3,3,2,2,4,4,3,4,2,4,1,4,2,4,4,4,4,1,2,1,0,4,3,3,3,3,1,3,0,4,4,4,3,3,3,1,1,2,3,3,2,3,3,0,0,0,0,0,0,0,0,0,0,0,0,0,0,0,0,0,0,0,0,0,0,0,0,0,0,0,0,0,0,0,0,0,0,0,0,0,0,0,0,0,0,0,0,0,0,0,0,0,0,0,0,0,0,0,0,0,0,0],"split_type":[0,0,0,0,0,0,0,0,0,0,0,0,0,0,0,0,0,0,0,0,0,0,0,0,0,0,0,0,0,0,0,0,0,0,0,0,0,0,0,0,0,0,0,0,0,0,0,0,0,0,0,0,0,0,0,0,0,0,0,0,0,0,0,0,0,0,0,0,0,0,0,0,0,0,0,0,0,0,0,0,0,0,0,0,0,0,0,0,0,0,0,0,0,0,0,0,0,0,0,0,0,0,0,0,0,0,0,0,0,0,0,0,0,0,0,0,0,0,0,0,0],"sum_hessian":[9.421E3,5.241E3,4.18E3,1.895E3,3.346E3,1.201E3,2.979E3,9.96E2,8.99E2,2.009E3,1.337E3,1.97E2,1.004E3,2.647E3,3.32E2,5.53E2,4.43E2,4.38E2,4.61E2,7.26E2,1.283E3,1.185E3,1.52E2,7.8E1,1.19E2,7.43E2,2.61E2,7.38E2,1.909E3,2.2E2,1.12E2,4.4E1,5.09E2,2.15E2,2.28E2,2.66E2,1.72E2,4.4E2,2.1E1,1.07E2,6.19E2,9.89E2,2.94E2,7.01E2,4.84E2,1.26E2,2.6E1,5.2E1,2.6E1,9.1E1,2.8E1,5.45E2,1.98E2,2.28E2,3.3E1,5.6E1,6.82E2,1.247E3,6.62E2,1.49E2,7.1E1,1.01E2,1.1E1,3.4E1,1E1,5.06E2,3E0,2.1E2,5E0,2.23E2,5E0,2.55E2,1.1E1,5.9E1,1.13E2,4.32E2,8E0,4E0,1.7E1,5.83E2,3.6E1,3.29E2,6.6E2,2.78E2,1.6E1,6.3E1,6.38E2,4.68E2,1.6E1,6E1,6.6E1,1.2E1,1.4E1,2.2E1,4E0,6.6E1,2.5E1,2.3E1,5E0,1.46E2,3.99E2,1.35E2,6.3E1,1.74E2,5.4E1,1.8E1,1.5E1,2.4E1,3.2E1,6.3E2,5.2E1,1.092E3,1.55E2,4.06E2,2.56E2,6.7E1,8.2E1,6.6E1,5E0,5.7E1,4.4E1],"tree_param":{"num_deleted":"0","num_feature":"8","num_nodes":"121","size_leaf_vector":"1"}},{"base_weights":[-7.958704E-3,-6.8542767E0,2.1315763E0,-9.827227E0,-4.6912265E0,4.35505E0,-6.9054985E-1,-8.580759E0,-1.1268876E1,-3.3730686E0,-7.4513273E0,1.1375163E0,6.3274636E0,3.6261413E-1,-4.6028414E0,-6.835468E-1,-8.290789E0,-1.1564284E1,-8.584134E0,-4.250306E0,-1.8390021E0,-6.601992E0,-1.0103181E1,3.0982897E0,-1.2638047E0,3.905128E0,7.628927E0,-5.29512E0,1.1026424E0,-3.9144104E0,-7.801794E0,-8.391923E0,-5.195087E0,-1.1172866E1,-1.411222E1,-3.3922714E-1,-4.832943E-1,-2.3354394E0,-4.7939367E0,1.969351E0,-2.3536925E0,-5.5187225E0,-8.37048E0,-9.417236E0,-6.449124E-1,5.199318E0,1.8952861E0,-1.9941585E0,1.7706001E0,6.690824E0,2.950635E0,9.368811E0,6.0456853E0,-4.721881E0,-9.320287E0,2.1747003E0,-1.4776114E0,-5.3728336E-1,-3.5988755E0,-4.9430805E-1,-6.7661433E0,-3.8185906E-1,-4.4304928E-1,-1.2619095E-1,-2.8890166E-1,-5.6948924E-1,-4.8034748E-1,-7.228872E-1,-3.3485097E-1,-1.2125768E-3,-1.3602065E-1,-2.5031075E-1,-1.024934E-1,1.5439014E-1,-3.1268403E-1,-1.3904183E-1,-1.1983807E-2,-2.8710714E-1,-1.7148663E-1,-4.6080622E-1,-2.9308873E-1,-5.3066885E-1,-4.1495094E-1,3.337765E-1,1.4590916E-1,3.8600672E-2,2.200541E-1,-3.68656E-2,-1.4149211E-1,2.0308416E-1,4.2740438E-2,6.261069E-1,3.134098E-1,6.965507E-2,2.2471909E-1,4.1165805E-1,5.862985E-1,2.4277006E-1,3.8162357E-1,-3.2223853E-1,-1.7462872E-1,-4.8699895E-1,-2.4270697E-1,1.647106E-1,3.0648425E-2,-2.9195959E-2,-1.5911129E-1,-2.7156204E-1,-1.3192536E-1,-3.5161158E-1,-2.2046852E-1],"categories":[],"categories_nodes":[],"categories_segments":[],"categories_sizes":[],"default_left":[0,0,0,0,0,0,0,0,0,0,0,0,0,0,0,0,0,0,0,0,0,0,0,0,0,0,0,0,0,0,0,0,0,0,0,0,0,0,0,0,0,0,0,0,0,0,0,0,0,0,0,0,0,0,0,0,0,0,0,0,0,0,0,0,0,0,0,0,0,0,0,0,0,0,0,0,0,0,0,0,0,0,0,0,0,0,0,0,0,0,0,0,0,0,0,0,0,0,0,0,0,0,0,0,0,0,0,0,0,0,0],"id":10,"left_children":[1,3,5,7,9,11,13,15,17,19,21,23,25,27,29,-1,31,33,35,37,39,41,43,45,47,49,51,53,55,57,59,61,63,65,67,-1,-1,69,71,73,75,77,79,81,-1,83,85,87,89,91,93,95,97,99,101,103,105,-1,107,-1,109,-1,-1,-1,-1,-1,-1,-1,-1,-1,-1,-1,-1,-1,-1,-1,-1,-1,-1,-1,-1,-1,-1,-1,-1,-1,-1,-1,-1,-1,-1,-1,-1,-1,-1,-1,-1,-1,-1,-1,-1,-1,-1,-1,-1,-1,-1,-1,-1,-1,-1],"loss_changes":[1.3817397E5,1.4397109E4,4.510088E4,1.6014375E3,4.711865E3,2.550496E4,1.305473E4,6.4089453E2,2.4572656E2,1.1804736E3,8.792715E2,7.20313E3,7.8264375E3,1.0460486E4,1.4493789E3,0E0,1.085625E2,2.3027734E2,2.5916748E1,5.7279395E2,6.3775476E2,5.687617E2,7.026074E1,2.1183389E3,1.5282689E3,2.301501E3,4.4058984E3,6.228242E2,6.113708E3,1.1576309E3,1.8783301E2,9.8359375E1,1.34470215E1,6.75E0,2.615918E1,0E0,0E0,1.1204205E2,2.4371094E2,3.7799557E2,2.5668555E2,7.4583496E1,2.0055371E2,2.4273438E1,0E0,1.01095605E3,1.5080919E3,5.808445E2,2.7768063E2,4.6862207E2,1.5614321E3,1.9646797E3,1.570248E3,5.175703E2,1.8324951E1,2.7271958E3,9.8682874E2,0E0,9.21854E2,0E0,2.041504E1,0E0,0E0,0E0,0E0,0E0,0E0,0E0,0E0,0E0,0E0,0E0,0E0,0E0,0E0,0E0,0E0,0E0,0E0,0E0,0E0,0E0,0E0,0E0,0E0,0E0,0E0,0E0,0E0,0E0,0E0,0E0,0E0,0E0,0E0,0E0,0E0,0E0,0E0,0E0,0E0,0E0,0E0,0E0,0E0,0E0,0E0,0E0,0E0,0E0,0E0],"parents":[2147483647,0,0,1,1,2,2,3,3,4,4,5,5,6,6,7,7,8,8,9,9,10,10,11,11,12,12,13,13,14,14,16,16,17,17,18,18,19,19,20,20,21,21,22,22,23,23,24,24,25,25,26,26,27,27,28,28,29,29,30,30,31,31,32,32,33,33,34,34,37,37,38,38,39,39,40,40,41,41,42,42,43,43,45,45,46,46,47,47,48,48,49,49,50,50,51,51,52,52,53,53,54,54,55,55,56,56,58,58,60,60],"right_children":[2,4,6,8,10,12,14,16,18,20,22,24,26,28,30,-1,32,34,36,38,40,42,44,46,48,50,52,54,56,58,60,62,64,66,68,-1,-1,70,72,74,76,78,80,82,-1,84,86,88,90,92,94,96,98,100,102,104,106,-1,108,-1,110,-1,-1,-1,-1,-1,-1,-1,-1,-1,-1,-1,-1,-1,-1,-1,-1,-1,-1,-1,-1,-1,-1,-1,-1,-1,-1,-1,-1,-1,-1,-1,-1,-1,-1,-1,-1,-1,-1,-1,-1,-1,-1,-1,-1,-1,-1,-1,-1,-1,-1],"split_conditions":[1.5E1,9E0,9E0,2E0,5E0,2E1,1.3E1,3E0,7E0,1E0,7E0,6E0,5E0,2E1,1.6E1,-6.835468E-1,7E0,4E0,3E0,2E0,2E0,1E1,9E0,4E0,1.3E1,6E0,7E0,1.2E1,1.8E1,2.2E1,8E0,1E0,1E0,7E0,8E0,-3.3922714E-1,-4.832943E-1,1E0,1.4E1,1.3E1,1.3E1,7E0,1.3E1,7E0,-6.449124E-1,1.8E1,7E0,7E0,7E0,3E0,6E0,7E0,8E0,8E0,1.9E1,1.1E1,1.1E1,-5.3728336E-1,7E0,-4.9430805E-1,7E0,-3.8185906E-1,-4.4304928E-1,-1.2619095E-1,-2.8890166E-1,-5.6948924E-1,-4.8034748E-1,-7.228872E-1,-3.3485097E-1,-1.2125768E-3,-1.3602065E-1,-2.5031075E-1,-1.024934E-1,1.5439014E-1,-3.1268403E-1,-1.3904183E-1,-1.1983807E-2,-2.8710714E-1,-1.7148663E-1,-4.6080622E-1,-2.9308873E-1,-5.3066885E-1,-4.1495094E-1,3.337765E-1,1.4590916E-1,3.8600672E-2,2.200541E-1,-3.68656E-2,-1.4149211E-1,2.0308416E-1,4.2740438E-2,6.261069E-1,3.134098E-1,6.965507E-2,2.2471909E-1,4.1165805E-1,5.862985E-1,2.4277006E-1,3.8162357E-1,-3.2223853E-1,-1.7462872E-1,-4.8699895E-1,-2.4270697E-1,1.647106E-1,3.0648425E-2,-2.9195959E-2,-1.5911129E-1,-2.7156204E-1,-1.3192536E-1,-3.5161158E-1,-2.2046852E-1],"split_indices":[0,0,7,7,7,0,7,0,2,2,7,7,4,0,7,0,2,7,7,7,7,3,7,7,2,7,7,7,3,0,2,7,7,3,0,0,0,7,3,2,2,3,3,2,0,3,2,7,7,7,2,2,2,2,0,7,7,0,2,0,4,0,0,0,0,0,0,0,0,0,0,0,0,0,0,0,0,0,0,0,0,0,0,0,0,0,0,0,0,0,0,0,0,0,0,0,0,0,0,0,0,0,0,0,0,0,0,0,0,0,0],"split_type":[0,0,0,0,0,0,0,0,0,0,0,0,0,0,0,0,0,0,0,0,0,0,0,0,0,0,0,0,0,0,0,0,0,0,0,0,0,0,0,0,0,0,0,0,0,0,0,0,0,0,0,0,0,0,0,0,0,0,0,0,0,0,0,0,0,0,0,0,0,0,0,0,0,0,0,0,0,0,0,0,0,0,0,0,0,0,0,0,0,0,0,0,0,0,0,0,0,0,0,0,0,0,0,0,0,0,0,0,0,0,0],"sum_hessian":[9.431E3,2.245E3,7.186E3,9.44E2,1.301E3,4.019E3,3.167E3,5.1E2,4.34E2,8.82E2,4.19E2,1.528E3,2.491E3,2.496E3,6.71E2,2.5E1,4.85E2,3.88E2,4.6E1,5.6E2,3.22E2,3.2E2,9.9E1,8.41E2,6.87E2,8.72E2,1.619E3,2.88E2,2.208E3,5.54E2,1.17E2,4.68E2,1.7E1,3.41E2,4.7E1,2E1,2.6E1,1.25E2,4.35E2,3.8E1,2.84E2,2.01E2,1.19E2,8.3E1,1.6E1,3.05E2,5.36E2,5.54E2,1.33E2,2.21E2,6.51E2,7.69E2,8.5E2,2.54E2,3.4E1,1.56E3,6.48E2,2.3E1,5.31E2,3.6E1,8.1E1,1.86E2,2.82E2,4E0,1.3E1,2.94E2,4.7E1,4.4E1,3E0,1.8E1,1.07E2,4.03E2,3.2E1,3.4E1,4E0,2.36E2,4.8E1,1.8E2,2.1E1,8.7E1,3.2E1,3.6E1,4.7E1,1.84E2,1.21E2,3.71E2,1.65E2,2.22E2,3.32E2,3.7E1,9.6E1,1.3E1,2.08E2,3.25E2,3.26E2,5.22E2,2.47E2,4.88E2,3.62E2,1.04E2,1.5E2,3E1,4E0,9.08E2,6.52E2,4.26E2,2.22E2,1.81E2,3.5E2,7.1E1,1E1],"tree_param":{"num_deleted":"0","num_feature":"8","num_nodes":"111","size_leaf_vector":"1"}},{"base_weights":[-2.9361807E-2,-6.480543E0,2.0019207E0,-9.287211E0,-4.3786798E0,3.699291E0,-1.5372057E0,-8.136571E0,-1.0608325E1,-3.0432754E0,-7.1247306E0,8.2893246E-1,5.127985E0,-6.897573E-1,-5.5264463E0,-6.5645325E-1,-7.857337E0,-1.0867935E1,-7.7851386E0,-3.9704382E0,-1.5019171E0,-6.237417E0,-9.985597E0,3.019842E0,-1.4238042E0,6.764519E0,3.113812E0,-6.3633447E0,-6.772956E-2,-7.302966E0,-4.543231E0,-7.041744E0,-8.37461E0,-1.0500391E1,-1.3213236E1,-2.933217E-1,-4.515836E-1,-1.6454915E0,-4.6135945E0,8.083879E-1,-2.75306E0,-7.6526823E0,-5.1051493E0,-1.0559121E1,-3.8281575E-1,4.860517E0,1.9662656E0,-2.0852344E0,9.9429417E-1,4.5193906E0,7.95867E0,4.2903376E0,1.0059158E0,-5.3913813E0,-8.633376E0,-1.982447E0,1.3092562E0,-6.5243826E0,-4.641311E-1,-4.7165685E0,2.6894823E-1,-3.562245E-1,-1.2114334E-1,-4.364264E-1,-3.3478147E-1,-6.90605E-1,-5.1721305E-1,-6.750953E-1,-3.222941E-1,4.5123577E-2,-1.0394999E-1,-2.4190263E-1,-9.037492E-2,4.553605E-1,2.5373518E-2,-1.5807618E-1,-5.0737794E-2,-3.4050736E-1,-4.6587387E-1,-2.7213937E-1,-7.4402444E-2,-5.376236E-1,-2.195353E-1,3.0886778E-1,1.4108752E-1,3.816583E-2,2.2981313E-1,-5.799777E-2,-1.74453E-1,1.8775953E-1,1.01966625E-2,3.149486E-1,1.689434E-1,4.8545775E-1,3.4357518E-1,1.8376017E-1,2.8551364E-1,9.7001046E-2,-8.5562505E-3,-3.3538195E-1,-1.7362545E-1,-4.627633E-1,-1.5234041E-1,-3.555683E-2,-1.4552985E-1,1.283813E-1,-2.9470429E-2,-3.4760007E-1,-2.1690117E-1,-2.0779903E-1,-3.763668E-1],"categories":[],"categories_nodes":[],"categories_segments":[],"categories_sizes":[],"default_left":[0,0,0,0,0,0,0,0,0,0,0,0,0,0,0,0,0,0,0,0,0,0,0,0,0,0,0,0,0,0,0,0,0,0,0,0,0,0,0,0,0,0,0,0,0,0,0,0,0,0,0,0,0,0,0,0,0,0,0,0,0,0,0,0,0,0,0,0,0,0,0,0,0,0,0,0,0,0,0,0,0,0,0,0,0,0,0,0,0,0,0,0,0,0,0,0,0,0,0,0,0,0,0,0,0,0,0,0,0,0,0],"id":11,"left_children":[1,3,5,7,9,11,13,15,17,19,21,23,25,27,29,-1,31,33,35,37,39,41,43,45,47,49,51,53,55,57,59,61,63,65,67,-1,-1,69,71,73,75,77,79,81,-1,83,85,87,89,91,93,95,97,99,101,103,105,107,-1,109,-1,-1,-1,-1,-1,-1,-1,-1,-1,-1,-1,-1,-1,-1,-1,-1,-1,-1,-1,-1,-1,-1,-1,-1,-1,-1,-1,-1,-1,-1,-1,-1,-1,-1,-1,-1,-1,-1,-1,-1,-1,-1,-1,-1,-1,-1,-1,-1,-1,-1,-1],"loss_changes":[1.23179086E5,1.3238516E4,4.295121E4,1.3775703E3,4.7051934E3,1.9811125E4,7.832594E3,6.203633E2,2.4154297E2,1.235916E3,1.006416E3,7.9357153E3,1.06126875E4,6.7507925E3,6.759824E2,0E0,1.4943945E2,2.1036719E2,4.507715E1,8.028633E2,9.503167E2,4.8012793E2,5.0073242E1,1.5709658E3,1.2704001E3,4.7335703E3,3.5867158E3,3.7046143E2,4.550625E3,1.5984619E2,4.794209E2,5.841211E1,1.18041016E2,4.0679688E1,1.2598633E1,0E0,0E0,1.3331924E2,2.5831152E2,2.850606E2,1.4802905E2,1.3572266E2,2.1539355E2,4.3432617E1,0E0,7.7724805E2,1.6416427E3,8.051863E2,3.7237405E2,1.2370996E3,2.1408438E3,7.9044727E2,5.720615E2,3.1768066E2,1.6288379E2,8.498657E2,2.4002925E3,6.894385E1,0E0,3.7839404E2,0E0,0E0,0E0,0E0,0E0,0E0,0E0,0E0,0E0,0E0,0E0,0E0,0E0,0E0,0E0,0E0,0E0,0E0,0E0,0E0,0E0,0E0,0E0,0E0,0E0,0E0,0E0,0E0,0E0,0E0,0E0,0E0,0E0,0E0,0E0,0E0,0E0,0E0,0E0,0E0,0E0,0E0,0E0,0E0,0E0,0E0,0E0,0E0,0E0,0E0,0E0],"parents":[2147483647,0,0,1,1,2,2,3,3,4,4,5,5,6,6,7,7,8,8,9,9,10,10,11,11,12,12,13,13,14,14,16,16,17,17,18,18,19,19,20,20,21,21,22,22,23,23,24,24,25,25,26,26,27,27,28,28,29,29,30,30,31,31,32,32,33,33,34,34,37,37,38,38,39,39,40,40,41,41,42,42,43,43,45,45,46,46,47,47,48,48,49,49,50,50,51,51,52,52,53,53,54,54,55,55,56,56,57,57,59,59],"right_children":[2,4,6,8,10,12,14,16,18,20,22,24,26,28,30,-1,32,34,36,38,40,42,44,46,48,50,52,54,56,58,60,62,64,66,68,-1,-1,70,72,74,76,78,80,82,-1,84,86,88,90,92,94,96,98,100,102,104,106,108,-1,110,-1,-1,-1,-1,-1,-1,-1,-1,-1,-1,-1,-1,-1,-1,-1,-1,-1,-1,-1,-1,-1,-1,-1,-1,-1,-1,-1,-1,-1,-1,-1,-1,-1,-1,-1,-1,-1,-1,-1,-1,-1,-1,-1,-1,-1,-1,-1,-1,-1,-1,-1],"split_conditions":[1.5E1,9E0,1E1,2E0,5E0,1.9E1,1.4E1,3E0,7E0,1E0,7E0,6E0,8E0,2.1E1,8E0,-6.5645325E-1,1E0,4E0,3E0,2E0,3E0,1E0,1.3E1,4E0,1.3E1,5E0,1.7E1,1.2E1,7E0,1.6E1,2.2E1,7E0,5E0,5E0,8E0,-2.933217E-1,-4.515836E-1,1E0,1.4E1,1E0,1.3E1,6E0,1E0,1.4E1,-3.8281575E-1,1.8E1,7E0,8E0,7E0,6E0,6E0,1.3E1,9E0,1.3E1,2E1,1.1E1,1.2E1,7E0,-4.641311E-1,1.7E1,2.6894823E-1,-3.562245E-1,-1.2114334E-1,-4.364264E-1,-3.3478147E-1,-6.90605E-1,-5.1721305E-1,-6.750953E-1,-3.222941E-1,4.5123577E-2,-1.0394999E-1,-2.4190263E-1,-9.037492E-2,4.553605E-1,2.5373518E-2,-1.5807618E-1,-5.0737794E-2,-3.4050736E-1,-4.6587387E-1,-2.7213937E-1,-7.4402444E-2,-5.376236E-1,-2.195353E-1,3.0886778E-1,1.4108752E-1,3.816583E-2,2.2981313E-1,-5.799777E-2,-1.74453E-1,1.8775953E-1,1.01966625E-2,3.149486E-1,1.689434E-1,4.8545775E-1,3.4357518E-1,1.8376017E-1,2.8551364E-1,9.7001046E-2,-8.5562505E-3,-3.3538195E-1,-1.7362545E-1,-4.627633E-1,-1.5234041E-1,-3.555683E-2,-1.4552985E-1,1.283813E-1,-2.9470429E-2,-3.4760007E-1,-2.1690117E-1,-2.0779903E-1,-3.763668E-1],"split_indices":[0,0,7,7,7,0,7,0,2,2,7,7,7,0,2,0,7,7,7,7,7,2,2,7,2,4,3,7,2,7,2,2,2,0,0,0,0,7,3,7,2,7,4,3,0,3,2,7,7,7,7,2,7,2,0,7,7,4,0,7,0,0,0,0,0,0,0,0,0,0,0,0,0,0,0,0,0,0,0,0,0,0,0,0,0,0,0,0,0,0,0,0,0,0,0,0,0,0,0,0,0,0,0,0,0,0,0,0,0,0,0],"split_type":[0,0,0,0,0,0,0,0,0,0,0,0,0,0,0,0,0,0,0,0,0,0,0,0,0,0,0,0,0,0,0,0,0,0,0,0,0,0,0,0,0,0,0,0,0,0,0,0,0,0,0,0,0,0,0,0,0,0,0,0,0,0,0,0,0,0,0,0,0,0,0,0,0,0,0,0,0,0,0,0,0,0,0,0,0,0,0,0,0,0,0,0,0,0,0,0,0,0,0,0,0,0,0,0,0,0,0,0,0,0,0],"sum_hessian":[9.398E3,2.25E3,7.148E3,9.62E2,1.288E3,4.831E3,2.317E3,5.18E2,4.44E2,8.68E2,4.2E2,1.606E3,3.225E3,1.912E3,4.05E2,2.5E1,4.93E2,4.04E2,4E1,5.41E2,3.27E2,3.23E2,9.7E1,8.14E2,7.92E2,1.778E3,1.447E3,1.88E2,1.724E3,1.42E2,2.63E2,1.97E2,2.96E2,3.54E2,5E1,1.8E1,2.2E1,1.18E2,4.23E2,1.15E2,2.12E2,1.41E2,1.82E2,7.5E1,2.2E1,2.95E2,5.19E2,6.22E2,1.7E2,6.19E2,1.159E3,9.28E2,5.19E2,1.34E2,5.4E1,7.21E2,1.003E3,1.05E2,3.7E1,2.59E2,4E0,1.93E2,4E0,2.41E2,5.5E1,1.2E1,3.42E2,4.7E1,3E0,1.7E1,1.01E2,3.91E2,3.2E1,3E0,1.12E2,1.71E2,4.1E1,9.7E1,4.4E1,1.66E2,1.6E1,7.2E1,3E0,1.78E2,1.17E2,3.57E2,1.62E2,3.76E2,2.46E2,3.7E1,1.33E2,2.4E2,3.79E2,4.41E2,7.18E2,6.5E2,2.78E2,2.89E2,2.3E2,7.8E1,5.6E1,4.8E1,6E0,3.05E2,4.16E2,6.03E2,4E2,8.6E1,1.9E1,2.18E2,4.1E1],"tree_param":{"num_deleted":"0","num_feature":"8","num_nodes":"111","size_leaf_vector":"1"}},{"base_weights":[-2.0048788E-2,-2.261868E0,2.8079486E0,-4.6143074E0,-1.2094855E0,4.000725E0,-1.240174E0,-4.9397955E0,1.4389019E0,-7.4238676E-1,-4.3895683E0,1.2020565E0,5.3355546E0,8.7381884E-2,-3.2598357E0,-5.497345E0,-3.2983975E0,2.7096925E0,-7.1081084E-1,-1.6375988E0,-1.0523199E-1,-3.0365362E0,-6.1190343E0,7.239871E-1,5.712573E0,6.960324E0,3.7513556E0,-9.0011275E-1,2.1141572E0,-2.6904683E0,-6.2926784E0,-6.4487543E0,-4.7338862E0,-3.062299E0,-4.7524577E-1,3.9311297E0,1.4787261E0,-3.0119166E-1,2.6332918E-1,-1.4943281E0,-2.109865E-1,-2.695659E-1,2.4377851E0,-3.2523189E0,3.4386714E0,-7.6972146E0,-5.121855E0,-1.845484E0,1.1688471E0,4.246667E0,8.093801E0,5.7280173E0,8.092179E0,2.3242614E0,4.427653E0,-1.086058E0,5.0166774E0,2.6152E0,1.823926E-1,-2.8980865E0,3.4051826E0,-6.9885335E0,-1.6503129E0,-3.1563222E-1,-5.264308E-1,-2.3466666E-1,-4.4889513E-1,-1.1123734E-1,-1.8247506E-1,4.9561813E-2,2.3817681E-1,8.9051925E-2,5.2459832E-2,-6.076721E-2,8.1293456E-2,-9.920746E-2,-5.9316803E-2,-1.9243255E-2,1.7491817E-1,2.6004645E-1,7.968498E-2,-1.8744665E-1,-1.1631502E-1,3.207193E-1,4.4087492E-2,-3.493428E-1,-4.6861967E-1,-1.7978019E-1,-3.0762324E-1,-1.5983388E-1,2.5834817E-1,9.2787266E-2,-7.176381E-2,2.660028E-1,1.1796888E-1,5.136942E-1,1.6393653E-1,2.4230762E-1,3.8680553E-1,4.5827445E-1,3.195883E-1,1.7757054E-1,3.338289E-2,2.1564336E-1,5.310501E-1,-1.0473037E-1,-9.626462E-3,3.7750268E-1,-2.0030404E-3,5.0597288E-2,1.6355775E-1,6.985808E-2,-7.716522E-2,-1.8990876E-1,-8.028642E-2,3.2586228E-2,2.7955553E-1,-4.04018E-1,-1.587737E-1,-1.4384652E-3,-1.470897E-1],"categories":[],"categories_nodes":[],"categories_segments":[],"categories_sizes":[],"default_left":[0,0,0,0,0,0,0,0,0,0,0,0,0,0,0,0,0,0,0,0,0,0,0,0,0,0,0,0,0,0,0,0,0,0,0,0,0,0,0,0,0,0,0,0,0,0,0,0,0,0,0,0,0,0,0,0,0,0,0,0,0,0,0,0,0,0,0,0,0,0,0,0,0,0,0,0,0,0,0,0,0,0,0,0,0,0,0,0,0,0,0,0,0,0,0,0,0,0,0,0,0,0,0,0,0,0,0,0,0,0,0,0,0,0,0,0,0,0,0,0,0],"id":12,"left_children":[1,3,5,7,9,11,13,15,17,19,21,23,25,27,29,31,33,35,37,39,41,43,45,47,49,51,53,55,57,59,61,63,65,67,-1,69,71,-1,73,75,-1,77,79,81,83,85,87,89,91,93,95,97,99,101,103,105,107,109,111,113,115,117,119,-1,-1,-1,-1,-1,-1,-1,-1,-1,-1,-1,-1,-1,-1,-1,-1,-1,-1,-1,-1,-1,-1,-1,-1,-1,-1,-1,-1,-1,-1,-1,-1,-1,-1,-1,-1,-1,-1,-1,-1,-1,-1,-1,-1,-1,-1,-1,-1,-1,-1,-1,-1,-1,-1,-1,-1,-1,-1],"loss_changes":[5.998775E4,1.3060984E4,2.020743E4,3.220582E3,5.4155273E3,1.2067516E4,2.5554814E3,1.3985391E3,2.314002E2,1.8148042E3,1.07421E3,2.2492397E3,5.605707E3,1.1547266E3,6.358013E2,8.076914E2,5.4970605E2,7.3875E1,1.6720633E2,4.8312964E2,7.779585E2,3.800542E2,2.816162E2,1.0834868E3,3.1469385E2,1.4586289E3,1.0610146E3,4.3232562E2,1.8245557E2,4.1485034E2,1.7906079E2,2.1730078E2,6.870215E1,1.7975317E2,0E0,5.890503E1,1.7672005E0,0E0,5.8389027E1,1.869768E2,0E0,7.607463E2,2.552644E2,1.0900659E2,6.2822136E1,2.614502E1,1.7921802E2,1.3430411E3,1.4461992E3,1.1709888E2,3.5471338E2,8.833574E2,9.6345703E2,7.274398E2,4.8879297E2,3.39337E2,1.540299E2,1.5443921E2,8.600918E1,3.5450464E2,6.2563606E1,1.866643E2,1.8763103E1,0E0,0E0,0E0,0E0,0E0,0E0,0E0,0E0,0E0,0E0,0E0,0E0,0E0,0E0,0E0,0E0,0E0,0E0,0E0,0E0,0E0,0E0,0E0,0E0,0E0,0E0,0E0,0E0,0E0,0E0,0E0,0E0,0E0,0E0,0E0,0E0,0E0,0E0,0E0,0E0,0E0,0E0,0E0,0E0,0E0,0E0,0E0,0E0,0E0,0E0,0E0,0E0,0E0,0E0,0E0,0E0,0E0,0E0],"parents":[2147483647,0,0,1,1,2,2,3,3,4,4,5,5,6,6,7,7,8,8,9,9,10,10,11,11,12,12,13,13,14,14,15,15,16,16,17,17,18,18,19,19,20,20,21,21,22,22,23,23,24,24,25,25,26,26,27,27,28,28,29,29,30,30,31,31,32,32,33,33,35,35,36,36,38,38,39,39,41,41,42,42,43,43,44,44,45,45,46,46,47,47,48,48,49,49,50,50,51,51,52,52,53,53,54,54,55,55,56,56,57,57,58,58,59,59,60,60,61,61,62,62],"right_children":[2,4,6,8,10,12,14,16,18,20,22,24,26,28,30,32,34,36,38,40,42,44,46,48,50,52,54,56,58,60,62,64,66,68,-1,70,72,-1,74,76,-1,78,80,82,84,86,88,90,92,94,96,98,100,102,104,106,108,110,112,114,116,118,120,-1,-1,-1,-1,-1,-1,-1,-1,-1,-1,-1,-1,-1,-1,-1,-1,-1,-1,-1,-1,-1,-1,-1,-1,-1,-1,-1,-1,-1,-1,-1,-1,-1,-1,-1,-1,-1,-1,-1,-1,-1,-1,-1,-1,-1,-1,-1,-1,-1,-1,-1,-1,-1,-1,-1,-1,-1,-1],"split_conditions":[5E0,4E0,1.1E1,1E1,1.2E1,1E0,1.3E1,6E0,1.3E1,6E0,1.4E1,1.3E1,8E0,1.3E1,1.6E1,2E0,3E0,3E0,2E0,1.1E1,1.9E1,2E1,7E0,3E0,1.4E1,7E0,7E0,1.4E1,9E0,2E1,1.9E1,1E0,3E0,2E0,-4.7524577E-1,2E0,2E0,-3.0119166E-1,2E0,6E0,-2.109865E-1,2E0,8E0,1.3E1,2E0,1.6E1,1.5E1,8E0,9E0,8E0,2E0,1E1,2E0,2E0,1.5E1,7E0,1.2E1,1.4E1,1.2E1,7E0,2.1E1,7E0,2E0,-3.1563222E-1,-5.264308E-1,-2.3466666E-1,-4.4889513E-1,-1.1123734E-1,-1.8247506E-1,4.9561813E-2,2.3817681E-1,8.9051925E-2,5.2459832E-2,-6.076721E-2,8.1293456E-2,-9.920746E-2,-5.9316803E-2,-1.9243255E-2,1.7491817E-1,2.6004645E-1,7.968498E-2,-1.8744665E-1,-1.1631502E-1,3.207193E-1,4.4087492E-2,-3.493428E-1,-4.6861967E-1,-1.7978019E-1,-3.0762324E-1,-1.5983388E-1,2.5834817E-1,9.2787266E-2,-7.176381E-2,2.660028E-1,1.1796888E-1,5.136942E-1,1.6393653E-1,2.4230762E-1,3.8680553E-1,4.5827445E-1,3.195883E-1,1.7757054E-1,3.338289E-2,2.1564336E-1,5.310501E-1,-1.0473037E-1,-9.626462E-3,3.7750268E-1,-2.0030404E-3,5.0597288E-2,1.6355775E-1,6.985808E-2,-7.716522E-2,-1.8990876E-1,-8.028642E-2,3.2586228E-2,2.7955553E-1,-4.04018E-1,-1.587737E-1,-1.4384652E-3,-1.470897E-1],"split_indices":[4,7,7,2,7,2,7,2,2,2,7,4,7,2,7,7,1,7,7,7,2,2,2,7,4,2,2,4,4,2,2,2,1,1,0,7,1,0,1,7,0,4,7,2,1,7,7,4,7,7,1,4,1,1,4,2,7,2,7,4,2,4,1,0,0,0,0,0,0,0,0,0,0,0,0,0,0,0,0,0,0,0,0,0,0,0,0,0,0,0,0,0,0,0,0,0,0,0,0,0,0,0,0,0,0,0,0,0,0,0,0,0,0,0,0,0,0,0,0,0,0],"split_type":[0,0,0,0,0,0,0,0,0,0,0,0,0,0,0,0,0,0,0,0,0,0,0,0,0,0,0,0,0,0,0,0,0,0,0,0,0,0,0,0,0,0,0,0,0,0,0,0,0,0,0,0,0,0,0,0,0,0,0,0,0,0,0,0,0,0,0,0,0,0,0,0,0,0,0,0,0,0,0,0,0,0,0,0,0,0,0,0,0,0,0,0,0,0,0,0,0,0,0,0,0,0,0,0,0,0,0,0,0,0,0,0,0,0,0,0,0,0,0,0,0],"sum_hessian":[9.46E3,5.277E3,4.183E3,1.63E3,3.647E3,3.231E3,9.52E2,1.547E3,8.3E1,3.181E3,4.66E2,1.044E3,2.187E3,5.75E2,3.77E2,1.153E3,3.94E2,5.2E1,3.1E1,1.322E3,1.859E3,2.63E2,2.03E2,9.45E2,9.9E1,1.078E3,1.109E3,3.87E2,1.88E2,3.19E2,5.8E1,5.1E2,6.43E2,3.81E2,1.3E1,2.5E1,2.7E1,4E0,2.7E1,1.254E3,6.8E1,1.747E3,1.12E2,2.55E2,8E0,7.6E1,1.27E2,1.39E2,8.06E2,6.3E1,3.6E1,5.19E2,5.59E2,3.58E2,7.51E2,3.76E2,1.1E1,1.49E2,3.9E1,3.09E2,1E1,5E1,8E0,4.96E2,1.4E1,6.39E2,4E0,1.59E2,2.22E2,6E0,1.9E1,1.4E1,1.3E1,1.3E1,1.4E1,4.82E2,7.72E2,1.696E3,5.1E1,2.5E1,8.7E1,1.64E2,9.1E1,3E0,5E0,5.7E1,1.9E1,5.3E1,7.4E1,1.17E2,2.2E1,6.38E2,1.68E2,3.9E1,2.4E1,2.4E1,1.2E1,3.63E2,1.56E2,3.4E2,2.19E2,2.05E2,1.53E2,7.39E2,1.2E1,1.76E2,2E2,7E0,4E0,4.4E1,1.05E2,2.3E1,1.6E1,1.81E2,1.28E2,5E0,5E0,3.8E1,1.2E1,4E0,4E0],"tree_param":{"num_deleted":"0","num_feature":"8","num_nodes":"121","size_leaf_vector":"1"}},{"base_weights":[2.3238355E-2,-2.122617E0,2.6887877E0,-4.742196E0,-6.3536423E-1,6.7481565E-1,3.4905531E0,-7.50733E0,-1.6222497E0,-1.7444712E0,1.0383263E0,-5.500337E0,1.873681E0,3.2978227E0,8.37625E0,-8.989579E0,-5.615165E0,-3.141335E0,-2.5130615E-1,-5.006021E0,-4.0939834E-2,7.316478E-1,3.5697317E0,-7.040864E0,-1.4229705E0,1.2339602E0,4.3312883E0,2.6168816E0,4.768742E0,7.589102E0,7.2172934E-1,-1.181879E1,-4.3694097E-1,-8.032773E0,-3.3407025E0,-3.5056427E0,1.2813882E0,-5.216076E-1,4.0438776E0,-5.161056E0,-2.7886906E-1,-5.7230085E-1,1.8063961E0,-5.4280244E-2,1.4617076E0,3.069283E0,5.5334015E0,-9.237562E0,-5.172136E0,-2.204153E0,4.248589E0,2.532005E-1,3.4238298E0,3.7531657E0,5.6629424E0,3.3334312E0,1.688705E0,3.8493779E0,7.0717783E0,6.0713825E0,4.5688924E-1,-6.2814176E-1,-3.0987933E-1,-4.0642357E-1,-4.7627594E-2,-1.2778388E-1,-1.9029616E-1,-2.1758221E-1,-1.1991236E-1,1.0793632E-1,-1.1428433E-1,-4.0900555E-2,1.9556578E-1,1.4347571E-1,2.9353902E-1,-3.4487596E-1,-2.3883319E-1,-9.102872E-2,1.8617742E-2,-5.6919534E-2,-1.2161496E-2,7.888969E-2,2.2909084E-1,6.013418E-4,-2.718172E-1,4.6132207E-2,1.3448821E-1,1.8662022E-1,1.1269512E-1,1.6759436E-1,3.6002943E-1,-4.7608337E-1,-3.029306E-1,-4.6742144E-1,-2.4123771E-1,-2.5628936E-1,-3.8221918E-2,2.747107E-1,9.7040825E-2,-6.1401792E-2,3.9494555E-2,1.4411357E-1,3.4324118E-1,1.7863052E-1,3.7154362E-1,2.0710693E-1,3.3744058E-1,1.1560571E-1,2.0919047E-1,2.0622155E-3,1.1101215E-1,2.8116652E-1,1.627534E-1,3.2187596E-1,4.9481517E-1,7.6040916E-2,3.1523344E-1],"categories":[],"categories_nodes":[],"categories_segments":[],"categories_sizes":[],"default_left":[0,0,0,0,0,0,0,0,0,0,0,0,0,0,0,0,0,0,0,0,0,0,0,0,0,0,0,0,0,0,0,0,0,0,0,0,0,0,0,0,0,0,0,0,0,0,0,0,0,0,0,0,0,0,0,0,0,0,0,0,0,0,0,0,0,0,0,0,0,0,0,0,0,0,0,0,0,0,0,0,0,0,0,0,0,0,0,0,0,0,0,0,0,0,0,0,0,0,0,0,0,0,0,0,0,0,0,0,0,0,0,0,0,0,0,0,0],"id":13,"left_children":[1,3,5,7,9,11,13,15,17,19,21,23,25,27,29,31,33,35,37,39,41,43,45,47,49,51,53,55,57,59,-1,61,-1,63,65,67,69,71,73,75,77,79,81,83,85,87,89,91,93,95,97,99,101,103,105,107,109,111,113,115,-1,-1,-1,-1,-1,-1,-1,-1,-1,-1,-1,-1,-1,-1,-1,-1,-1,-1,-1,-1,-1,-1,-1,-1,-1,-1,-1,-1,-1,-1,-1,-1,-1,-1,-1,-1,-1,-1,-1,-1,-1,-1,-1,-1,-1,-1,-1,-1,-1,-1,-1,-1,-1,-1,-1,-1,-1],"loss_changes":[5.4173004E4,2.0439174E4,6.8182812E3,1.6379254E4,6.2167095E3,8.92373E3,2.8170156E3,2.7738125E3,1.8610378E3,1.1189886E4,1.0337852E3,1.2211147E3,1.5809873E3,2.900205E3,4.3409863E2,2.9614062E2,2.4201123E3,6.876538E2,5.489377E2,5.0497656E2,1.3006753E3,6.8401843E2,1.24527466E2,5.351362E2,2.530433E2,1.7216173E3,1.3887671E2,1.3178887E3,1.9186016E3,1.8661914E2,0E0,1.0198486E2,0E0,1.3793457E2,7.463672E1,3.56812E2,1.082087E2,5.86586E2,4.3226227E1,4.135996E2,2.3769793E1,1.91409E2,1.8057336E2,2.0526501E2,4.0663464E2,5.4849E1,7.770026E1,1.1425781E-1,6.950659E1,2.0219131E2,9.459068E0,4.4217596E2,4.4236133E2,7.1729004E1,7.278052E1,9.6479004E2,7.608811E2,6.7646484E2,4.0386816E2,4.8798706E1,0E0,0E0,0E0,0E0,0E0,0E0,0E0,0E0,0E0,0E0,0E0,0E0,0E0,0E0,0E0,0E0,0E0,0E0,0E0,0E0,0E0,0E0,0E0,0E0,0E0,0E0,0E0,0E0,0E0,0E0,0E0,0E0,0E0,0E0,0E0,0E0,0E0,0E0,0E0,0E0,0E0,0E0,0E0,0E0,0E0,0E0,0E0,0E0,0E0,0E0,0E0,0E0,0E0,0E0,0E0,0E0,0E0],"parents":[2147483647,0,0,1,1,2,2,3,3,4,4,5,5,6,6,7,7,8,8,9,9,10,10,11,11,12,12,13,13,14,14,15,15,16,16,17,17,18,18,19,19,20,20,21,21,22,22,23,23,24,24,25,25,26,26,27,27,28,28,29,29,31,31,33,33,34,34,35,35,36,36,37,37,38,38,39,39,40,40,41,41,42,42,43,43,44,44,45,45,46,46,47,47,48,48,49,49,50,50,51,51,52,52,53,53,54,54,55,55,56,56,57,57,58,58,59,59],"right_children":[2,4,6,8,10,12,14,16,18,20,22,24,26,28,30,32,34,36,38,40,42,44,46,48,50,52,54,56,58,60,-1,62,-1,64,66,68,70,72,74,76,78,80,82,84,86,88,90,92,94,96,98,100,102,104,106,108,110,112,114,116,-1,-1,-1,-1,-1,-1,-1,-1,-1,-1,-1,-1,-1,-1,-1,-1,-1,-1,-1,-1,-1,-1,-1,-1,-1,-1,-1,-1,-1,-1,-1,-1,-1,-1,-1,-1,-1,-1,-1,-1,-1,-1,-1,-1,-1,-1,-1,-1,-1,-1,-1,-1,-1,-1,-1,-1,-1],"split_conditions":[5E0,7E0,1E0,9E0,6E0,7E0,1.4E1,6E0,4E0,1.4E1,1.9E1,8E0,1.9E1,7E0,1.6E1,3E0,2E0,2E1,2E1,2E0,2.5E1,7E0,7E0,6E0,1.4E1,8E0,2E1,2E0,7E0,1E0,7.2172934E-1,4E0,-4.3694097E-1,2E0,2E0,1.4E1,2.1E1,2E0,2.1E1,1.2E1,3E0,1.9E1,2.7E1,3E0,1.3E1,2E0,2E1,7E0,6E0,1E0,1.5E1,1.3E1,1.4E1,8E0,2E0,1E0,9E0,1.1E1,8E0,8E0,4.5688924E-1,-6.2814176E-1,-3.0987933E-1,-4.0642357E-1,-4.7627594E-2,-1.2778388E-1,-1.9029616E-1,-2.1758221E-1,-1.1991236E-1,1.0793632E-1,-1.1428433E-1,-4.0900555E-2,1.9556578E-1,1.4347571E-1,2.9353902E-1,-3.4487596E-1,-2.3883319E-1,-9.102872E-2,1.8617742E-2,-5.6919534E-2,-1.2161496E-2,7.888969E-2,2.2909084E-1,6.013418E-4,-2.718172E-1,4.6132207E-2,1.3448821E-1,1.8662022E-1,1.1269512E-1,1.6759436E-1,3.6002943E-1,-4.7608337E-1,-3.029306E-1,-4.6742144E-1,-2.4123771E-1,-2.5628936E-1,-3.8221918E-2,2.747107E-1,9.7040825E-2,-6.1401792E-2,3.9494555E-2,1.4411357E-1,3.4324118E-1,1.7863052E-1,3.7154362E-1,2.0710693E-1,3.3744058E-1,1.1560571E-1,2.0919047E-1,2.0622155E-3,1.1101215E-1,2.8116652E-1,1.627534E-1,3.2187596E-1,4.9481517E-1,7.6040916E-2,3.1523344E-1],"split_indices":[4,3,2,2,2,3,4,2,3,3,3,4,3,3,4,3,3,2,2,4,3,2,2,3,4,4,3,1,4,3,0,1,0,4,1,2,2,4,2,3,4,3,3,4,3,1,3,4,4,3,4,3,4,4,1,3,2,3,2,2,0,0,0,0,0,0,0,0,0,0,0,0,0,0,0,0,0,0,0,0,0,0,0,0,0,0,0,0,0,0,0,0,0,0,0,0,0,0,0,0,0,0,0,0,0,0,0,0,0,0,0,0,0,0,0,0,0],"split_type":[0,0,0,0,0,0,0,0,0,0,0,0,0,0,0,0,0,0,0,0,0,0,0,0,0,0,0,0,0,0,0,0,0,0,0,0,0,0,0,0,0,0,0,0,0,0,0,0,0,0,0,0,0,0,0,0,0,0,0,0,0,0,0,0,0,0,0,0,0,0,0,0,0,0,0,0,0,0,0,0,0,0,0,0,0,0,0,0,0,0,0,0,0,0,0,0,0,0,0,0,0,0,0,0,0,0,0,0,0,0,0,0,0,0,0,0,0],"sum_hessian":[9.469E3,5.246E3,4.223E3,1.899E3,3.347E3,1.203E3,3.02E3,1.006E3,8.93E2,2.013E3,1.334E3,1.95E2,1.008E3,2.907E3,1.13E2,5.62E2,4.44E2,4.23E2,4.7E2,6.9E2,1.323E3,1.191E3,1.43E2,1.41E2,5.4E1,8.01E2,2.07E2,1.989E3,9.18E2,1.02E2,1.1E1,4.2E1,5.2E2,2.14E2,2.3E2,3.91E2,3.2E1,4.43E2,2.7E1,6.68E2,2.2E1,1.028E3,2.95E2,5.74E2,6.17E2,1.16E2,2.7E1,6.3E1,7.8E1,4.8E1,6E0,5.54E2,2.47E2,1.47E2,6E1,1.121E3,8.68E2,6.58E2,2.6E2,5.4E1,4.8E1,3.6E1,6E0,2.11E2,3E0,8.8E1,1.42E2,2.2E2,1.71E2,2.6E1,6E0,4.16E2,2.7E1,1.8E1,9E0,1.18E2,5.5E2,6E0,1.6E1,3.77E2,6.51E2,2.74E2,2.1E1,5.68E2,6E0,4.3E2,1.87E2,6.2E1,5.4E1,1.3E1,1.4E1,5.6E1,7E0,4E0,7.4E1,1.5E1,3.3E1,3E0,3E0,1.47E2,4.07E2,2.15E2,3.2E1,1.42E2,5E0,2.7E1,3.3E1,5.11E2,6.1E2,2.12E2,6.56E2,1.63E2,4.95E2,2.15E2,4.5E1,3E0,5.1E1],"tree_param":{"num_deleted":"0","num_feature":"8","num_nodes":"117","size_leaf_vector":"1"}},{"base_weights":[-1.8422736E-3,-5.6712894E0,1.7797153E0,-8.169888E0,-3.8649743E0,3.728809E0,-6.977789E-1,-7.0238385E0,-9.481921E0,-1.9263834E0,-5.6977897E0,1.0767602E0,5.4124355E0,5.153054E-1,-3.0504956E0,-5.849133E-1,-6.7394924E0,-8.671031E0,-5.2684873E-1,-2.6463932E-1,-2.4447143E0,-5.138703E0,-9.074724E0,2.8070533E0,-9.85186E-1,7.9388947E0,4.4716377E0,-4.516245E0,1.1696709E0,-1.8645165E0,-5.0003376E0,-5.8170204E0,-7.3038282E0,-4.2144608E-1,-5.4260266E-1,9.030488E-1,-1.4749383E0,-2.5795622E0,5.411174E-1,-4.381547E0,-5.6962543E0,-8.435463E0,-5.8519316E-1,4.7846527E0,1.7294596E0,2.9273566E-2,-1.5507941E0,1.1033643E1,7.2367125E0,2.5812967E0,5.482985E0,-3.4979079E0,-5.489217E0,-5.2957684E-1,2.0764663E0,-4.0933034E-1,-1.3999441E0,-5.5286307E0,-2.6507018E0,-2.9501694E-1,-2.0481916E-1,-3.684649E-1,-1.0032781E-1,1.423525E-1,2.014692E-2,1.0466585E-1,-9.0534665E-2,-9.9744804E-2,-1.5375541E-1,3.7200806E-1,-4.698963E-2,-2.2330463E-1,-6.2232543E-2,-2.9097602E-1,-5.6641072E-2,-4.3348E-1,-2.622264E-1,1.909014E-1,3.2024196E-1,-1.4275333E-1,9.710234E-2,-2.2701965E-1,1.4513895E-2,-8.898168E-2,8.980935E-2,6.475645E-1,4.9701318E-1,3.1286067E-1,4.9487707E-1,1.6641629E-1,7.752049E-2,2.6249403E-1,5.112423E-1,-1.9312342E-1,-8.606903E-3,-2.5113752E-1,-3.0878884E-1,-2.9292512E-3,-8.451858E-2,8.943054E-2,2.1261504E-1,-9.2313014E-2,-7.064388E-3,-2.0888236E-1,-3.2555774E-1,-1.6473183E-2,-2.1039262E-1],"categories":[],"categories_nodes":[],"categories_segments":[],"categories_sizes":[],"default_left":[0,0,0,0,0,0,0,0,0,0,0,0,0,0,0,0,0,0,0,0,0,0,0,0,0,0,0,0,0,0,0,0,0,0,0,0,0,0,0,0,0,0,0,0,0,0,0,0,0,0,0,0,0,0,0,0,0,0,0,0,0,0,0,0,0,0,0,0,0,0,0,0,0,0,0,0,0,0,0,0,0,0,0,0,0,0,0,0,0,0,0,0,0,0,0,0,0,0,0,0,0,0,0,0,0,0,0],"id":14,"left_children":[1,3,5,7,9,11,13,15,17,19,21,23,25,27,29,-1,31,33,-1,35,37,39,41,43,45,47,49,51,53,55,57,59,61,-1,-1,63,65,67,69,71,73,75,-1,77,79,81,83,85,87,89,91,93,95,97,99,-1,101,103,105,-1,-1,-1,-1,-1,-1,-1,-1,-1,-1,-1,-1,-1,-1,-1,-1,-1,-1,-1,-1,-1,-1,-1,-1,-1,-1,-1,-1,-1,-1,-1,-1,-1,-1,-1,-1,-1,-1,-1,-1,-1,-1,-1,-1,-1,-1,-1,-1],"loss_changes":[9.593404E4,1.0218023E4,3.4900836E4,1.3648789E3,4.67909E3,1.8055336E4,9.085992E3,6.0168555E2,2.8592578E2,5.531904E2,1.2334297E3,5.611302E3,5.844914E3,6.922769E3,2.495085E3,0E0,2.099961E2,4.318164E1,0E0,2.189727E2,1.9868604E2,2.215791E2,6.093994E1,1.8137715E3,4.1202417E2,1.3761172E3,3.436625E3,2.2057568E2,2.867118E3,1.9710608E3,4.9303418E2,2.9248047E0,8.821582E1,0E0,0E0,7.565782E1,9.484288E1,1.2974829E2,2.3176318E2,6.1273926E1,1.8072461E2,1.430127E1,0E0,4.469453E2,5.464536E2,3.0903528E2,3.5628625E2,1.2706055E2,1.368918E3,4.807744E2,1.2451094E3,1.4604102E2,8.052002E0,3.541787E2,7.521284E2,0E0,3.536471E2,4.1481445E2,2.7693152E2,0E0,0E0,0E0,0E0,0E0,0E0,0E0,0E0,0E0,0E0,0E0,0E0,0E0,0E0,0E0,0E0,0E0,0E0,0E0,0E0,0E0,0E0,0E0,0E0,0E0,0E0,0E0,0E0,0E0,0E0,0E0,0E0,0E0,0E0,0E0,0E0,0E0,0E0,0E0,0E0,0E0,0E0,0E0,0E0,0E0,0E0,0E0,0E0],"parents":[2147483647,0,0,1,1,2,2,3,3,4,4,5,5,6,6,7,7,8,8,9,9,10,10,11,11,12,12,13,13,14,14,16,16,17,17,19,19,20,20,21,21,22,22,23,23,24,24,25,25,26,26,27,27,28,28,29,29,30,30,31,31,32,32,35,35,36,36,37,37,38,38,39,39,40,40,41,41,43,43,44,44,45,45,46,46,47,47,48,48,49,49,50,50,51,51,52,52,53,53,54,54,56,56,57,57,58,58],"right_children":[2,4,6,8,10,12,14,16,18,20,22,24,26,28,30,-1,32,34,-1,36,38,40,42,44,46,48,50,52,54,56,58,60,62,-1,-1,64,66,68,70,72,74,76,-1,78,80,82,84,86,88,90,92,94,96,98,100,-1,102,104,106,-1,-1,-1,-1,-1,-1,-1,-1,-1,-1,-1,-1,-1,-1,-1,-1,-1,-1,-1,-1,-1,-1,-1,-1,-1,-1,-1,-1,-1,-1,-1,-1,-1,-1,-1,-1,-1,-1,-1,-1,-1,-1,-1,-1,-1,-1,-1,-1],"split_conditions":[1.5E1,1E1,9E0,2E0,4E0,2.1E1,1.2E1,3E0,3E0,2E0,7E0,6E0,6E0,1.9E1,1.4E1,-5.849133E-1,1E0,4E0,-5.2684873E-1,2E0,1.3E1,5E0,9E0,4E0,7E0,4E0,4E0,1E1,2E0,2E1,7E0,6E0,7E0,-4.2144608E-1,-5.4260266E-1,1E0,1.2E1,3E0,1E0,8E0,1.4E1,1.4E1,-5.8519316E-1,4E0,1.7E1,1.8E1,1.9E1,3E0,8E0,8E0,1.4E1,7E0,1.1E1,1.1E1,1.3E1,-4.0933034E-1,7E0,1.5E1,9E0,-2.9501694E-1,-2.0481916E-1,-3.684649E-1,-1.0032781E-1,1.423525E-1,2.014692E-2,1.0466585E-1,-9.0534665E-2,-9.9744804E-2,-1.5375541E-1,3.7200806E-1,-4.698963E-2,-2.2330463E-1,-6.2232543E-2,-2.9097602E-1,-5.6641072E-2,-4.3348E-1,-2.622264E-1,1.909014E-1,3.2024196E-1,-1.4275333E-1,9.710234E-2,-2.2701965E-1,1.4513895E-2,-8.898168E-2,8.980935E-2,6.475645E-1,4.9701318E-1,3.1286067E-1,4.9487707E-1,1.6641629E-1,7.752049E-2,2.6249403E-1,5.112423E-1,-1.9312342E-1,-8.606903E-3,-2.5113752E-1,-3.0878884E-1,-2.9292512E-3,-8.451858E-2,8.943054E-2,2.1261504E-1,-9.2313014E-2,-7.064388E-3,-2.0888236E-1,-3.2555774E-1,-1.6473183E-2,-2.1039262E-1],"split_indices":[0,0,7,7,7,0,7,0,7,7,7,7,7,0,7,0,7,4,0,1,0,7,7,7,7,7,4,7,4,0,4,4,0,0,0,7,0,7,4,4,0,0,0,4,0,0,0,7,4,7,4,4,7,7,4,0,4,7,4,0,0,0,0,0,0,0,0,0,0,0,0,0,0,0,0,0,0,0,0,0,0,0,0,0,0,0,0,0,0,0,0,0,0,0,0,0,0,0,0,0,0,0,0,0,0,0,0],"split_type":[0,0,0,0,0,0,0,0,0,0,0,0,0,0,0,0,0,0,0,0,0,0,0,0,0,0,0,0,0,0,0,0,0,0,0,0,0,0,0,0,0,0,0,0,0,0,0,0,0,0,0,0,0,0,0,0,0,0,0,0,0,0,0,0,0,0,0,0,0,0,0,0,0,0,0,0,0,0,0,0,0,0,0,0,0,0,0,0,0,0,0,0,0,0,0,0,0,0,0,0,0,0,0,0,0,0,0],"sum_hessian":[9.496E3,2.27E3,7.226E3,9.51E2,1.319E3,4.044E3,3.182E3,5.11E2,4.4E2,6.42E2,6.77E2,1.571E3,2.473E3,2.1E3,1.082E3,2.7E1,4.84E2,2.54E2,1.86E2,1.53E2,4.89E2,5.83E2,9.4E1,8.54E2,7.17E2,6.69E2,1.804E3,2.41E2,1.859E3,6.74E2,4.08E2,1.88E2,2.96E2,2.33E2,2.1E1,7.8E1,7.5E1,4.68E2,2.1E1,2.51E2,3.32E2,7.9E1,1.5E1,3E2,5.54E2,2.57E2,4.6E2,1.21E2,5.48E2,6.3E2,1.174E3,1.2E2,1.21E2,6.47E2,1.212E3,4.5E1,6.29E2,3.32E2,7.6E1,1.77E2,1.1E1,2.92E2,4E0,1.5E1,6.3E1,6E0,6.9E1,2.17E2,2.51E2,3E0,1.8E1,2.44E2,7E0,3.23E2,9E0,7.2E1,7E0,1.9E2,1.1E2,2.4E1,5.3E2,1.3E1,2.44E2,4.31E2,2.9E1,4E1,8.1E1,4.03E2,1.45E2,3.64E2,2.66E2,1.121E3,5.3E1,1.08E2,1.2E1,7.7E1,4.4E1,4.61E2,1.86E2,1.072E3,1.4E2,4.64E2,1.65E2,1.42E2,1.9E2,3.1E1,4.5E1],"tree_param":{"num_deleted":"0","num_feature":"8","num_nodes":"107","size_leaf_vector":"1"}},{"base_weights":[-7.990917E-3,-5.467166E0,1.6478415E0,-7.746606E0,-3.7614062E0,3.5610478E0,-7.766315E-1,-6.635711E0,-8.978482E0,-2.5292475E0,-6.246351E0,1.0313916E0,5.117736E0,1.3772713E-1,-4.003746E0,-5.203652E-1,-6.353172E0,-8.644049E0,-1.0920132E1,-1.4254676E0,-3.3541129E0,-5.5251994E0,-8.553576E0,2.74104E0,-1.0354023E0,7.530065E0,4.2289615E0,-4.7377667E0,7.4986404E-1,-2.5656636E0,-4.8838387E0,-5.5025353E0,-6.8875628E0,-8.690716E0,-2.690919E-1,-5.6077623E-1,-3.171556E-1,-1.0135942E-1,-2.3138673E0,-2.3193247E0,-4.4320555E0,-4.7063055E0,-6.917692E0,-7.9288588E0,-5.5135113E-1,4.6861715E0,1.6889325E0,-1.466045E-2,-1.646409E0,1.0399875E1,6.8409734E0,4.9399095E0,1.0478442E0,-3.9777095E0,-6.559685E0,1.6554478E0,-1.3785026E0,-4.8787794E-1,-2.191888E0,-5.3441024E0,-2.7746189E0,-2.909608E-1,-1.938572E-1,-2.7965486E-1,-3.6452493E-1,-4.244102E-1,-5.263064E-1,-2.2192096E-2,3.3813855E-1,-1.565056E-1,-1.4093715E-2,-1.30221E-1,-2.283429E-2,-2.4019921E-1,-1.7460255E-1,-2.3973246E-1,-7.675537E-2,-3.064476E-1,-4.158899E-1,-4.0837312E-1,-2.1198498E-1,3.6364627E-1,1.8856326E-1,1.4886433E-1,3.8083818E-2,3.063686E-2,-7.1209386E-2,-3.2424044E-2,-1.3736324E-1,6.017864E-1,4.3145958E-1,4.5592505E-1,2.9126891E-1,3.0826625E-1,1.9794711E-1,-3.4828389E-3,1.487255E-1,-1.3622682E-1,-2.955799E-1,-3.0798668E-1,-4.3716884E-1,1.2537289E-1,2.2458656E-2,-3.704929E-2,-1.2983306E-1,-5.875675E-2,-1.6714442E-1,-2.1062906E-1,-3.088086E-1,-3.5332363E-2,-2.0342529E-1],"categories":[],"categories_nodes":[],"categories_segments":[],"categories_sizes":[],"default_left":[0,0,0,0,0,0,0,0,0,0,0,0,0,0,0,0,0,0,0,0,0,0,0,0,0,0,0,0,0,0,0,0,0,0,0,0,0,0,0,0,0,0,0,0,0,0,0,0,0,0,0,0,0,0,0,0,0,0,0,0,0,0,0,0,0,0,0,0,0,0,0,0,0,0,0,0,0,0,0,0,0,0,0,0,0,0,0,0,0,0,0,0,0,0,0,0,0,0,0,0,0,0,0,0,0,0,0,0,0,0,0],"id":15,"left_children":[1,3,5,7,9,11,13,15,17,19,21,23,25,27,29,-1,31,33,35,37,39,41,43,45,47,49,51,53,55,57,59,61,63,65,-1,-1,-1,67,69,71,73,75,77,79,-1,81,83,85,87,89,91,93,95,97,99,101,103,-1,105,107,109,-1,-1,-1,-1,-1,-1,-1,-1,-1,-1,-1,-1,-1,-1,-1,-1,-1,-1,-1,-1,-1,-1,-1,-1,-1,-1,-1,-1,-1,-1,-1,-1,-1,-1,-1,-1,-1,-1,-1,-1,-1,-1,-1,-1,-1,-1,-1,-1,-1,-1],"loss_changes":[8.502532E4,8.48207E3,3.347894E4,1.2213242E3,3.8237578E3,1.5880152E4,9.395707E3,4.624297E2,1.9197266E2,7.600132E2,6.432422E2,5.4373467E3,5.3217656E3,7.4110063E3,8.772178E2,0E0,1.7302344E2,1.1228516E1,1.1332031E1,4.2442328E2,5.251333E2,3.3120117E2,6.2452637E1,1.715228E3,4.346809E2,1.2557969E3,4.126785E3,3.5748682E2,4.254158E3,7.017263E2,4.0746973E2,7.214844E1,1.0578906E2,4.9666016E1,0E0,0E0,0E0,3.4622488E2,3.5737598E2,1.2997473E2,6.503418E1,4.9791504E1,7.712158E1,3.6672363E1,0E0,6.707295E2,6.5239185E2,2.3256818E2,4.7719702E2,2.6690332E2,1.2051797E3,1.7703164E3,7.214791E2,4.6374634E2,1.6012695E1,1.5898433E3,5.0985303E2,0E0,2.9683435E2,3.091582E2,2.1118274E2,0E0,0E0,0E0,0E0,0E0,0E0,0E0,0E0,0E0,0E0,0E0,0E0,0E0,0E0,0E0,0E0,0E0,0E0,0E0,0E0,0E0,0E0,0E0,0E0,0E0,0E0,0E0,0E0,0E0,0E0,0E0,0E0,0E0,0E0,0E0,0E0,0E0,0E0,0E0,0E0,0E0,0E0,0E0,0E0,0E0,0E0,0E0,0E0,0E0,0E0],"parents":[2147483647,0,0,1,1,2,2,3,3,4,4,5,5,6,6,7,7,8,8,9,9,10,10,11,11,12,12,13,13,14,14,16,16,17,17,18,18,19,19,20,20,21,21,22,22,23,23,24,24,25,25,26,26,27,27,28,28,29,29,30,30,31,31,32,32,33,33,37,37,38,38,39,39,40,40,41,41,42,42,43,43,45,45,46,46,47,47,48,48,49,49,50,50,51,51,52,52,53,53,54,54,55,55,56,56,58,58,59,59,60,60],"right_children":[2,4,6,8,10,12,14,16,18,20,22,24,26,28,30,-1,32,34,36,38,40,42,44,46,48,50,52,54,56,58,60,62,64,66,-1,-1,-1,68,70,72,74,76,78,80,-1,82,84,86,88,90,92,94,96,98,100,102,104,-1,106,108,110,-1,-1,-1,-1,-1,-1,-1,-1,-1,-1,-1,-1,-1,-1,-1,-1,-1,-1,-1,-1,-1,-1,-1,-1,-1,-1,-1,-1,-1,-1,-1,-1,-1,-1,-1,-1,-1,-1,-1,-1,-1,-1,-1,-1,-1,-1,-1,-1,-1,-1],"split_conditions":[1.5E1,1E1,9E0,2E0,5E0,2E1,1.3E1,5E0,4E0,3E0,7E0,6E0,6E0,1.9E1,1.4E1,-5.203652E-1,1E0,8E0,8E0,1.1E1,8E0,1E1,9E0,4E0,7E0,4E0,2.1E1,1.1E1,1.8E1,2E1,7E0,7E0,1E0,2E0,-2.690919E-1,-5.6077623E-1,-3.171556E-1,8E0,1.3E1,7E0,1.3E1,8E0,6E0,1.4E1,-5.5135113E-1,1E1,1.2E1,1E0,9E0,1.5E1,1E1,1E1,2.5E1,1E1,1.4E1,1.1E1,1.1E1,-4.8787794E-1,9E0,1.5E1,9E0,-2.909608E-1,-1.938572E-1,-2.7965486E-1,-3.6452493E-1,-4.244102E-1,-5.263064E-1,-2.2192096E-2,3.3813855E-1,-1.565056E-1,-1.4093715E-2,-1.30221E-1,-2.283429E-2,-2.4019921E-1,-1.7460255E-1,-2.3973246E-1,-7.675537E-2,-3.064476E-1,-4.158899E-1,-4.0837312E-1,-2.1198498E-1,3.6364627E-1,1.8856326E-1,1.4886433E-1,3.8083818E-2,3.063686E-2,-7.1209386E-2,-3.2424044E-2,-1.3736324E-1,6.017864E-1,4.3145958E-1,4.5592505E-1,2.9126891E-1,3.0826625E-1,1.9794711E-1,-3.4828389E-3,1.487255E-1,-1.3622682E-1,-2.955799E-1,-3.0798668E-1,-4.3716884E-1,1.2537289E-1,2.2458656E-2,-3.704929E-2,-1.2983306E-1,-5.875675E-2,-1.6714442E-1,-2.1062906E-1,-3.088086E-1,-3.5332363E-2,-2.0342529E-1],"split_indices":[0,0,7,7,7,0,7,0,7,7,7,7,7,0,7,0,7,0,0,3,3,3,7,7,7,7,3,7,3,0,4,3,3,4,0,0,0,3,3,3,3,3,7,0,0,3,3,4,3,3,3,3,3,3,3,7,7,0,3,7,4,0,0,0,0,0,0,0,0,0,0,0,0,0,0,0,0,0,0,0,0,0,0,0,0,0,0,0,0,0,0,0,0,0,0,0,0,0,0,0,0,0,0,0,0,0,0,0,0,0,0],"split_type":[0,0,0,0,0,0,0,0,0,0,0,0,0,0,0,0,0,0,0,0,0,0,0,0,0,0,0,0,0,0,0,0,0,0,0,0,0,0,0,0,0,0,0,0,0,0,0,0,0,0,0,0,0,0,0,0,0,0,0,0,0,0,0,0,0,0,0,0,0,0,0,0,0,0,0,0,0,0,0,0,0,0,0,0,0,0,0,0,0,0,0,0,0,0,0,0,0,0,0,0,0,0,0,0,0,0,0,0,0,0,0],"sum_hessian":[9.404E3,2.188E3,7.216E3,9.35E2,1.253E3,4.033E3,3.183E3,4.95E2,4.4E2,8.39E2,4.14E2,1.537E3,2.496E3,2.481E3,7.02E2,3.2E1,4.63E2,3.8E2,6E1,3.6E2,4.79E2,3.18E2,9.6E1,8.41E2,6.96E2,6.7E2,1.826E3,2.76E2,2.205E3,2.68E2,4.34E2,1.83E2,2.8E2,3.73E2,7E0,5.5E1,5E0,1.45E2,2.15E2,2.46E2,2.33E2,2.03E2,1.15E2,8E1,1.6E1,2.94E2,5.47E2,2.61E2,4.35E2,1.27E2,5.43E2,1.492E3,3.34E2,1.97E2,7.9E1,1.547E3,6.58E2,1.2E1,2.56E2,3.55E2,7.9E1,1.51E2,3.2E1,7E1,2.1E2,3.41E2,3.2E1,1.39E2,6E0,1.53E2,6.2E1,2.13E2,3.3E1,1.64E2,6.9E1,1.97E2,6E0,7.7E1,3.8E1,7.4E1,6E0,7.5E1,2.19E2,2.28E2,3.19E2,1.81E2,8E1,2.29E2,2.06E2,6.3E1,6.4E1,1.65E2,3.78E2,6.61E2,8.31E2,2.12E2,1.22E2,1.21E2,7.6E1,7E1,9E0,9.06E2,6.41E2,4.33E2,2.25E2,1.37E2,1.19E2,1.53E2,2.02E2,3.1E1,4.8E1],"tree_param":{"num_deleted":"0","num_feature":"8","num_nodes":"111","size_leaf_vector":"1"}},{"base_weights":[-8.336775E-2,-5.307813E0,1.5187007E0,-7.4430423E0,-3.649865E0,2.8901458E0,-1.3188342E0,-6.3266687E0,-8.634802E0,-2.5057364E0,-6.0723486E0,5.45969E-1,4.0820785E0,-3.4096244E-1,-3.6937797E0,-4.9744636E-1,-6.1399217E0,-8.887487E0,-6.0208116E0,-1.4001813E0,-3.362677E0,-4.881828E0,-7.2927814E0,3.158331E0,-7.12328E-1,6.1813984E0,2.8734362E0,-4.90308E0,2.5352028E-1,-2.2809992E0,-4.590745E0,-6.374779E0,-4.570137E0,-8.55872E0,-1.1155772E1,-4.0936275E0,-3.5987845E-1,-2.2799962E0,5.129792E-1,-3.648268E0,-2.3667917E-1,-5.377791E0,-3.7308645E0,